1.566309928894042969e-01
4.261013120412826538e-02
-6.422548294067382812e-01
-7.141288518905639648e-01
-2.670592963695526123e-01
-1.568197906017303467e-01
2.589997649192810059e-02
-3.269283175468444824e-01
-4.097709059715270996e-01
5.820874497294425964e-02
-1.814739704132080078e-01
4.637547209858894348e-02
-7.045284658670425415e-02
-1.599552482366561890e-01
1.733997464179992676e-01
1.307934820652008057e-01
1.162415966391563416e-01
1.031047254800796509e-01
2.707752399146556854e-02
4.866583347320556641e-01
-1.993487328290939331e-01
-9.581357240676879883e-02
-9.279911406338214874e-03
-1.179840043187141418e-01
1.671046949923038483e-02
-3.005172312259674072e-01
1.981813013553619385e-01
-2.447137534618377686e-01
-1.797006428241729736e-01
-1.783463358879089355e-01
-5.102538689970970154e-02
-1.970047354698181152e-01
2.173332422971725464e-01
-1.746372282505035400e-01
-1.767446398735046387e-01
1.102014034986495972e-01
-1.953111588954925537e-02
2.533055841922760010e-01
1.860288679599761963e-01
3.634690940380096436e-01
-1.261091209016740322e-03
1.074253022670745850e-02
-4.142518341541290283e-02
3.528620302677154541e-02
1.352898031473159790e-01
-3.945720791816711426e-01
-1.428867131471633911e-01
9.896280616521835327e-02
1.772972382605075836e-02
1.566085815429687500e-01
-2.259499579668045044e-01
-2.942009270191192627e-01
2.822325825691223145e-01
-1.419924050569534302e-01
-3.379873335361480713e-01
-3.939179182052612305e-01
-1.452032774686813354e-01
2.325712144374847412e-01
6.344109028577804565e-02
-1.044477671384811401e-01
-1.390799693763256073e-02
-1.031943708658218384e-01
1.814253330230712891e-01
1.537928730249404907e-01
-2.600399553775787354e-01
1.715934723615646362e-01
-1.091545596718788147e-01
-1.099348068237304688e-01
-3.429758548736572266e-01
-3.310174345970153809e-01
-8.361542597413063049e-03
4.419608786702156067e-02
-2.573825791478157043e-02
8.099670708179473877e-02
-1.819099038839340210e-01
7.672000676393508911e-02
-6.785164028406143188e-02
2.418151497840881348e-01
-6.707318592816591263e-03
-3.832219541072845459e-01
-4.398683905601501465e-01
3.474448248744010925e-02
2.439610213041305542e-01
-6.225727498531341553e-02
-3.539029359817504883e-01
-2.946823537349700928e-01
7.267871499061584473e-02
1.534404903650283813e-01
-1.514978557825088501e-01
-3.621458262205123901e-02
-2.673798203468322754e-01
6.475973874330520630e-02
-1.593194529414176941e-02
-6.112081184983253479e-02
3.176684081554412842e-01
-2.893749773502349854e-01
-1.433079242706298828e-01
-1.812197566032409668e-01
-1.091408580541610718e-01
3.852627873420715332e-01
-2.072636634111404419e-01
7.338401675224304199e-02
3.397865593433380127e-02
4.718957841396331787e-02
1.377556771039962769e-01
-2.584429681301116943e-01
-1.300634294748306274e-01
-6.314653903245925903e-02
-4.216852411627769470e-02
1.224465444684028625e-01
-1.091205626726150513e-01
5.392435193061828613e-02
9.837689995765686035e-02
3.437444940209388733e-02
2.072986066341400146e-01
-1.752511113882064819e-01
1.303542554378509521e-01
2.700690180063247681e-02
4.151012003421783447e-02
2.619107365608215332e-01
-1.758198887109756470e-01
1.924948543310165405e-01
2.520410716533660889e-01
2.980421781539916992e-01
4.155212342739105225e-01
2.360901981592178345e-01
-7.676753997802734375e-01
-2.449856102466583252e-01
-5.254757404327392578e-02
-1.364354789257049561e-01
1.539562642574310303e-01
-3.495049178600311279e-01
-1.578788161277770996e-01
-1.216009166091680527e-02
-1.493598967790603638e-01
-1.759994328022003174e-01
-1.229807287454605103e-01
1.932980865240097046e-01
1.648145467042922974e-01
-7.001046324148774147e-04
-3.266361653804779053e-01
-6.356152892112731934e-01
3.163866400718688965e-01
1.529378741979598999e-01
7.222268730401992798e-02
-9.186548739671707153e-02
-9.132290482521057129e-01
-1.828892827033996582e-01
-1.082858219742774963e-01
1.965948492288589478e-01
-5.459568500518798828e-01
-2.955242395401000977e-01
3.968691453337669373e-02
-7.620511949062347412e-02
5.008671432733535767e-02
-2.133149504661560059e-01
1.097623556852340698e-01
-1.346564590930938721e-01
-7.026691436767578125e-01
-2.987592816352844238e-01
3.485726937651634216e-02
1.879591345787048340e-01
9.902653843164443970e-02
-2.588559985160827637e-01
3.153860941529273987e-02
-3.229308500885963440e-02
5.118164699524641037e-03
4.314864426851272583e-02
2.326181828975677490e-01
-1.325460076332092285e-01
-1.159721314907073975e-01
-8.580517023801803589e-02
2.897133529186248779e-01
7.679358124732971191e-01
-5.453448370099067688e-02
-1.102898344397544861e-01
-1.535169929265975952e-01
-2.438861280679702759e-01
-5.449221134185791016e-01
-2.399493455886840820e-01
-2.300844192504882812e-01
-1.479179784655570984e-02
-1.921755820512771606e-01
1.984936147928237915e-01
1.032713577151298523e-01
2.616646885871887207e-02
3.290796279907226562e-01
3.123051822185516357e-01
1.638407707214355469e-01
1.085963398218154907e-01
8.068519830703735352e-02
-2.459182739257812500e-01
7.933423668146133423e-02
2.208300381898880005e-01
2.682157456874847412e-01
-1.643237471580505371e-02
3.217111229896545410e-01
1.828958392143249512e-01
-1.938620395958423615e-02
1.777036488056182861e-01
3.117692656815052032e-02
1.674016937613487244e-02
-3.276985883712768555e-01
-1.913525760173797607e-01
-3.129158020019531250e-01
1.667583137750625610e-01
-9.161517024040222168e-02
1.396290957927703857e-01
1.856651157140731812e-01
1.676819324493408203e-01
-6.298035848885774612e-03
-9.721196442842483521e-02
-6.135200709104537964e-02
1.699633896350860596e-01
6.669972091913223267e-02
2.819720655679702759e-02
2.995371446013450623e-02
-1.631539463996887207e-01
1.902885586023330688e-01
-1.984109729528427124e-02
-1.066906526684761047e-01
-7.879439741373062134e-02
-5.137774161994457245e-03
3.753726184368133545e-01
2.097424864768981934e-01
6.766705214977264404e-02
3.066357672214508057e-01
3.833644837141036987e-02
-5.798568204045295715e-02
-3.072749078273773193e-01
1.637669652700424194e-01
1.704462617635726929e-01
1.943728141486644745e-02
-6.806781142950057983e-02
-1.431432962417602539e-01
1.673319339752197266e-01
-2.689570747315883636e-02
1.383318603038787842e-01
3.892326727509498596e-02
-4.534186422824859619e-02
-7.354437373578548431e-03
-1.458716392517089844e-02
6.065810844302177429e-02
1.777875572443008423e-01
-2.977908402681350708e-02
-1.729187667369842529e-01
3.981961905956268311e-01
2.607536017894744873e-01
-3.245903849601745605e-01
6.079319864511489868e-02
4.934076592326164246e-02
1.272787302732467651e-01
-1.194915249943733215e-01
-3.323819041252136230e-01
-2.782321870326995850e-01
-3.250729292631149292e-02
-1.078860536217689514e-01
-8.428773283958435059e-02
-1.316080540418624878e-01
-1.782075166702270508e-01
-3.341909870505332947e-02
1.785634756088256836e-01
-1.381168663501739502e-01
-8.546628057956695557e-02
-1.682684719562530518e-01
1.009914875030517578e-01
1.653455048799514771e-01
1.559814810752868652e-01
4.795809090137481689e-02
2.491423636674880981e-01
1.975351870059967041e-01
2.315272241830825806e-01
3.980300948023796082e-02
2.762097679078578949e-02
2.103453874588012695e-01
-3.798504769802093506e-01
-3.411484658718109131e-01
-1.864804625511169434e-01
-8.833234012126922607e-02
-4.124060273170471191e-02
-3.877346813678741455e-01
-3.921471536159515381e-01
-8.031360059976577759e-02
6.285820621997117996e-03
-2.542267143726348877e-01
-6.264511495828628540e-02
-3.280786275863647461e-01
1.365905553102493286e-01
2.168371230363845825e-01
-7.313457876443862915e-02
-9.662228822708129883e-02
2.878209203481674194e-02
-1.780554503202438354e-01
-1.248103752732276917e-01
-4.159505665302276611e-01
-3.198150694370269775e-01
-2.834619581699371338e-01
-1.442722231149673462e-01
-3.973340094089508057e-01
-7.419294118881225586e-01
-4.897037446498870850e-01
-1.282940655946731567e-01
-8.269228786230087280e-02
8.605807274580001831e-02
6.287775039672851562e-01
-2.251992374658584595e-02
-1.811741441488265991e-01
2.364489585161209106e-01
-4.173655807971954346e-02
3.529229760169982910e-01
-9.271528571844100952e-02
-1.768078356981277466e-01
2.256512641906738281e-01
2.109953463077545166e-01
4.348151385784149170e-01
-1.627740263938903809e-01
-5.668623000383377075e-02
1.039445325732231140e-01
-7.201988995075225830e-02
-2.816822230815887451e-01
9.324820339679718018e-02
2.057018727064132690e-01
3.587140142917633057e-02
2.639657855033874512e-01
-4.412364065647125244e-01
-7.725842762738466263e-03
-7.236073613166809082e-01
-2.399960011243820190e-01
2.070160768926143646e-02
1.985614895820617676e-01
-1.058764979243278503e-01
-7.976698130369186401e-02
-1.338578313589096069e-01
1.875793188810348511e-02
-7.354301214218139648e-02
-2.375529892742633820e-02
-3.789853677153587341e-02
-6.311566568911075592e-03
1.959595978260040283e-01
8.115234225988388062e-02
1.020983010530471802e-01
3.740403354167938232e-01
2.576979100704193115e-01
-1.511945575475692749e-01
-1.220498606562614441e-01
1.125404760241508484e-01
1.371481418609619141e-01
1.335921436548233032e-01
-2.879427513107657433e-03
-7.888194918632507324e-02
2.860043346881866455e-01
-6.288718581199645996e-01
-4.660423398017883301e-01
7.368575036525726318e-02
-3.402056172490119934e-02
-3.089352138340473175e-02
1.568784415721893311e-01
-3.387601673603057861e-01
-1.761928349733352661e-01
-2.442593104206025600e-04
2.755030430853366852e-02
5.533732473850250244e-03
-2.775938808917999268e-01
3.117166161537170410e-01
-3.369874879717826843e-02
1.955923587083816528e-01
1.591375283896923065e-02
-1.654203832149505615e-01
1.996124833822250366e-01
-2.104801088571548462e-01
1.199706345796585083e-01
1.597223430871963501e-02
-6.504752486944198608e-02
-1.954118907451629639e-02
3.567193746566772461e-01
-1.916562169790267944e-01
-5.589303374290466309e-01
-6.963248550891876221e-02
3.490208089351654053e-02
-1.549058780074119568e-02
-4.738972336053848267e-02
8.099668473005294800e-02
-2.386867441236972809e-02
5.823372304439544678e-02
7.010669261217117310e-02
1.559470742940902710e-01
-1.395297795534133911e-01
4.281912744045257568e-02
2.023300379514694214e-01
-5.806337296962738037e-02
2.468787431716918945e-01
1.223768666386604309e-01
-1.880321800708770752e-01
5.187020633456995711e-06
-3.751091361045837402e-01
3.672407567501068115e-01
-2.159029431641101837e-02
-1.589273661375045776e-01
-3.500869870185852051e-02
-3.089964389801025391e-01
-1.767788529396057129e-01
-3.559715747833251953e-01
-1.511155813932418823e-01
1.124967336654663086e-01
-2.737919986248016357e-01
6.266283453442156315e-04
9.213447570800781250e-03
5.569550395011901855e-02
-7.980031520128250122e-02
-1.397883594036102295e-01
1.221987754106521606e-01
-3.868877515196800232e-02
-2.379938960075378418e-02
-2.966323867440223694e-02
-1.766216456890106201e-01
1.841205954551696777e-01
1.696795970201492310e-02
1.302996883168816566e-03
-1.386426538228988647e-01
-2.065095901489257812e-01
1.857678145170211792e-01
8.311550319194793701e-02
1.353080868721008301e-01
4.414143413305282593e-02
5.306719616055488586e-02
6.276088356971740723e-01
4.527797698974609375e-01
-2.596224844455718994e-01
-9.610097110271453857e-02
6.622846126556396484e-01
-3.971704542636871338e-01
-2.432731389999389648e-01
-1.961804479360580444e-01
-5.286240577697753906e-01
-2.807623744010925293e-01
-9.044987708330154419e-02
-2.186625748872756958e-01
1.787391155958175659e-01
-1.915227994322776794e-02
5.150349438190460205e-02
-5.151531696319580078e-01
-1.315691471099853516e-01
4.546591639518737793e-01
5.452115535736083984e-01
8.858412504196166992e-02
-5.573075413703918457e-01
-5.854746326804161072e-02
3.100163936614990234e-01
4.781635999679565430e-01
-2.768009006977081299e-01
4.615727066993713379e-01
-1.089630499482154846e-01
-8.110763877630233765e-02
-3.224971592426300049e-01
2.898721396923065186e-01
4.836435616016387939e-01
-6.684360653162002563e-02
9.147356450557708740e-02
9.869772940874099731e-02
1.967344433069229126e-02
9.926400333642959595e-02
8.452166616916656494e-02
2.891735732555389404e-01
-2.013060301542282104e-01
3.696570172905921936e-03
2.214187942445278168e-02
1.366866677999496460e-01
-5.264122411608695984e-02
-1.839663982391357422e-01
3.765400126576423645e-02
2.725466191768646240e-01
-1.711765527725219727e-01
-6.990658491849899292e-02
3.243677690625190735e-02
1.168012171983718872e-01
2.250369191169738770e-01
-6.823602318763732910e-02
8.146217465400695801e-02
-3.128540217876434326e-01
4.042822420597076416e-01
3.735620975494384766e-01
1.993467807769775391e-01
2.198575288057327271e-01
-6.430212408304214478e-02
-2.921430468559265137e-01
3.054855167865753174e-01
7.133656740188598633e-02
-6.702750176191329956e-02
1.746051385998725891e-02
-3.949653357267379761e-02
2.199887037277221680e-01
6.980311125516891479e-02
4.105833172798156738e-02
-1.522360742092132568e-01
-1.048616021871566772e-01
-9.815664589405059814e-02
-2.000928372144699097e-01
8.663123100996017456e-02
-8.805491775274276733e-02
1.195842325687408447e-01
1.244138702750205994e-01
-5.562604591250419617e-02
1.447640657424926758e-01
-6.276448369026184082e-01
-1.200609654188156128e-01
7.760496437549591064e-02
-1.249777153134346008e-01
-1.383197456598281860e-01
2.543532252311706543e-01
9.244950115680694580e-02
8.149174600839614868e-02
-1.712570339441299438e-01
-2.555828690528869629e-01
2.076758146286010742e-01
-9.379091113805770874e-02
8.244118094444274902e-02
7.869216799736022949e-02
1.552467644214630127e-01
-6.562285125255584717e-02
-6.093733012676239014e-03
3.060143887996673584e-01
-2.581024914979934692e-02
-1.127779707312583923e-01
-4.366116225719451904e-02
-1.107907737605273724e-03
1.826085895299911499e-01
-4.957510828971862793e-01
-3.877224624156951904e-01
-5.876932144165039062e-01
1.302537918090820312e-01
1.248274743556976318e-01
-3.577581048011779785e-02
1.030541211366653442e-01
-5.529623851180076599e-02
3.617725148797035217e-02
-8.247466385364532471e-02
6.851322948932647705e-02
-7.197092473506927490e-02
-1.381839513778686523e-01
1.266222354024648666e-02
8.458925038576126099e-02
1.585377603769302368e-01
3.655974194407463074e-02
-1.223705783486366272e-01
9.420903772115707397e-02
-1.970581412315368652e-01
-1.382707059383392334e-01
5.012736469507217407e-02
1.189668290317058563e-02
2.057209312915802002e-01
-4.151132702827453613e-02
-2.465514391660690308e-01
-3.999771773815155029e-01
-4.222617447376251221e-01
-1.151009798049926758e-01
5.540526285767555237e-02
2.838501892983913422e-02
1.410871148109436035e-01
4.884292930364608765e-02
1.415444910526275635e-01
1.787908673286437988e-01
-1.123998314142227173e-01
1.233153603971004486e-02
-1.133655682206153870e-01
-1.144833043217658997e-01
1.333900988101959229e-01
3.170885518193244934e-02
8.060825616121292114e-02
3.816513717174530029e-02
-4.510529339313507080e-02
3.262724727392196655e-03
1.841994524002075195e-01
-2.731205429881811142e-03
-8.617191016674041748e-02
8.062693290412425995e-03
7.380380034446716309e-01
5.738599300384521484e-01
7.706402540206909180e-01
1.528583670733496547e-04
-3.492942154407501221e-01
5.719093978404998779e-02
1.051908545196056366e-02
1.570679396390914917e-01
1.652116328477859497e-01
-3.378342390060424805e-01
1.203204616904258728e-01
2.477644383907318115e-02
3.382109478116035461e-02
-6.747215241193771362e-02
-3.109191358089447021e-01
-2.506150305271148682e-01
-1.888404935598373413e-01
-1.095306575298309326e-01
-1.847885996103286743e-01
-2.815659642219543457e-01
-3.768438994884490967e-01
1.482109427452087402e-01
5.544981732964515686e-02
-1.708370745182037354e-01
7.449426501989364624e-02
1.715412735939025879e-01
-1.092790365219116211e-01
1.708873510360717773e-01
-1.891911774873733521e-01
1.037680581212043762e-01
-1.569206416606903076e-01
-6.106948256492614746e-01
-1.295644640922546387e-01
-8.459799736738204956e-02
-2.817805483937263489e-02
-3.155655264854431152e-01
-6.536212563514709473e-01
3.169957548379898071e-02
7.885026745498180389e-03
-5.243324488401412964e-02
1.670471727848052979e-01
3.761385753750801086e-02
2.885430455207824707e-01
2.537125162780284882e-02
-7.838527858257293701e-02
5.280164480209350586e-01
4.664166271686553955e-01
3.244518637657165527e-01
2.288729697465896606e-01
-5.324125289916992188e-01
2.645908109843730927e-02
5.198679864406585693e-02
-1.574975848197937012e-01
5.185302719473838806e-02
-3.676852285861968994e-01
-6.010435223579406738e-01
3.309520184993743896e-01
-9.180561453104019165e-02
2.571242153644561768e-01
-3.519853651523590088e-01
1.249590739607810974e-01
2.864822745323181152e-01
1.999130994081497192e-01
5.252933874726295471e-02
1.533405035734176636e-01
2.179024815559387207e-01
1.298981904983520508e-01
3.489126265048980713e-01
-7.469160109758377075e-02
3.557198867201805115e-02
9.562478959560394287e-02
-2.298562377691268921e-01
-9.410758316516876221e-02
-1.527617722749710083e-01
-1.702856123447418213e-01
-3.380979895591735840e-01
1.738356947898864746e-01
-1.985603719949722290e-01
-1.354369968175888062e-01
1.169354468584060669e-01
-1.125853210687637329e-01
1.894329339265823364e-01
1.199849024415016174e-01
2.395552843809127808e-01
2.067990303039550781e-01
1.633705645799636841e-01
1.212359685450792313e-02
-2.390798330307006836e-01
-9.852372854948043823e-02
8.328574895858764648e-02
2.548044323921203613e-01
-1.059373244643211365e-01
-2.951232790946960449e-01
-2.784190177917480469e-01
5.483086034655570984e-02
1.471582651138305664e-01
-2.261846959590911865e-01
-2.749916315078735352e-01
-3.886169195175170898e-01
2.903600931167602539e-01
-3.745648860931396484e-01
-3.866943120956420898e-01
-3.098443746566772461e-01
-2.332117408514022827e-02
2.165067568421363831e-02
-3.308857977390289307e-01
-1.879402250051498413e-01
8.679299056529998779e-02
1.736609637737274170e-01
8.262272924184799194e-02
-1.905070096254348755e-01
1.009471565485000610e-01
2.208960205316543579e-01
4.277308657765388489e-02
1.403297781944274902e-01
-2.623980045318603516e-01
-1.899449825286865234e-01
2.529632449150085449e-01
-2.990183420479297638e-02
2.435745000839233398e-01
-9.700280427932739258e-02
-1.336694061756134033e-01
2.201633006334304810e-01
-2.290449105203151703e-02
2.490344643592834473e-01
-5.023589134216308594e-01
-3.731797337532043457e-01
-1.058014035224914551e-01
-1.408482342958450317e-01
-1.098826602101325989e-01
-2.106114029884338379e-01
6.433778256177902222e-02
8.301544934511184692e-02
-1.023529395461082458e-01
-1.600470207631587982e-02
-5.914404615759849548e-02
-1.225839601829648018e-03
6.429854780435562134e-02
9.926262497901916504e-02
-7.358092814683914185e-02
1.986290812492370605e-01
2.292023599147796631e-01
7.921176403760910034e-02
-2.048835158348083496e-01
-7.280435413122177124e-02
-5.641976743936538696e-02
1.067566499114036560e-01
-1.925782859325408936e-02
-1.214522942900657654e-01
-2.380263060331344604e-01
5.367957949638366699e-01
2.811207175254821777e-01
-2.644169889390468597e-02
-5.397753715515136719e-01
-1.523721516132354736e-01
-1.004307940602302551e-01
1.235572695732116699e-01
2.296432107686996460e-01
1.037970185279846191e-01
1.042881086468696594e-01
6.278320401906967163e-02
-1.703546643257141113e-01
2.625576853752136230e-01
5.228352174162864685e-02
-3.092617914080619812e-02
-6.788050383329391479e-02
6.515278667211532593e-02
1.423251479864120483e-01
-9.117840230464935303e-02
1.709531620144844055e-02
-2.472578585147857666e-01
-3.029855489730834961e-01
-2.602277882397174835e-02
-1.425258517265319824e-01
-4.446401447057723999e-02
-3.958227038383483887e-01
-8.754061907529830933e-02
2.300480902194976807e-01
2.572140693664550781e-01
3.594219386577606201e-01
-2.312712818384170532e-01
2.224749512970447540e-02
9.730372577905654907e-02
1.530241966247558594e-01
4.049199223518371582e-01
-1.078820005059242249e-01
-1.788344830274581909e-01
2.102048397064208984e-01
1.185996457934379578e-01
1.753318905830383301e-01
-1.511063426733016968e-01
-3.739531636238098145e-01
4.342878758907318115e-01
4.045155346393585205e-01
-3.202950656414031982e-01
-2.564747631549835205e-01
-3.097949624061584473e-01
5.280011892318725586e-01
5.629334449768066406e-01
2.348993867635726929e-01
7.910014688968658447e-02
4.553250968456268311e-02
-4.108640551567077637e-02
3.774127364158630371e-02
2.010388076305389404e-01
-9.909440577030181885e-02
-9.211500175297260284e-03
1.667590588331222534e-01
1.145717129111289978e-01
7.732950896024703979e-02
5.679911002516746521e-02
-2.991510787978768349e-03
1.100338250398635864e-01
1.475258916616439819e-01
-1.309979707002639771e-01
-4.165160655975341797e-02
-3.799788653850555420e-02
1.692583039402961731e-02
-3.224397897720336914e-01
-2.428805679082870483e-01
3.514914810657501221e-01
3.913427293300628662e-01
6.947181373834609985e-02
-2.364205718040466309e-01
-2.244680933654308319e-02
1.193265318870544434e-01
1.789868324995040894e-01
-1.730748452246189117e-02
-1.799755841493606567e-01
-3.365695774555206299e-01
-5.094786360859870911e-02
-2.794382274150848389e-01
-1.471182107925415039e-01
-3.412023484706878662e-01
-3.926467895507812500e-01
-2.169231176376342773e-01
-1.348944604396820068e-01
-3.740559518337249756e-01
-2.522610723972320557e-01
4.604564514011144638e-03
-1.770348548889160156e-01
-2.244668602943420410e-01
-3.084460794925689697e-01
-5.884645879268646240e-02
1.109885722398757935e-01
1.162177771329879761e-01
-1.934822350740432739e-01
-8.073763251304626465e-01
-6.293179839849472046e-02
-1.485289484262466431e-01
-1.113049313426017761e-01
-8.455416560173034668e-02
-2.354732528328895569e-02
-5.132115632295608521e-02
2.848265767097473145e-01
-1.427433639764785767e-01
2.318036742508411407e-02
6.990725547075271606e-02
-3.599373251199722290e-02
6.663680821657180786e-02
4.687814414501190186e-02
3.589111566543579102e-02
2.108492553234100342e-01
2.213236317038536072e-02
4.439784213900566101e-02
1.054641678929328918e-01
1.762855201959609985e-01
-5.323882028460502625e-02
-1.478861868381500244e-01
-9.028121083974838257e-02
-3.980918228626251221e-02
2.807387150824069977e-02
-8.720360696315765381e-03
-6.798422932624816895e-01
-2.049068808555603027e-01
-1.989383548498153687e-01
1.126730218529701233e-01
1.637370139360427856e-01
2.792483270168304443e-01
4.420056045055389404e-01
-3.937576338648796082e-02
-1.124441437423229218e-02
2.902456745505332947e-02
6.988997012376785278e-02
1.195452287793159485e-01
-9.381083399057388306e-02
5.805788934230804443e-02
-1.441568285226821899e-01
7.410646229982376099e-02
-2.222775667905807495e-02
-5.884555168449878693e-03
-2.711652033030986786e-02
-1.853220313787460327e-01
-5.464743077754974365e-02
-2.511193230748176575e-02
5.698768049478530884e-02
-1.392494738101959229e-01
-2.256798893213272095e-01
-2.773308753967285156e-02
-8.082094788551330566e-02
-2.529582679271697998e-01
-5.777162685990333557e-02
-3.695855140686035156e-01
1.175999175757169724e-02
9.030847996473312378e-02
5.068896412849426270e-01
8.092927932739257812e-02
-2.431686073541641235e-01
-1.563216596841812134e-01
2.374869138002395630e-01
-2.020657956600189209e-01
-2.978446185588836670e-01
-1.571250110864639282e-01
-4.606538414955139160e-01
-6.028037518262863159e-02
-1.711588650941848755e-01
-1.806247420608997345e-02
2.176724672317504883e-01
-2.556479275226593018e-01
5.228316411375999451e-02
2.166870534420013428e-01
4.919767081737518311e-01
5.206015110015869141e-01
-2.391583286225795746e-03
5.903951451182365417e-02
-2.143864147365093231e-02
3.049290366470813751e-02
4.793988540768623352e-02
-8.137185871601104736e-02
1.656014658510684967e-02
-5.099407956004142761e-02
-1.186477243900299072e-01
-5.250097811222076416e-02
1.439644861966371536e-02
-3.766917437314987183e-02
-6.384588032960891724e-02
-2.911208383738994598e-02
-9.568306803703308105e-02
-5.579756200313568115e-02
4.886589013040065765e-03
-1.436427887529134750e-02
5.709378793835639954e-02
-3.677649796009063721e-02
-9.965959936380386353e-02
4.031378403306007385e-02
-4.361472278833389282e-02
2.707084827125072479e-02
1.333312876522541046e-02
-6.481314543634653091e-03
-4.569284990429878235e-02
1.633337669773027301e-04
-5.681912414729595184e-03
-7.979384064674377441e-02
-9.892051666975021362e-02
-6.525111850351095200e-03
3.317724168300628662e-02
-8.817276358604431152e-02
-9.450709819793701172e-02
-1.040778309106826782e-01
-6.696543423458933830e-04
5.215181037783622742e-02
2.484291419386863708e-02
-1.302270740270614624e-01
-1.097392290830612183e-01
3.240776807069778442e-02
-9.295306168496608734e-03
-8.138711005449295044e-02
-8.826049417257308960e-02
-1.324009448289871216e-01
-4.616795480251312256e-02
-2.059881202876567841e-02
1.222971919924020767e-02
-9.086653590202331543e-02
-1.319872438907623291e-01
2.287034131586551666e-02
1.190180703997612000e-02
-9.867928922176361084e-03
7.067700475454330444e-02
-1.088333427906036377e-01
-3.647257387638092041e-02
-1.104516386985778809e-01
-9.689471870660781860e-02
-7.467117160558700562e-02
-1.480132788419723511e-01
4.561208654195070267e-03
1.079238858073949814e-02
6.868813931941986084e-02
-1.001180633902549744e-01
1.234798040241003036e-02
-4.755754023790359497e-02
-1.165004521608352661e-01
-7.523281127214431763e-02
-1.332119293510913849e-02
-5.826268717646598816e-02
-9.493733197450637817e-02
-5.748776346445083618e-02
-5.984311923384666443e-02
-1.006842404603958130e-01
6.684707850217819214e-02
-5.643252655863761902e-02
-7.953192293643951416e-02
-3.451373428106307983e-02
-1.084903627634048462e-01
-5.366861075162887573e-02
-7.478552311658859253e-02
4.041701555252075195e-02
-1.133145168423652649e-01
-2.383863367140293121e-02
-1.240521222352981567e-01
-2.803978323936462402e-02
8.588863536715507507e-03
6.200150121003389359e-03
-1.704716309905052185e-02
-3.178191557526588440e-02
-2.597012557089328766e-02
-9.050421416759490967e-02
-4.624561872333288193e-03
-6.050729006528854370e-02
-6.800148636102676392e-02
-8.701243251562118530e-02
5.856150388717651367e-02
-6.546173244714736938e-02
7.015073206275701523e-04
-5.390321835875511169e-02
-2.304860763251781464e-02
-2.498907782137393951e-02
-6.752247363328933716e-02
-8.292692154645919800e-02
-5.643409863114356995e-02
-7.194449752569198608e-02
-2.203113771975040436e-02
-5.528475344181060791e-02
-1.688092947006225586e-02
-1.328293532133102417e-01
-7.247180491685867310e-02
-5.972321704030036926e-02
9.006367065012454987e-03
-1.281420588493347168e-01
-1.624817252159118652e-01
-5.750021338462829590e-02
5.918802693486213684e-02
-1.499096304178237915e-02
-4.351607710123062134e-02
-1.584285497665405273e-01
-1.240848600864410400e-01
-7.754901796579360962e-02
-6.186212226748466492e-02
-1.134376898407936096e-01
-1.766269467771053314e-02
-1.388005018234252930e-01
-4.844110831618309021e-02
-1.010232046246528625e-02
-5.885925889015197754e-02
-5.236493051052093506e-02
-5.167469382286071777e-02
7.722176611423492432e-02
5.933484062552452087e-02
-9.286510199308395386e-02
-2.538567781448364258e-02
1.487286994233727455e-03
1.809643208980560303e-02
6.156438216567039490e-02
-7.717639207839965820e-02
-8.761477470397949219e-02
1.474919496104121208e-03
4.787513613700866699e-02
4.690586030483245850e-02
-1.234926134347915649e-01
-2.352400682866573334e-03
-1.206299960613250732e-01
4.822441935539245605e-02
-6.229276186786592007e-04
-2.522846311330795288e-02
-1.180012747645378113e-01
-1.255487203598022461e-01
-3.374941051006317139e-01
2.978337407112121582e-01
5.866863727569580078e-01
5.697019100189208984e-01
7.149627208709716797e-01
-4.406513273715972900e-01
-6.454367637634277344e-01
-3.985818922519683838e-01
-7.529681324958801270e-01
7.997319847345352173e-02
-1.518571376800537109e-02
-6.060373783111572266e-01
-1.919206976890563965e-01
1.421934366226196289e-01
9.485825896263122559e-02
-4.256000369787216187e-02
-1.067502275109291077e-01
3.623981773853302002e-02
1.529213190078735352e-01
-9.461317211389541626e-02
-1.236411482095718384e-01
1.565175503492355347e-02
3.528024554252624512e-01
2.185237556695938110e-01
1.838975213468074799e-02
-2.763308882713317871e-01
-4.476031363010406494e-01
1.805276796221733093e-02
9.649898111820220947e-02
3.857438638806343079e-02
-1.548424810171127319e-01
-1.506170909851789474e-02
3.465028852224349976e-02
-9.878853708505630493e-02
-1.562186628580093384e-01
-2.217102050781250000e-02
8.983200788497924805e-02
-1.888355314731597900e-01
3.217073678970336914e-01
-3.064324147999286652e-02
-7.400336209684610367e-03
-3.394939005374908447e-02
-5.251459479331970215e-01
2.903858125209808350e-01
-6.110641360282897949e-02
-6.385020166635513306e-02
3.558168187737464905e-02
1.060285046696662903e-01
1.581788659095764160e-01
1.822095736861228943e-02
-3.031108379364013672e-01
-1.551196128129959106e-01
-1.248829960823059082e-01
1.034897267818450928e-01
-6.383679807186126709e-02
2.120688557624816895e-01
-1.797796040773391724e-01
-4.265907704830169678e-01
-3.497478961944580078e-01
-4.111888408660888672e-01
2.333577424287796021e-01
9.039869904518127441e-02
-3.903244435787200928e-01
-3.975475430488586426e-01
-5.626812577247619629e-01
4.005493223667144775e-01
4.107666388154029846e-02
-2.087025940418243408e-01
-2.534621655941009521e-01
-4.241444766521453857e-01
2.922174893319606781e-02
4.048000648617744446e-02
-2.469980418682098389e-01
1.104472856968641281e-02
-4.367266893386840820e-01
-2.250529080629348755e-01
-3.256658315658569336e-01
-2.801235020160675049e-01
1.366736460477113724e-02
1.015150696039199829e-01
-2.176201492547988892e-01
-3.785697817802429199e-01
-3.937807083129882812e-01
-2.056925892829895020e-01
-2.567921578884124756e-02
-1.839811354875564575e-01
-5.060973167419433594e-01
-1.249857433140277863e-02
-4.516715928912162781e-02
-2.946216054260730743e-02
-1.968525201082229614e-01
-1.332581639289855957e-01
1.903936415910720825e-01
1.572958976030349731e-01
2.399211972951889038e-01
-1.324132829904556274e-01
-2.559662610292434692e-02
-9.782651811838150024e-02
1.980589330196380615e-01
3.216237425804138184e-01
-2.020196765661239624e-01
-1.047305092215538025e-01
1.391053050756454468e-01
3.330676555633544922e-01
2.863246500492095947e-01
-2.309264838695526123e-01
-2.306167036294937134e-01
2.930119819939136505e-02
3.769277362152934074e-03
1.971330195665359497e-01
-2.524094581604003906e-01
3.455940634012222290e-02
3.243349492549896240e-03
-3.376555815339088440e-02
1.032692287117242813e-02
-1.230084057897329330e-02
1.110380887985229492e-01
2.773360535502433777e-02
1.276713013648986816e-01
1.365086138248443604e-01
-5.909280478954315186e-02
1.279868632555007935e-01
1.746881753206253052e-01
8.601484447717666626e-02
3.031948022544384003e-02
3.085123896598815918e-01
2.478676289319992065e-01
-6.047767996788024902e-01
4.756512120366096497e-03
3.245676159858703613e-01
3.893433883786201477e-02
2.647095024585723877e-01
-2.108068913221359253e-01
5.640277639031410217e-02
-1.247117295861244202e-01
1.083295792341232300e-01
1.309186369180679321e-01
-3.178061917424201965e-02
-1.276621371507644653e-01
-5.866472795605659485e-02
2.110243886709213257e-01
-3.997343592345714569e-03
-1.507292874157428741e-02
-4.118384420871734619e-01
-8.831688016653060913e-02
-3.201338350772857666e-01
-4.353210031986236572e-01
9.883125126361846924e-02
-4.161047041416168213e-01
2.269780039787292480e-01
-3.689141273498535156e-01
1.335011143237352371e-02
-9.755379706621170044e-02
1.035950705409049988e-01
3.078648746013641357e-01
1.715214550495147705e-01
1.104375272989273071e-01
-2.533438801765441895e-01
-3.917994499206542969e-01
2.212119251489639282e-01
-1.827896758913993835e-02
2.611116878688335419e-02
-9.332970529794692993e-02
-1.768082976341247559e-01
7.524991873651742935e-03
3.624112904071807861e-01
2.844011783599853516e-01
8.395487675443291664e-04
6.228234246373176575e-02
-1.743285655975341797e-01
2.043079137802124023e-01
1.632290035486221313e-01
-5.548121989704668522e-04
9.519192576408386230e-02
1.245611384510993958e-01
-3.804673254489898682e-01
3.565180301666259766e-01
-2.596261678263545036e-03
2.075716853141784668e-01
-1.430738065391778946e-02
-2.190086096525192261e-01
1.392193790525197983e-02
1.657166779041290283e-01
1.662375479936599731e-01
-7.635727524757385254e-02
-2.225583419203758240e-02
1.081990003585815430e-01
2.399208843708038330e-01
-5.581432580947875977e-02
-1.018278971314430237e-01
-2.089163959026336670e-01
-6.265848875045776367e-02
-1.584357321262359619e-01
-2.599314749240875244e-01
1.165156485512852669e-03
4.421177506446838379e-02
1.442250013351440430e-01
8.974468708038330078e-02
-3.498578965663909912e-01
-1.103987470269203186e-01
1.917878687381744385e-01
7.123334705829620361e-02
9.485448896884918213e-02
4.387546777725219727e-01
4.205797985196113586e-02
1.633414477109909058e-01
1.784316599369049072e-01
1.885391026735305786e-01
1.092763096094131470e-01
8.505083620548248291e-03
1.929449290037155151e-01
1.584778279066085815e-01
-1.502579916268587112e-02
-3.039711117744445801e-01
-3.845129609107971191e-01
-2.064134366810321808e-02
-3.061178140342235565e-03
-6.813557446002960205e-02
-2.674104273319244385e-01
-6.417265534400939941e-01
-2.041510492563247681e-01
-2.039547860622406006e-01
-1.077285483479499817e-01
-3.883028924465179443e-01
-9.705430269241333008e-01
-1.547113340348005295e-02
1.146743446588516235e-01
2.065691947937011719e-01
1.706718653440475464e-01
8.160558529198169708e-03
4.064993932843208313e-03
4.822941124439239502e-02
2.960673868656158447e-01
2.850287556648254395e-01
1.245739287696778774e-03
-1.178807392716407776e-01
1.598049327731132507e-02
2.688282430171966553e-01
6.017533689737319946e-02
-2.831692695617675781e-01
-1.215914711356163025e-01
6.219143420457839966e-02
1.001712158322334290e-01
-4.240403771400451660e-01
-1.746690720319747925e-01
-1.592391431331634521e-01
-1.043292060494422913e-01
2.210524491965770721e-02
-6.102699041366577148e-01
-1.372171640396118164e-01
-1.881604045629501343e-01
1.470241099596023560e-01
1.917318254709243774e-01
9.377941489219665527e-03
-4.545696824789047241e-02
8.620528131723403931e-02
2.116242945194244385e-01
6.105991825461387634e-02
-3.860253840684890747e-02
-5.922405794262886047e-02
-1.925026252865791321e-02
2.051330953836441040e-01
-4.721216484904289246e-02
-1.306015402078628540e-01
-9.152463637292385101e-03
-5.322717130184173584e-02
9.278628230094909668e-02
-1.118911653757095337e-01
-1.408925056457519531e-01
-1.434179097414016724e-01
-2.260818183422088623e-01
-3.905709460377693176e-02
-2.783754169940948486e-01
-3.799813091754913330e-01
-2.642232775688171387e-01
-6.696597337722778320e-01
-4.429351389408111572e-01
2.811697497963905334e-02
3.227952718734741211e-01
1.979087740182876587e-01
-3.941368758678436279e-01
-4.922102093696594238e-01
-1.523617506027221680e-01
-3.288213610649108887e-01
-2.406164631247520447e-02
-1.974443197250366211e-01
-3.357228040695190430e-01
2.561419270932674408e-02
1.196968331933021545e-01
1.867051571607589722e-01
-8.324783295392990112e-03
-3.915096521377563477e-01
-1.238828748464584351e-01
2.085224986076354980e-01
8.338297158479690552e-02
5.634292960166931152e-01
3.972085714340209961e-01
-7.353352010250091553e-02
8.600399643182754517e-02
8.360839635133743286e-02
-3.283229097723960876e-02
-2.717905342578887939e-01
-1.252156496047973633e-02
3.117520809173583984e-01
1.984937936067581177e-01
-1.599943339824676514e-01
-1.823661625385284424e-01
-1.812477409839630127e-01
-1.201939489692449570e-02
-9.665132313966751099e-02
1.015584766864776611e-01
-3.090065717697143555e-01
-3.488194048404693604e-01
-1.703958362340927124e-01
-2.122962474822998047e-01
1.026631221175193787e-01
-1.540585905313491821e-01
-1.325599998235702515e-01
-1.878688633441925049e-01
-4.533980786800384521e-02
-1.164813861250877380e-01
-2.425512969493865967e-01
-4.497539699077606201e-01
-1.796192079782485962e-01
-3.936405479907989502e-01
2.560427971184253693e-02
-2.807612717151641846e-01
-5.276179313659667969e-02
-4.070517048239707947e-02
-2.468040436506271362e-01
-1.592304185032844543e-02
-1.378066390752792358e-01
-1.239211410284042358e-01
-1.771990060806274414e-01
-3.576367199420928955e-01
2.874110639095306396e-01
-9.176658838987350464e-02
-2.773033678531646729e-01
-2.641014158725738525e-01
-1.809063740074634552e-02
1.447234600782394409e-01
1.754352450370788574e-02
-3.459933027625083923e-02
-7.050056755542755127e-02
-2.104223966598510742e-01
-6.436191499233245850e-03
1.026102006435394287e-01
-1.050124019384384155e-01
-1.040174509398639202e-03
-1.069812849164009094e-01
6.527194380760192871e-02
-1.825032681226730347e-01
-1.867884695529937744e-01
1.283880025148391724e-01
-3.361301422119140625e-01
1.651377677917480469e-01
1.308796703815460205e-01
-2.056120485067367554e-01
1.747816056013107300e-02
-5.982477590441703796e-02
2.632957696914672852e-01
7.501104474067687988e-02
-3.041808493435382843e-02
2.037399634718894958e-02
-2.332075536251068115e-01
3.826231658458709717e-01
4.217180609703063965e-02
9.164229780435562134e-02
-5.890979990363121033e-02
-2.670662701129913330e-01
2.874014973640441895e-01
1.318733990192413330e-01
-4.149070009589195251e-02
-2.140349149703979492e-01
-2.671488523483276367e-01
-1.440773904323577881e-01
-1.536987572908401489e-01
-2.691590413451194763e-02
-1.817546412348747253e-02
1.390911079943180084e-02
-1.154962703585624695e-01
-4.570070281624794006e-02
-2.316972464323043823e-01
-6.447172164916992188e-02
-2.683138474822044373e-02
3.508493676781654358e-02
-1.293787360191345215e-01
-2.365364432334899902e-01
-1.686096340417861938e-01
3.336249291896820068e-02
4.462827369570732117e-02
1.330342888832092285e-01
-2.893053889274597168e-01
-2.173441201448440552e-01
4.419429600238800049e-02
1.334347426891326904e-01
6.656346470117568970e-02
-2.386801540851593018e-01
-1.122979521751403809e-01
-5.481589958071708679e-02
-2.739722728729248047e-01
-2.091726064682006836e-01
-1.331223845481872559e-01
-5.434907227754592896e-02
-2.987152151763439178e-02
-1.716496199369430542e-01
-5.180006474256515503e-02
-1.722083091735839844e-01
-2.029041200876235962e-01
-1.456610262393951416e-01
-1.993644088506698608e-01
-1.022919863462448120e-01
-1.512303054332733154e-01
8.196008391678333282e-03
-7.678966224193572998e-02
-8.642409741878509521e-02
-1.563753336668014526e-01
-1.201124046929180622e-03
1.783725805580615997e-02
1.746107079088687897e-02
-1.385156810283660889e-01
-3.851521015167236328e-02
-1.201725453138351440e-01
-7.173450291156768799e-02
-6.988559663295745850e-02
2.525488659739494324e-02
-5.386916175484657288e-02
-3.237838158383965492e-03
-3.077103942632675171e-02
-6.173733621835708618e-02
-4.182215407490730286e-02
-1.899199187755584717e-01
3.421618789434432983e-02
-5.937432497739791870e-02
-1.149211195297539234e-03
-2.191050350666046143e-02
-1.149411499500274658e-01
6.247263029217720032e-02
-3.250046819448471069e-02
-6.108445674180984497e-02
7.913108170032501221e-02
-8.394328504800796509e-02
8.709245175123214722e-02
4.204135388135910034e-02
-7.857442647218704224e-02
1.383615434169769287e-01
5.458719283342361450e-02
9.870903566479682922e-03
-8.290396630764007568e-02
-9.602691233158111572e-02
2.425869852304458618e-01
-1.719705462455749512e-01
1.373166292905807495e-01
-4.037902653217315674e-01
-3.378137946128845215e-01
9.745106101036071777e-02
-7.129176054149866104e-03
-1.620660126209259033e-01
-1.031688749790191650e-01
-3.007291853427886963e-01
1.368042379617691040e-01
-3.163661062717437744e-02
1.153077781200408936e-01
1.394578814506530762e-01
-3.437194228172302246e-02
4.397328570485115051e-02
-9.062378667294979095e-03
3.417491912841796875e-01
1.621582955121994019e-01
-3.759754002094268799e-01
3.412918373942375183e-02
6.759794354438781738e-01
6.854248642921447754e-01
1.258623898029327393e-01
-4.956531226634979248e-01
1.009035333991050720e-01
1.154162213206291199e-01
1.195021569728851318e-01
-2.345818579196929932e-01
-2.628292329609394073e-02
-7.221539318561553955e-02
-4.042890295386314392e-02
1.176391318440437317e-01
-1.317064166069030762e-01
-1.028850600123405457e-01
1.320182085037231445e-01
-1.768184155225753784e-01
-4.602294415235519409e-02
2.829758264124393463e-02
-1.295359879732131958e-01
-7.837519794702529907e-02
-4.181509315967559814e-01
-1.307435780763626099e-01
9.133963845670223236e-03
-4.588638432323932648e-03
8.465997874736785889e-02
-1.744281202554702759e-01
5.093279108405113220e-02
7.372319232672452927e-03
1.553345769643783569e-01
2.495255172252655029e-01
2.037286162376403809e-01
-6.705435365438461304e-02
-2.245329618453979492e-01
-8.515954017639160156e-02
1.706417836248874664e-02
-1.646858453750610352e-01
-1.422181539237499237e-02
-6.525056064128875732e-02
6.083612143993377686e-02
-6.995074450969696045e-02
-1.602649241685867310e-01
-3.657494485378265381e-02
8.492393791675567627e-02
1.505929883569478989e-02
5.599536746740341187e-02
-5.453804880380630493e-02
-1.854731887578964233e-01
3.639657795429229736e-01
2.718135714530944824e-01
-2.205651402473449707e-01
1.787250936031341553e-01
2.897412478923797607e-01
7.107775211334228516e-01
5.503425002098083496e-01
-3.133639693260192871e-02
3.048559129238128662e-01
5.699561163783073425e-02
-1.863184273242950439e-01
1.629510545171797276e-03
-5.497927195392549038e-04
-7.393153011798858643e-02
-6.077828351408243179e-03
-8.317258954048156738e-02
-4.027561843395233154e-02
-1.016787141561508179e-01
1.051002219319343567e-01
-7.764285802841186523e-02
-4.767740890383720398e-02
2.687292546033859253e-02
3.625331446528434753e-02
1.199368014931678772e-01
-3.034021556377410889e-01
-1.632076948881149292e-01
3.774713352322578430e-02
1.518204510211944580e-01
1.818224340677261353e-01
-5.049665570259094238e-01
-4.158346951007843018e-01
9.324301779270172119e-02
9.253297001123428345e-02
1.413404494524002075e-01
-1.541753998026251793e-03
-2.019141614437103271e-02
-7.522715628147125244e-02
7.043518126010894775e-03
3.997881710529327393e-02
6.105958297848701477e-02
1.271143108606338501e-01
7.994438707828521729e-02
-1.637694835662841797e-01
-1.014000102877616882e-01
-1.129005551338195801e-01
1.181726995855569839e-02
4.975285381078720093e-02
-1.142332628369331360e-01
-1.452890783548355103e-01
-2.132407128810882568e-01
2.653164975345134735e-02
5.389124155044555664e-02
-3.093499541282653809e-01
-4.435692727565765381e-01
-3.055326640605926514e-01
-2.887986041605472565e-02
-7.961463928222656250e-02
-4.608684182167053223e-01
2.489914596080780029e-01
4.705607593059539795e-01
-1.670578718185424805e-01
1.652638465166091919e-01
-7.336781024932861328e-01
1.668816059827804565e-02
-6.335397958755493164e-01
-5.225510597229003906e-01
7.228400558233261108e-02
-5.621916651725769043e-01
2.245593965053558350e-01
1.334482338279485703e-02
-4.402460455894470215e-01
-7.522006332874298096e-02
-1.754104793071746826e-01
3.436294496059417725e-01
-8.311880379915237427e-02
-7.306413352489471436e-02
5.322553217411041260e-02
-2.689198255538940430e-01
4.386423528194427490e-01
-2.472593039274215698e-01
-2.142620533704757690e-01
1.059990227222442627e-01
1.041956543922424316e-01
1.096453070640563965e-01
-2.072525620460510254e-01
-1.418012678623199463e-01
-2.486470192670822144e-01
-2.911253459751605988e-02
-9.569013118743896484e-02
1.034414861351251602e-02
5.254113674163818359e-01
-2.280508279800415039e-01
-2.864504456520080566e-01
3.978705778717994690e-02
2.856602370738983154e-01
4.006100594997406006e-01
6.100945174694061279e-02
-1.821360588073730469e-01
-3.339165151119232178e-01
-5.058368444442749023e-01
4.944432675838470459e-01
6.359545588493347168e-01
-2.578683495521545410e-01
-1.855117641389369965e-02
-2.660161554813385010e-01
1.996637433767318726e-01
7.092445492744445801e-01
-1.995114982128143311e-01
-2.386539727449417114e-01
-3.851876780390739441e-02
-1.209191326051950455e-02
7.693815976381301880e-02
-9.687152504920959473e-02
3.893958330154418945e-01
-7.600995898246765137e-02
1.088216453790664673e-01
6.816250830888748169e-02
-9.159880131483078003e-02
-9.620257467031478882e-02
1.236645653843879700e-01
-6.238039582967758179e-02
1.407084167003631592e-01
-1.433457732200622559e-01
-9.517720341682434082e-02
9.831888228654861450e-02
-3.078480362892150879e-01
-1.719372421503067017e-01
1.587095558643341064e-01
1.795485764741897583e-01
2.453973889350891113e-01
4.198468923568725586e-01
-5.420261621475219727e-01
-4.276902377605438232e-01
-4.285696521401405334e-02
9.868494421243667603e-02
3.178701996803283691e-01
2.521968781948089600e-01
-2.296356558799743652e-01
-7.972498983144760132e-02
-7.841964811086654663e-02
1.396499574184417725e-01
-1.898063570261001587e-01
-2.304358175024390221e-03
8.226101845502853394e-02
4.719584062695503235e-02
-1.057522464543581009e-02
-7.132827490568161011e-02
9.274774044752120972e-02
8.208528906106948853e-02
1.383604407310485840e-01
-1.527946144342422485e-01
1.219542548060417175e-01
3.722304105758666992e-01
1.641935408115386963e-01
4.802423715591430664e-02
-1.271465569734573364e-01
-3.534697592258453369e-01
1.690479218959808350e-01
1.223161965608596802e-01
-2.871913015842437744e-01
3.268503844738006592e-01
-1.224160417914390564e-01
-8.534996770322322845e-03
1.891161128878593445e-02
-3.623335361480712891e-01
2.531285583972930908e-01
-1.761502772569656372e-01
-7.094812393188476562e-02
1.695667356252670288e-01
-1.948582828044891357e-01
-7.197016477584838867e-02
1.334251761436462402e-01
5.759115447290241718e-05
1.397753655910491943e-01
8.825806528329849243e-02
-1.813520044088363647e-01
-2.748010121285915375e-02
-7.291378080844879150e-02
-1.634238958358764648e-01
2.515026926994323730e-01
5.891608819365501404e-02
-2.522538900375366211e-01
-2.650540694594383240e-02
-1.110645458102226257e-01
5.332665145397186279e-02
-1.087551414966583252e-01
-5.066700279712677002e-02
-2.264330238103866577e-01
-5.818213894963264465e-02
-2.211351878941059113e-02
-3.079567477107048035e-02
8.594422042369842529e-02
-5.304860323667526245e-02
-5.143173038959503174e-02
5.239521712064743042e-02
2.711102925240993500e-02
1.850935667753219604e-01
9.247750788927078247e-02
5.916124209761619568e-02
1.084840223193168640e-01
-5.211910977959632874e-02
1.030218750238418579e-01
3.732356801629066467e-02
6.690767128020524979e-03
1.146322488784790039e-01
-1.611933708190917969e-01
1.358306501060724258e-02
-2.549504935741424561e-01
-2.415813952684402466e-01
-1.814716905355453491e-01
3.544661030173301697e-02
6.649808585643768311e-02
1.488779485225677490e-01
1.394674330949783325e-01
-2.722820043563842773e-01
3.273437619209289551e-01
4.882751107215881348e-01
-1.398451067507266998e-02
-6.371637433767318726e-02
-4.252446591854095459e-01
-3.552147746086120605e-01
3.185416460037231445e-01
-1.136530637741088867e-01
2.058321088552474976e-01
8.928075432777404785e-02
-5.211648344993591309e-01
-4.836030676960945129e-02
-2.168735712766647339e-01
1.292187124490737915e-01
7.932124137878417969e-01
1.825020909309387207e-01
-4.154124855995178223e-01
-5.564606189727783203e-02
-2.956967353820800781e-01
4.212759435176849365e-02
6.845931410789489746e-01
9.143653512001037598e-02
-4.559436738491058350e-01
-1.944012641906738281e-01
-1.199711784720420837e-01
2.610199749469757080e-01
-1.443675607442855835e-01
-2.264073789119720459e-01
-1.897503882646560669e-01
-2.468682825565338135e-01
2.142354100942611694e-01
-1.548529118299484253e-01
4.280099645256996155e-02
3.179066628217697144e-02
-2.196374535560607910e-01
9.815420955419540405e-02
-4.291321039199829102e-01
8.509152382612228394e-02
7.771012187004089355e-02
1.440425962209701538e-01
1.119004935026168823e-02
-2.723997533321380615e-01
-1.386539489030838013e-01
-5.085451528429985046e-02
3.047904074192047119e-01
-4.754319190979003906e-01
-1.546203643083572388e-01
2.729254402220249176e-02
-1.738100349903106689e-01
1.023433059453964233e-01
1.303528398275375366e-01
-3.412427753210067749e-02
2.321364432573318481e-01
6.266082823276519775e-02
1.210939437150955200e-01
-1.675617694854736328e-01
-1.606019437313079834e-01
6.633204221725463867e-02
1.441137790679931641e-01
1.661282777786254883e-01
9.175824373960494995e-02
8.681821078062057495e-02
-4.596019908785820007e-02
1.365215629339218140e-01
6.084072589874267578e-02
-3.589984029531478882e-02
-1.389338821172714233e-01
1.806337982416152954e-01
9.925496578216552734e-02
1.786773651838302612e-01
1.569007150828838348e-02
4.892591387033462524e-03
2.759212553501129150e-01
1.421265900135040283e-01
-8.331479132175445557e-02
-2.260046638548374176e-02
7.929293811321258545e-02
9.742981940507888794e-02
2.144371271133422852e-01
2.274669408798217773e-01
1.983985453844070435e-01
1.254701912403106689e-01
9.913040697574615479e-02
-7.204499095678329468e-02
1.130934432148933411e-01
1.803993582725524902e-01
2.614475190639495850e-01
-2.006145566701889038e-02
-2.081950940191745758e-02
-3.923481330275535583e-02
-2.455606311559677124e-02
-5.903451889753341675e-02
-4.956888407468795776e-02
-2.025567442178726196e-01
3.433137387037277222e-02
-8.263447880744934082e-02
-1.414461433887481689e-01
8.753963559865951538e-02
-1.353831440210342407e-01
-1.054953131824731827e-02
-9.042616933584213257e-02
-3.381202518939971924e-01
7.388666272163391113e-02
-1.003328594379127026e-03
2.485792152583599091e-02
-1.346279680728912354e-01
2.407762221992015839e-02
8.991009742021560669e-02
8.997413516044616699e-02
1.424659490585327148e-01
-9.376394748687744141e-02
-3.141342848539352417e-02
8.682164549827575684e-02
-3.949610888957977295e-02
-3.271305188536643982e-02
-1.378823220729827881e-01
6.437092274427413940e-02
-3.503031730651855469e-01
-3.836855590343475342e-01
-3.214885592460632324e-01
-4.321210086345672607e-01
-2.265104353427886963e-01
2.410356141626834869e-02
-2.297094324603676796e-03
-1.899462938308715820e-01
-2.119566202163696289e-01
-2.970430552959442139e-01
-1.666626334190368652e-02
-4.750574380159378052e-02
-1.106165908277034760e-02
-2.197792828083038330e-01
-1.812245249748229980e-01
1.838226914405822754e-01
-1.729507558047771454e-02
-4.832401871681213379e-02
-1.928271949291229248e-01
-1.727250218391418457e-01
6.806231290102005005e-02
1.554199457168579102e-01
1.464142370969057083e-02
2.120975637808442116e-03
-8.243941515684127808e-02
-1.205184385180473328e-01
2.042101919651031494e-01
2.265013307332992554e-01
5.643151700496673584e-03
-1.359360408969223499e-03
-8.914159238338470459e-02
2.496358156204223633e-01
2.730487287044525146e-01
2.143980860710144043e-01
2.686654627323150635e-01
-1.583035886287689209e-01
2.439859360456466675e-01
3.480904698371887207e-01
1.175099834799766541e-01
3.252998888492584229e-01
-2.641927599906921387e-01
-2.467500269412994385e-01
1.544988155364990234e-01
4.362937211990356445e-01
2.922560572624206543e-01
-3.634228110313415527e-01
-1.855316013097763062e-01
1.354031078517436981e-02
4.821467399597167969e-01
1.490222960710525513e-01
-5.359818041324615479e-02
-4.412359893321990967e-01
-3.928499817848205566e-01
1.405021846294403076e-01
2.331749349832534790e-01
-1.571641117334365845e-01
-3.099717199802398682e-01
-3.816665709018707275e-01
-3.479949533939361572e-01
-2.884092926979064941e-01
-2.999892532825469971e-01
-5.175485089421272278e-02
-3.746221065521240234e-01
-1.911035776138305664e-01
-2.861103415489196777e-01
-8.130053430795669556e-02
-9.977287054061889648e-02
-2.115465700626373291e-01
-1.594059318304061890e-01
-3.850284218788146973e-02
-1.833984702825546265e-01
1.061693876981735229e-01
1.774657368659973145e-01
1.404739767313003540e-01
3.420712053775787354e-01
1.504801511764526367e-01
2.916322648525238037e-02
-9.338837862014770508e-02
5.523763969540596008e-02
2.504170536994934082e-01
-2.815354429185390472e-02
2.271713465452194214e-01
-3.668354153633117676e-01
-2.154387682676315308e-01
1.097205504775047302e-01
-4.310999214649200439e-01
9.968454390764236450e-02
-3.764907270669937134e-02
-2.345122098922729492e-01
1.029418688267469406e-02
-1.790643334388732910e-01
-2.736617624759674072e-02
-8.639775216579437256e-02
-1.851144731044769287e-01
1.326949447393417358e-01
1.106762737035751343e-01
5.877027288079261780e-02
1.031033545732498169e-01
-4.063088074326515198e-02
2.311749011278152466e-01
5.949907302856445312e-01
-1.065761744976043701e-01
-3.020634651184082031e-01
-2.523659467697143555e-01
2.363810837268829346e-01
2.963325940072536469e-03
-3.219471778720617294e-03
-5.136139988899230957e-01
-4.335793256759643555e-01
1.443100720643997192e-01
-7.423749566078186035e-02
5.910159647464752197e-02
-8.815929293632507324e-01
-6.035323143005371094e-01
-3.593436777591705322e-01
5.922857299447059631e-02
-2.524474449455738068e-02
-4.340822994709014893e-01
-9.196775555610656738e-01
-2.901405692100524902e-01
2.959879934787750244e-01
1.174891069531440735e-01
-3.036373527720570564e-03
-8.268904685974121094e-01
-1.990291923284530640e-01
2.671198844909667969e-01
2.202346734702587128e-02
2.714438736438751221e-02
1.958138793706893921e-01
-1.519589126110076904e-01
1.300508677959442139e-01
7.956881076097488403e-02
8.197207003831863403e-02
2.343773990869522095e-01
-7.109361886978149414e-02
-2.738718092441558838e-01
2.136474698781967163e-01
-5.277272686362266541e-02
-7.147181034088134766e-02
-8.381317555904388428e-02
-2.444317340850830078e-01
1.601133644580841064e-01
1.320148706436157227e-01
-7.231465727090835571e-02
1.142719015479087830e-01
-1.271655112504959106e-01
1.652184277772903442e-01
2.151962518692016602e-01
-1.398422867059707642e-01
2.000200897455215454e-01
3.273935988545417786e-02
-3.275128081440925598e-02
-4.677512496709823608e-02
-4.744189232587814331e-02
-1.870648264884948730e-01
-6.925115361809730530e-03
8.165883272886276245e-02
-1.324302554130554199e-01
-1.409600675106048584e-01
-9.332283586263656616e-02
1.329777538776397705e-01
1.607971936464309692e-01
3.556317416951060295e-03
-3.687096014618873596e-02
-1.854926943778991699e-01
1.077123656868934631e-01
2.551095783710479736e-01
1.522078365087509155e-01
4.476453363895416260e-02
4.088337719440460205e-02
2.393094301223754883e-01
1.178120300173759460e-01
3.947535157203674316e-02
1.574742943048477173e-01
-4.052905738353729248e-02
-1.029391407966613770e+00
-4.820379316806793213e-01
3.729294538497924805e-01
4.824186265468597412e-01
-8.817268162965774536e-02
-2.073543965816497803e-01
-3.073601126670837402e-01
4.055049642920494080e-02
9.347267448902130127e-02
2.708525061607360840e-01
-1.713592261075973511e-01
4.636980220675468445e-02
-1.071334481239318848e-01
1.001362502574920654e-01
5.032343417406082153e-02
-3.429304361343383789e-01
-4.225655645132064819e-02
-2.427447438240051270e-01
-2.698975205421447754e-01
-2.934338152408599854e-01
2.272352874279022217e-01
2.845404446125030518e-01
-6.609385460615158081e-02
-2.558346688747406006e-01
-3.575095236301422119e-01
-3.248469829559326172e-01
-8.953442424535751343e-02
2.995407767593860626e-02
2.411837130784988403e-01
-2.767193317413330078e-01
-1.257182955741882324e-01
-5.271380767226219177e-03
6.374026834964752197e-02
2.896537184715270996e-01
3.228136897087097168e-02
-1.561988294124603271e-01
-1.875424641184508801e-03
1.914900392293930054e-01
2.438753992319107056e-01
1.578447520732879639e-01
3.271007239818572998e-01
-1.581418365240097046e-01
-1.219045445322990417e-01
1.308418512344360352e-01
-1.102286502718925476e-01
-1.583069711923599243e-01
-1.614199280738830566e-01
2.062138319015502930e-01
-7.086557149887084961e-02
-2.360514998435974121e-01
2.760255932807922363e-01
1.501759290695190430e-01
-4.961371049284934998e-02
-1.766237313859164715e-03
-1.011552363634109497e-01
9.152173995971679688e-03
-6.202257052063941956e-02
-4.678775370121002197e-01
-2.238898538053035736e-02
-2.238941192626953125e-01
-2.460476569831371307e-02
-5.377249419689178467e-02
-3.498911559581756592e-01
-3.944652676582336426e-01
-9.014850854873657227e-02
-6.624724715948104858e-02
-3.699233382940292358e-02
6.984160840511322021e-02
2.378668487071990967e-01
7.553634047508239746e-02
9.323269128799438477e-02
2.487380802631378174e-02
-1.607894897460937500e-01
1.017112955451011658e-01
2.894495148211717606e-03
-7.529888302087783813e-02
-2.693744599819183350e-01
-2.901407480239868164e-01
3.650017082691192627e-01
-1.415238082408905029e-01
2.592658102512359619e-01
-2.366882562637329102e-01
-3.044828772544860840e-01
2.631440758705139160e-01
2.650050818920135498e-01
5.570676550269126892e-02
-3.626357018947601318e-01
-4.102351665496826172e-01
1.710212975740432739e-01
3.792906105518341064e-01
2.331268042325973511e-01
-4.861907958984375000e-01
-5.872766375541687012e-01
1.743049025535583496e-01
3.454649746417999268e-01
1.405919790267944336e-01
-4.173046648502349854e-01
-7.023508548736572266e-01
1.436411291360855103e-01
1.231981143355369568e-01
-1.327421236783266068e-02
2.937891185283660889e-01
-6.753022223711013794e-02
4.535541832447052002e-01
-5.585825443267822266e-02
6.776581704616546631e-02
1.076884940266609192e-01
-2.922967374324798584e-01
-1.449281871318817139e-01
-1.025305986404418945e-01
1.248069927096366882e-01
1.050025001168251038e-01
-2.685809731483459473e-01
-1.548381447792053223e-01
-8.812850713729858398e-02
-1.329267621040344238e-01
-5.072003602981567383e-01
-5.194581300020217896e-02
-2.935126237571239471e-02
1.564727276563644409e-01
-2.879906892776489258e-01
-3.516110777854919434e-01
-3.177130818367004395e-01
-1.228976175189018250e-01
8.180280029773712158e-02
-3.532392904162406921e-02
-5.790163949131965637e-02
6.917895376682281494e-02
6.461450457572937012e-02
-9.002941101789474487e-02
-1.971165686845779419e-01
-2.740876674652099609e-01
-1.558687984943389893e-01
-6.065071094781160355e-03
1.105045527219772339e-01
-2.398699671030044556e-01
-2.427274286746978760e-01
-1.311826556921005249e-01
1.402303017675876617e-02
1.615487784147262573e-01
-3.812890350818634033e-01
-2.650766074657440186e-01
-4.477558135986328125e-01
-2.045252323150634766e-01
-1.628879830241203308e-02
-2.744029760360717773e-01
-4.728764891624450684e-01
-4.668833017349243164e-01
-2.633658647537231445e-01
-1.173019707202911377e-01
-4.918837547302246094e-02
3.471804037690162659e-02
-5.088400840759277344e-01
2.971159219741821289e-01
8.167265057563781738e-01
1.835726201534271240e-01
3.748497366905212402e-01
-2.841020822525024414e-01
-2.193728983402252197e-01
2.872919738292694092e-01
1.789607293903827667e-02
3.965123891830444336e-01
1.241396218538284302e-01
1.993413455784320831e-02
3.758960366249084473e-01
1.470190584659576416e-01
3.391080498695373535e-01
1.208308711647987366e-01
6.399527192115783691e-02
8.736535906791687012e-03
4.554848074913024902e-01
1.026220545172691345e-01
-1.691453754901885986e-01
-1.231870800256729126e-01
-8.324924111366271973e-02
-1.044619381427764893e-01
-1.347560621798038483e-02
-1.454397290945053101e-02
6.159406155347824097e-02
-3.708651289343833923e-02
-7.078783959150314331e-02
-4.159615188837051392e-02
3.494126349687576294e-02
-6.136270985007286072e-02
4.675462841987609863e-02
1.234087860211730003e-03
-7.023888826370239258e-02
-3.320356830954551697e-02
5.720746517181396484e-02
-2.020087093114852905e-02
-4.388428106904029846e-02
5.464911460876464844e-02
5.096986889839172363e-02
-2.998919412493705750e-02
7.678650319576263428e-03
-7.733613252639770508e-02
3.333202004432678223e-02
7.846149802207946777e-02
-1.744821667671203613e-02
-1.343455165624618530e-02
5.330962594598531723e-03
1.699159108102321625e-02
3.956858813762664795e-02
5.853164196014404297e-02
-1.494741439819335938e-02
-5.302435159683227539e-02
-2.850862406194210052e-02
2.517273463308811188e-02
-3.437589854001998901e-02
-6.865634024143218994e-02
-7.615254819393157959e-02
-7.279089838266372681e-02
-3.595829755067825317e-02
5.895793437957763672e-03
-3.163064271211624146e-02
-2.969613485038280487e-02
-9.260652959346771240e-02
-6.287850439548492432e-02
4.695582389831542969e-02
-6.570509821176528931e-02
-8.579704910516738892e-02
-5.522212013602256775e-02
4.639653861522674561e-02
-4.689223319292068481e-02
4.832389950752258301e-02
-1.072640437632799149e-02
-1.406171452254056931e-02
-2.607618831098079681e-02
1.057147979736328125e-02
-4.509993642568588257e-02
2.108194120228290558e-02
-6.170462816953659058e-02
-7.515854388475418091e-02
4.655949771404266357e-03
-8.012622594833374023e-02
-5.733051896095275879e-02
-6.485680490732192993e-02
3.090843558311462402e-02
1.659404672682285309e-02
-6.693582981824874878e-02
1.273591443896293640e-02
3.099528886377811432e-02
-1.161792688071727753e-02
-1.321795396506786346e-02
-8.565168082714080811e-02
3.761313110589981079e-02
4.803380370140075684e-02
4.462519660592079163e-02
-1.374357845634222031e-03
-9.364427626132965088e-02
-6.347868591547012329e-02
-8.880894631147384644e-02
3.880938515067100525e-02
-5.863633751869201660e-02
4.947817698121070862e-02
2.126502245664596558e-02
3.750784322619438171e-02
-1.466833148151636124e-02
-3.870186582207679749e-02
-8.097509294748306274e-02
-4.543593619018793106e-03
9.541695937514305115e-03
5.850643292069435120e-02
-4.316402226686477661e-02
6.007198989391326904e-02
-2.841282263398170471e-02
-3.476929664611816406e-02
-3.363010659813880920e-02
-2.133507840335369110e-02
-5.600246414542198181e-02
-1.735100895166397095e-02
-4.417362064123153687e-02
-9.051487594842910767e-02
-2.793904393911361694e-02
-9.953625500202178955e-02
-4.407485201954841614e-02
-3.129148110747337341e-02
1.097311172634363174e-02
-8.627410233020782471e-02
3.662993013858795166e-02
5.675297975540161133e-02
-8.879179507493972778e-02
-5.724394693970680237e-02
-2.167077362537384033e-02
-3.689292073249816895e-02
-9.322317689657211304e-02
-9.344127774238586426e-02
-9.649079293012619019e-02
-6.956682354211807251e-02
1.484057400375604630e-02
2.416533045470714569e-02
2.531357295811176300e-02
5.736596416682004929e-03
3.370908275246620178e-02
-5.432475730776786804e-02
-1.419468689709901810e-02
2.127651683986186981e-02
-6.022795289754867554e-02
-4.233202338218688965e-02
-9.093945473432540894e-02
-9.105592966079711914e-02
1.552508771419525146e-02
-4.331569373607635498e-02
-6.837131828069686890e-02
3.105431422591209412e-02
-8.140678703784942627e-02
-9.737658500671386719e-02
5.317600443959236145e-02
9.564061649143695831e-03
-7.604038342833518982e-03
-6.832765787839889526e-02
-8.750969916582107544e-02
-5.333328247070312500e-02
-8.370743691921234131e-02
-4.947976022958755493e-02
1.743271574378013611e-02
-1.721471175551414490e-02
4.092658311128616333e-02
2.865437231957912445e-02
1.971296034753322601e-02
-4.789530485868453979e-02
6.693773437291383743e-03
5.157121643424034119e-02
-7.659563422203063965e-02
8.721320889890193939e-03
