2.405044436454772949e-01
5.134598612785339355e-01
3.185518682003021240e-01
-2.631109058856964111e-01
-4.412598162889480591e-02
1.645150780677795410e-01
2.987515628337860107e-01
5.127100944519042969e-01
7.449816912412643433e-02
-4.861069470643997192e-02
-1.213185638189315796e-01
-2.486972324550151825e-02
2.599356770515441895e-01
-1.132929846644401550e-01
1.464587450027465820e-01
-1.467363685369491577e-01
-4.501509368419647217e-01
-3.469756618142127991e-02
-1.356594264507293701e-01
2.723800539970397949e-01
-2.492211610078811646e-01
-4.428811371326446533e-01
-4.436863362789154053e-01
-3.440644145011901855e-01
2.773191928863525391e-01
-6.268816441297531128e-02
-2.984385471791028976e-03
-1.472190022468566895e-01
9.034033864736557007e-03
2.419545054435729980e-01
3.341628611087799072e-01
1.945484429597854614e-01
-2.978185713291168213e-01
-6.349881738424301147e-02
-1.266990900039672852e-01
-2.157059460878372192e-01
1.999072730541229248e-01
-4.551462829113006592e-01
1.775649935007095337e-01
-7.602091878652572632e-02
3.605713322758674622e-02
1.692714989185333252e-01
2.042413651943206787e-01
3.617907464504241943e-01
-1.131600365042686462e-01
-2.359017133712768555e-01
1.163771376013755798e-01
1.023547872900962830e-01
-3.519819080829620361e-01
-1.226054504513740540e-02
-3.870065212249755859e-01
4.820892214775085449e-01
-8.219668269157409668e-02
1.108027249574661255e-01
-6.531517952680587769e-02
-3.412910997867584229e-01
4.387919306755065918e-01
-7.265190780162811279e-02
-1.094374712556600571e-02
3.456321312114596367e-03
-4.572103023529052734e-01
4.437265098094940186e-01
1.402044892311096191e-01
-1.753042191267013550e-01
3.815647214651107788e-02
-7.478496432304382324e-01
3.810185194015502930e-01
4.731558263301849365e-01
-1.741473227739334106e-01
4.881568253040313721e-02
-2.869404554367065430e-01
-1.893861144781112671e-01
2.917413413524627686e-01
1.554003208875656128e-01
-4.163947328925132751e-02
-6.445728987455368042e-02
7.052260637283325195e-02
3.022309839725494385e-01
1.307917386293411255e-01
-3.489468097686767578e-01
6.645920220762491226e-03
4.104782640933990479e-01
7.743503153324127197e-02
-6.222518533468246460e-02
-1.876033991575241089e-01
9.596329182386398315e-02
3.977087736129760742e-01
6.418301910161972046e-02
-1.599629223346710205e-01
-3.264241516590118408e-01
8.463810384273529053e-02
3.163653612136840820e-01
7.486272603273391724e-02
-6.131415814161300659e-02
-3.927977681159973145e-01
1.127315759658813477e-01
5.150081962347030640e-02
1.617019921541213989e-01
6.993779540061950684e-02
-4.259833693504333496e-01
1.432370841503143311e-01
2.071346938610076904e-01
9.054281562566757202e-02
8.736360073089599609e-02
2.024870812892913818e-01
1.789562962949275970e-02
-6.263427436351776123e-02
-6.719522178173065186e-02
3.993321582674980164e-02
-1.486457139253616333e-01
-5.140717700123786926e-02
-1.305263042449951172e-01
3.510298952460289001e-02
7.178182154893875122e-02
-2.714445814490318298e-02
-1.221449077129364014e-01
5.414125323295593262e-02
6.118351593613624573e-02
-2.623870037496089935e-02
-5.510349944233894348e-02
1.308863461017608643e-01
9.081219881772994995e-02
1.216416582465171814e-01
1.980359479784965515e-02
1.468782406300306320e-02
1.163200214505195618e-01
-4.599991068243980408e-02
-7.629163265228271484e-01
-1.499772667884826660e+00
-2.519267082214355469e+00
3.260622322559356689e-01
2.716526091098785400e-01
1.222987920045852661e-01
-4.205103516578674316e-01
-6.252422332763671875e-01
6.847373396158218384e-02
1.991576403379440308e-01
-2.653798088431358337e-02
1.630278676748275757e-01
-1.316903084516525269e-01
-3.179050981998443604e-02
8.130647242069244385e-02
5.483371764421463013e-02
-5.639957729727029800e-03
9.892312809824943542e-03
2.040355652570724487e-01
9.885387122631072998e-02
2.912398278713226318e-01
-1.083795800805091858e-01
2.648267662152647972e-03
