2.070209756493568420e-02
-4.334110394120216370e-02
-1.991741359233856201e-03
1.583077013492584229e-03
1.092046219855546951e-02
-3.014881350100040436e-02
5.055508762598037720e-02
1.909193396568298340e-02
-2.040109410881996155e-02
-4.913113662041723728e-04
-1.433403789997100830e-02
-1.382753252983093262e-02
2.977822162210941315e-02
-7.557092607021331787e-02
-3.696607798337936401e-02
-2.849338203668594360e-02
-2.548337355256080627e-02
-3.178718313574790955e-02
-3.987516462802886963e-02
-5.728038400411605835e-02
-6.508070230484008789e-02
-7.042068243026733398e-02
2.140403259545564651e-03
-3.037470765411853790e-02
-4.672645032405853271e-02
-7.107479125261306763e-02
-2.153650671243667603e-02
-1.949465088546276093e-02
-6.947916001081466675e-02
-7.565226405858993530e-02
9.934311965480446815e-04
-6.410077214241027832e-02
-3.100060857832431793e-02
3.005664423108100891e-02
1.147697027772665024e-02
-3.137205960229039192e-03
-5.305627360939979553e-02
7.945069111883640289e-03
2.287192270159721375e-02
2.907682023942470551e-02
-4.244223237037658691e-02
1.194620784372091293e-02
-2.807881496846675873e-02
-4.677384346723556519e-02
-6.964160501956939697e-02
-2.858815155923366547e-02
2.300769276916980743e-02
-3.812084323726594448e-04
-6.034169346094131470e-02
3.023165650665760040e-02
-1.064862962812185287e-02
-3.696314617991447449e-02
-1.771334558725357056e-02
-3.602009033784270287e-03
-7.661128789186477661e-02
2.987186424434185028e-03
-3.273375704884529114e-02
-7.375390082597732544e-02
9.893062524497509003e-03
-2.290872856974601746e-02
6.623825524002313614e-03
-3.765520174056291580e-03
1.098276022821664810e-02
-8.611069619655609131e-02
-7.035716623067855835e-02
-9.003214538097381592e-02
6.427744403481483459e-03
1.472739968448877335e-02
-9.314611554145812988e-03
-9.870606008917093277e-04
-2.621364407241344452e-02
-6.032456457614898682e-02
-1.787150837481021881e-02
-1.040113493800163269e-01
1.568238064646720886e-02
-9.092211723327636719e-02
-5.557732284069061279e-02
-1.344789471477270126e-02
-5.489942058920860291e-02
-4.340183362364768982e-02
-4.754550755023956299e-02
-7.862623780965805054e-03
1.054110284894704819e-02
2.491299994289875031e-02
4.490167833864688873e-03
-6.450278311967849731e-02
2.556145936250686646e-02
-3.164016176015138626e-03
-9.380750358104705811e-02
1.691458746790885925e-02
-6.463740020990371704e-02
-4.583321884274482727e-02
8.477646042592823505e-04
2.759335190057754517e-02
-1.373023260384798050e-02
-6.621168553829193115e-02
2.507726103067398071e-02
-4.274809360504150391e-02
4.225420206785202026e-02
3.668931871652603149e-02
1.125092804431915283e-02
-2.327030897140502930e-02
2.555170655250549316e-02
-8.610293269157409668e-03
-4.723548144102096558e-02
-2.795612812042236328e-02
-4.257940500974655151e-02
-1.893863826990127563e-02
3.923631459474563599e-02
-3.601208329200744629e-03
-4.925578832626342773e-05
-4.032626748085021973e-04
-7.823206484317779541e-03
-7.313635200262069702e-02
-1.855381950736045837e-02
3.930405527353286743e-02
-2.663723751902580261e-02
-5.730069428682327271e-02
4.435487464070320129e-02
-4.854835569858551025e-02
5.075723305344581604e-02
-3.923282027244567871e-02
-4.115362837910652161e-02
7.694573141634464264e-03
1.117602363228797913e-02
-4.728747904300689697e-02
-5.859537795186042786e-02
-3.914892673492431641e-02
2.366373315453529358e-02
2.973258867859840393e-02
2.736057154834270477e-02
-4.154740646481513977e-02
1.411490701138973236e-02
-2.603425085544586182e-02
-5.622406303882598877e-02
-1.698400266468524933e-02
4.272066801786422729e-02
-7.807433605194091797e-02
-5.060398578643798828e-02
1.264897920191287994e-02
4.949104040861129761e-02
1.138090156018733978e-02
5.908212158828973770e-03
-5.026846751570701599e-02
-1.777589321136474609e-02
2.190207690000534058e-02
-1.476201415061950684e-02
1.339687407016754150e-02
1.040196418762207031e-02
1.766982674598693848e-02
5.195154249668121338e-02
-2.343604713678359985e-02
-1.563817262649536133e-02
-5.913195013999938965e-02
-6.682947278022766113e-03
-6.224438548088073730e-02
6.661839783191680908e-03
-5.388639867305755615e-03
-1.384545117616653442e-02
3.659913688898086548e-02
-5.900058895349502563e-02
1.265629008412361145e-02
-2.121571451425552368e-02
-6.077109277248382568e-02
5.496894591487944126e-04
-7.009416818618774414e-02
-6.921499967575073242e-02
-2.591372467577457428e-02
-9.851443022489547729e-02
9.078367613255977631e-03
-5.781027022749185562e-03
-2.168948762118816376e-02
-5.237227305769920349e-02
-8.973835408687591553e-02
-4.347534477710723877e-02
-8.894898928701877594e-03
-4.522486776113510132e-02
-6.288651376962661743e-02
-2.607633173465728760e-02
-7.848340272903442383e-02
-4.240311682224273682e-03
-7.628591358661651611e-02
-8.226051181554794312e-02
-2.134003862738609314e-02
-2.851491048932075500e-02
3.049504756927490234e-02
1.355986762791872025e-02
-4.150326177477836609e-02
-2.116215974092483521e-02
1.342830806970596313e-02
-5.433790385723114014e-02
3.127276897430419922e-02
-2.759928442537784576e-02
-3.716047480702400208e-02
-9.397036582231521606e-02
-7.313532382249832153e-02
-9.552112966775894165e-02
1.658124476671218872e-02
-2.173160016536712646e-02
-2.728500589728355408e-02
-4.759950563311576843e-02
-8.753686398267745972e-02
1.599326916038990021e-02
-5.293490737676620483e-02
-3.679856599774211645e-04
-3.291426692157983780e-03
1.172314770519733429e-02
-1.204287400469183922e-03
4.585153236985206604e-02
-5.059046205133199692e-03
-2.458188869059085846e-02
4.601450636982917786e-02
-3.023260831832885742e-02
1.191301969811320305e-03
-1.667474134592339396e-04
3.659623116254806519e-02
2.446355856955051422e-02
4.809402860701084137e-03
-2.325625624507665634e-03
-3.704376146197319031e-02
-2.846854180097579956e-02
-5.268014967441558838e-02
-3.121549636125564575e-02
4.409565404057502747e-02
1.848794706165790558e-02
1.210047304630279541e-02
-8.187120407819747925e-02
-5.400093644857406616e-02
6.608264520764350891e-03
-1.225543674081563950e-02
-9.046781342476606369e-04
-1.950351335108280182e-02
1.898181810975074768e-02
-1.908584684133529663e-02
-4.977909848093986511e-03
-8.485338091850280762e-02
3.894228721037507057e-04
-3.702536225318908691e-02
-2.993305772542953491e-02
3.907829057425260544e-03
2.840129286050796509e-02
4.830303043127059937e-02
2.212610840797424316e-02
-4.199052602052688599e-02
-1.093247532844543457e-02
3.590884804725646973e-02
5.377709865570068359e-03
-4.453433305025100708e-02
-1.871075481176376343e-02
6.195604801177978516e-04
-1.135751605033874512e-03
5.346820503473281860e-02
-3.649310022592544556e-02
-2.596543729305267334e-02
-1.805738359689712524e-02
-1.494997739791870117e-02
-4.484279453754425049e-02
5.914186593145132065e-03
3.022543340921401978e-02
-3.602827340364456177e-02
4.709501937031745911e-02
1.902430132031440735e-02
-5.942287296056747437e-02
4.284100234508514404e-02
4.691515490412712097e-02
-6.532995961606502533e-03
-4.840182512998580933e-02
-5.552205815911293030e-02
-7.580162025988101959e-03
7.516385987401008606e-03
9.626756655052304268e-04
1.025478728115558624e-02
2.795743569731712341e-02
-3.550122305750846863e-02
-7.623341679573059082e-02
-3.109290264546871185e-02
1.241582259535789490e-02
-4.902239888906478882e-02
-6.684125959873199463e-02
3.006485523656010628e-03
-3.208628669381141663e-02
2.214910835027694702e-02
-1.849927939474582672e-02
1.063618343323469162e-02
4.118207469582557678e-02
-5.687594413757324219e-02
-2.437333390116691589e-02
-8.626639842987060547e-02
4.010679572820663452e-02
6.767074577510356903e-03
2.905708737671375275e-02
-8.135078102350234985e-02
5.196771118789911270e-03
1.954195648431777954e-02
-7.427674531936645508e-02
-8.590347319841384888e-02
-1.519369054585695267e-02
-4.100283980369567871e-02
-2.957992069423198700e-02
-8.497595787048339844e-02
-7.506238762289285660e-03
-3.287842497229576111e-02
-2.077396027743816376e-02
7.901298813521862030e-03
2.269941009581089020e-02
-5.710533820092678070e-03
-5.085644498467445374e-02
-5.684302374720573425e-02
8.705183863639831543e-04
-5.086684599518775940e-02
-6.750921905040740967e-02
-1.159489806741476059e-02
-6.341039389371871948e-02
-7.325574010610580444e-02
3.289758786559104919e-02
-9.544756263494491577e-03
-7.498238980770111084e-02
-7.298427075147628784e-02
-4.604104906320571899e-02
-8.732943236827850342e-02
-1.503134611994028091e-02
-1.239196769893169403e-02
-6.846431642770767212e-02
2.100909501314163208e-02
2.083355002105236053e-02
-5.443608760833740234e-02
3.458455204963684082e-02
-4.441140964627265930e-02
-4.601724073290824890e-02
2.468911372125148773e-02
-9.350597858428955078e-03
-5.119660869240760803e-02
-4.663656279444694519e-02
-4.932292550802230835e-02
-3.340530022978782654e-02
1.958673819899559021e-02
4.641139507293701172e-02
-6.525295227766036987e-02
1.357752736657857895e-02
-4.424343630671501160e-02
-7.050624489784240723e-02
-7.046991586685180664e-02
1.330902706831693649e-02
-1.602873764932155609e-02
2.350800298154354095e-02
-3.855936229228973389e-02
-5.857039615511894226e-02
-8.130680769681930542e-03
-5.026270821690559387e-02
8.108154870569705963e-03
4.754643514752388000e-02
-3.906315192580223083e-02
1.293095946311950684e-02
5.651281774044036865e-02
-2.826448529958724976e-02
-3.000520169734954834e-03
2.796064317226409912e-02
2.582137286663055420e-02
1.192108541727066040e-02
-1.398724317550659180e-02
7.304206490516662598e-03
1.448409259319305420e-02
-3.251768648624420166e-02
-5.026823282241821289e-02
-5.122903734445571899e-02
2.531649917364120483e-02
8.352860808372497559e-03
3.402373939752578735e-02
-5.320501327514648438e-02
-3.234286233782768250e-02
3.147157281637191772e-02
2.830135449767112732e-02
3.373011201620101929e-02
1.714996807277202606e-02
-1.115473918616771698e-02
-6.923452764749526978e-02
-4.658859968185424805e-02
-4.661402106285095215e-02
-3.037926368415355682e-02
3.469977295026183128e-03
-2.286662533879280090e-02
-2.488215267658233643e-02
-7.117014378309249878e-02
-7.210167497396469116e-02
1.270735729485750198e-02
-6.030339375138282776e-02
-3.055130876600742340e-02
5.607253871858119965e-03
3.428515419363975525e-02
-6.097865477204322815e-02
-6.084784120321273804e-02
-1.358501426875591278e-02
-2.794732712209224701e-02
-1.828344166278839111e-02
1.780859078280627728e-03
-5.521318526007235050e-04
-4.474419355392456055e-02
-8.633311837911605835e-02
-7.352223619818687439e-03
-2.723077312111854553e-02
-2.777116000652313232e-02
4.835318773984909058e-02
4.537446796894073486e-02
-1.946201175451278687e-02
4.894931614398956299e-02
-3.972480446100234985e-02
5.285608768463134766e-02
-3.915578126907348633e-03
2.324166148900985718e-02
-1.927732676267623901e-02
1.796710491180419922e-02
-3.188356012105941772e-02
3.310753405094146729e-02
-4.955955594778060913e-02
-5.676382407546043396e-02
1.464528497308492661e-02
-7.623070478439331055e-02
-6.737892329692840576e-02
-7.922394573688507080e-02
-3.949638456106185913e-02
-7.470367848873138428e-02
-5.560582131147384644e-02
1.134161022491753101e-03
-4.477166105061769485e-03
-4.095513373613357544e-02
-9.512175619602203369e-02
-8.710968494415283203e-02
-4.315569996833801270e-02
3.861268609762191772e-02
4.974833503365516663e-02
-3.692765161395072937e-02
-2.650892920792102814e-02
-8.571118861436843872e-02
-8.809974417090415955e-03
-3.226943686604499817e-02
-1.029352005571126938e-02
-1.145017053931951523e-02
-6.631429493427276611e-02
9.442018344998359680e-03
-6.199570372700691223e-02
1.769265718758106232e-02
-3.428519889712333679e-02
-8.812753856182098389e-02
3.950134664773941040e-02
5.113136023283004761e-03
-2.798354811966419220e-02
4.287502169609069824e-02
2.237099036574363708e-02
-7.689426094293594360e-02
-3.691878169775009155e-02
1.370669994503259659e-02
-7.787103950977325439e-02
2.159992977976799011e-02
1.698118075728416443e-02
-7.981832325458526611e-02
3.177008777856826782e-02
-9.376017749309539795e-02
2.768526412546634674e-02
-4.272963479161262512e-02
-3.001072257757186890e-02
-5.556440446525812149e-03
-6.393263489007949829e-02
1.844303868710994720e-02
-4.746789485216140747e-02
-1.989362761378288269e-02
-2.242669090628623962e-02
-7.944327779114246368e-03
-1.563221029937267303e-02
4.216217249631881714e-02
1.150922197848558426e-02
2.677068114280700684e-03
-5.647728964686393738e-02
2.667058818042278290e-02
5.888561718165874481e-03
-6.663363426923751831e-02
-6.038371473550796509e-03
-1.884838566184043884e-02
2.338907681405544281e-02
-7.327567785978317261e-02
-3.191486001014709473e-02
-2.388061210513114929e-02
-4.875186085700988770e-02
-5.234982818365097046e-02
-4.648868367075920105e-02
-4.893448203802108765e-02
-5.526421219110488892e-02
-3.010047972202301025e-02
-7.722812145948410034e-02
-6.782561540603637695e-02
-1.745698414742946625e-02
-2.501233294606208801e-02
2.641532942652702332e-02
2.857104875147342682e-02
-1.073085963726043701e-01
-9.401492029428482056e-02
-3.241776488721370697e-03
-1.400652527809143066e-02
5.512626469135284424e-02
-3.037481755018234253e-02
5.697990953922271729e-02
5.050270259380340576e-02
-3.101015836000442505e-02
3.400566428899765015e-02
1.060299575328826904e-03
-4.039331525564193726e-02
-5.265783518552780151e-02
-1.243595778942108154e-02
-9.137213230133056641e-03
8.727259933948516846e-03
-5.984409898519515991e-02
-9.754955768585205078e-03
5.768746137619018555e-02
4.590781778097152710e-02
1.678844913840293884e-02
-1.397329568862915039e-02
1.868634521961212158e-01
-1.110906675457954407e-01
1.586870402097702026e-01
8.131171017885208130e-02
5.673870816826820374e-02
-2.581770718097686768e-01
-2.014662139117717743e-02
-2.329890280961990356e-01
-2.173167467117309570e-01
-2.045074105262756348e-01
1.504695415496826172e-01
-2.354191392660140991e-01
-1.128807440400123596e-01
6.467196345329284668e-02
2.359660416841506958e-01
6.201777607202529907e-02
3.062883019447326660e-01
9.428552538156509399e-02
4.693996906280517578e-02
-1.368373036384582520e-01
2.444625794887542725e-01
-2.462510019540786743e-01
-4.210763275623321533e-01
-3.159881532192230225e-01
-4.480229616165161133e-01
-2.166131287813186646e-01
-1.413636654615402222e-01
-1.031740382313728333e-01
-8.465164899826049805e-02
-1.049761921167373657e-01
-1.120509356260299683e-01
5.884072743356227875e-05
2.446273807436227798e-03
-4.981116577982902527e-02
-2.165803015232086182e-01
8.710563182830810547e-03
5.476271267980337143e-03
2.233294248580932617e-01
-1.274038944393396378e-02
1.962716318666934967e-02
7.182351499795913696e-02
-8.590960502624511719e-02
-3.243287205696105957e-01
-7.409304380416870117e-02
-2.403205633163452148e-01
-1.065237671136856079e-01
3.981958329677581787e-02
-4.612522721290588379e-01
2.342833206057548523e-02
-5.251123756170272827e-02
-1.588923931121826172e-01
-9.102402627468109131e-02
-7.983441650867462158e-02
-2.396624684333801270e-01
-1.403465569019317627e-01
-1.159386634826660156e-01
1.254558265209197998e-01
-3.804748877882957458e-02
-2.399016618728637695e-01
-3.224718272686004639e-01
1.660423278808593750e-01
-1.607873826287686825e-03
4.690738394856452942e-02
4.681545868515968323e-02
1.858769506216049194e-01
2.713692784309387207e-01
-1.450464874505996704e-01
-1.619130605831742287e-03
-1.698912084102630615e-01
-1.204703301191329956e-01
-1.630845516920089722e-01
-2.007481642067432404e-02
-5.861704945564270020e-01
-1.874690316617488861e-02
8.688193559646606445e-02
-1.303582824766635895e-02
-4.665273800492286682e-02
8.520208299160003662e-02
-1.803203225135803223e-01
-3.418394327163696289e-01
-1.201161462813615799e-02
9.404846467077732086e-03
-1.554803252220153809e-01
1.139236465096473694e-01
-1.424167007207870483e-01
9.294788539409637451e-02
-3.618630766868591309e-01
1.016717329621315002e-01
-9.044969826936721802e-02
-1.300069838762283325e-01
-1.454619318246841431e-01
-7.681319117546081543e-02
2.745007164776325226e-02
7.087677717208862305e-02
3.980606794357299805e-02
-4.748131334781646729e-02
-5.081933736801147461e-02
-3.429689258337020874e-02
-9.263522922992706299e-03
-2.880895137786865234e-02
-5.250600725412368774e-02
-3.013216704130172729e-02
8.959758095443248749e-03
4.879333451390266418e-02
-1.688681542873382568e-03
-2.249092608690261841e-02
3.288124501705169678e-02
-5.138377100229263306e-02
2.895727753639221191e-03
-1.107313558459281921e-01
-9.716805070638656616e-02
1.533520519733428955e-01
-4.616169929504394531e-01
-2.195236533880233765e-01
-2.730534076690673828e-01
1.203272864222526550e-01
-5.114083644002676010e-03
-3.351756036281585693e-01
-9.740731865167617798e-02
1.689783632755279541e-01
-3.207508027553558350e-01
-1.551638916134834290e-02
3.091502375900745392e-02
2.152791321277618408e-01
2.866292595863342285e-01
-1.680005192756652832e-01
-1.809446066617965698e-01
-7.005059160292148590e-03
1.745058596134185791e-01
-2.177397608757019043e-01
-1.326797008514404297e-01
2.103563994169235229e-01
1.396300494670867920e-01
-4.677293077111244202e-02
-1.839920133352279663e-01
2.216046676039695740e-02
6.199896335601806641e-03
-1.635640263557434082e-01
-1.468980610370635986e-01
2.612386830151081085e-02
-1.107816994190216064e-01
-1.857952773571014404e-01
3.546536341309547424e-02
9.890047460794448853e-02
-1.298896223306655884e-01
1.000516000203788280e-03
1.422193646430969238e-02
-6.494119018316268921e-02
-2.701885439455509186e-02
1.195743121206760406e-02
2.201742827892303467e-01
-1.749026179313659668e-01
-6.719394773244857788e-02
7.979287952184677124e-02
5.024516955018043518e-02
-1.332085281610488892e-01
6.728475447744131088e-03
-4.683532938361167908e-02
8.059921115636825562e-02
-2.021641656756401062e-02
-1.921104192733764648e-01
1.461348682641983032e-01
2.511084377765655518e-01
-1.464906036853790283e-01
-3.972749039530754089e-02
-1.408101469278335571e-01
-1.577372550964355469e-01
-1.504169255495071411e-01
-2.589259669184684753e-02
2.067355252802371979e-02
-9.168677031993865967e-02
-8.543720841407775879e-02
-1.147828549146652222e-01
1.480330824851989746e-01
-2.159673273563385010e-01
7.850755006074905396e-02
1.086369603872299194e-01
2.645120723173022270e-03
1.881249845027923584e-01
2.057774811983108521e-01
-2.394103631377220154e-02
-1.224869042634963989e-01
2.719691023230552673e-02
1.481178849935531616e-01
-7.664432376623153687e-02
-1.149442568421363831e-01
4.098301753401756287e-02
-2.851612269878387451e-01
-1.015547066926956177e-01
-4.741638898849487305e-02
-6.740215420722961426e-02
-2.179523557424545288e-01
7.043372374027967453e-03
-6.585791707038879395e-02
-1.228865683078765869e-01
4.164708312600851059e-03
-1.467313915491104126e-01
1.032199785113334656e-01
8.535740897059440613e-03
1.344437301158905029e-01
-1.971345394849777222e-02
7.645013183355331421e-02
-1.233125925064086914e-01
1.302109956741333008e-01
-3.693673014640808105e-02
1.604533642530441284e-01
1.847231835126876831e-01
-4.192027077078819275e-02
4.784315526485443115e-01
-5.558359622955322266e-02
-8.171118050813674927e-02
-1.976620107889175415e-01
3.139188587665557861e-01
-1.719117611646652222e-01
-1.830843091011047363e-01
-1.769970506429672241e-01
-8.349004387855529785e-02
7.073870301246643066e-02
-2.644702419638633728e-02
2.114862203598022461e-01
1.493499893695116043e-02
5.261997506022453308e-02
-1.289395987987518311e-01
-2.074202001094818115e-01
-2.696646749973297119e-01
1.624413877725601196e-01
1.203526407480239868e-01
-1.347051709890365601e-01
-2.313504070043563843e-01
3.113455176353454590e-01
5.405689775943756104e-02
1.325908452272415161e-01
3.945990651845932007e-02
1.358749419450759888e-01
-7.620313018560409546e-02
2.610802054405212402e-01
-1.865229010581970215e-01
-2.318937331438064575e-02
1.076291501522064209e-02
-2.204483747482299805e-02
1.698812842369079590e-02
-5.041494220495223999e-02
3.054713457822799683e-02
-2.859206497669219971e-02
-3.027740120887756348e-02
1.943019777536392212e-02
4.622027277946472168e-02
6.023149192333221436e-02
-3.956461697816848755e-02
-4.542327672243118286e-02
6.097722053527832031e-02
4.065930843353271484e-04
-1.848321408033370972e-02
-1.334640979766845703e-01
-1.679653972387313843e-01
-1.961069256067276001e-01
3.405997157096862793e-01
-1.653486490249633789e-01
-6.184925138950347900e-02
2.999167144298553467e-01
3.940455913543701172e-01
-1.550494581460952759e-01
7.681847363710403442e-02
-2.095997631549835205e-01
4.738365113735198975e-01
-4.129646420478820801e-01
-2.023182213306427002e-01
-2.332836687564849854e-01
2.498367577791213989e-01
-1.852364987134933472e-01
1.312014162540435791e-01
2.802710048854351044e-02
3.575724959373474121e-01
8.924680203199386597e-02
-6.638919934630393982e-03
-2.096733264625072479e-02
-1.832052133977413177e-02
1.985443681478500366e-01
-6.374515593051910400e-02
-1.133203655481338501e-01
2.435255348682403564e-01
1.738381683826446533e-01
-3.234406188130378723e-02
3.981004655361175537e-02
-9.771945327520370483e-02
-1.479097008705139160e-01
3.769209086894989014e-01
-1.577723622322082520e-01
3.692205846309661865e-01
2.130826264619827271e-01
-1.877598911523818970e-01
2.651374638080596924e-01
-1.103297546505928040e-01
-3.620795533061027527e-02
9.046851098537445068e-02
3.099274635314941406e-01
-2.466829866170883179e-01
-8.178496360778808594e-02
-4.124929755926132202e-02
-9.583525359630584717e-02
-4.632208943367004395e-01
5.679383873939514160e-01
-1.356106847524642944e-01
5.438454449176788330e-02
2.773157358169555664e-01
-1.973987966775894165e-01
1.059155538678169250e-01
-7.756205648183822632e-02
1.074883341789245605e-01
-9.519023448228836060e-02
-9.790026396512985229e-02
-1.985176056623458862e-01
-5.773658677935600281e-02
2.009083777666091919e-01
1.221705302596092224e-01
-9.183451533317565918e-03
1.263184249401092529e-01
2.812758088111877441e-01
3.978837132453918457e-01
1.452266275882720947e-01
1.407499015331268311e-01
1.292801499366760254e-01
2.210447639226913452e-01
6.981500983238220215e-02
4.404475167393684387e-02
-1.233487855643033981e-02
1.388971507549285889e-01
4.336777143180370331e-03
-2.852084040641784668e-01
5.123937875032424927e-02
-1.040591150522232056e-01
-2.947399578988552094e-02
-2.030892074108123779e-01
-4.885492920875549316e-01
-3.583950176835060120e-02
-1.647195070981979370e-01
3.595543503761291504e-01
-3.808904886245727539e-01
-2.288019806146621704e-01
2.263312414288520813e-02
-5.361869931221008301e-02
-2.594501078128814697e-01
-1.512208282947540283e-01
-1.213498339056968689e-01
-8.807459473609924316e-02
1.806225627660751343e-01
3.980837017297744751e-02
-2.990477159619331360e-02
1.300873160362243652e-01
9.633477032184600830e-02
-6.080746278166770935e-02
3.347722440958023071e-02
-3.350052610039710999e-02
-4.622276127338409424e-02
3.426880016922950745e-02
-4.110989719629287720e-02
4.444931447505950928e-02
-2.106024324893951416e-02
-5.443933978676795959e-02
1.285240054130554199e-03
-3.414541482925415039e-02
-4.426652193069458008e-02
-8.436398929916322231e-04
1.246340293437242508e-02
1.625068858265876770e-02
1.447061598300933838e-01
1.085557416081428528e-02
5.271491408348083496e-02
-2.936211228370666504e-01
-1.837069541215896606e-01
3.450800850987434387e-02
2.526260018348693848e-01
-1.653594374656677246e-01
-2.480395436286926270e-01
8.234892785549163818e-02
-9.165846556425094604e-02
-2.146254330873489380e-01
6.128677353262901306e-02
-9.483845531940460205e-02
-1.856515184044837952e-02
2.135601490736007690e-01
-1.965475827455520630e-01
1.037612482905387878e-01
3.767953813076019287e-01
-3.998508211225271225e-03
7.816313765943050385e-03
1.634437739849090576e-01
1.071022227406501770e-01
-1.544525027275085449e-01
7.704538851976394653e-02
2.305254042148590088e-01
1.857716292142868042e-01
-4.085307419300079346e-01
4.921703413128852844e-02
-4.457083642482757568e-01
3.374462947249412537e-02
-2.495918124914169312e-01
-1.588146984577178955e-01
-1.005052030086517334e-01
4.163960739970207214e-02
3.424027860164642334e-01
-7.435460388660430908e-02
1.494198199361562729e-02
1.900935024023056030e-01
1.829157397150993347e-02
4.452478885650634766e-02
3.552649021148681641e-01
1.446203440427780151e-01
3.986371681094169617e-02
1.012389212846755981e-01
1.922073215246200562e-02
1.769190281629562378e-01
1.215233877301216125e-01
-7.541861385107040405e-02
9.807799011468887329e-02
6.009535118937492371e-02
-1.379038691520690918e-01
1.050444990396499634e-01
2.703176252543926239e-02
-2.264595218002796173e-02
5.299951508641242981e-02
-1.439111083745956421e-01
2.492726892232894897e-01
-2.918070852756500244e-01
3.209711611270904541e-01
-3.236001431941986084e-01
2.535393536090850830e-01
-2.742926180362701416e-01
1.001535058021545410e-01
-2.105557173490524292e-01
-3.088940866291522980e-02
3.134213760495185852e-02
-8.443024009466171265e-02
-2.128120660781860352e-01
-3.161240816116333008e-01
3.779731318354606628e-02
-2.366605401039123535e-02
1.322927325963973999e-01
-3.885212540626525879e-01
2.997036278247833252e-01
-2.296750098466873169e-01
1.926624216139316559e-02
1.205532774329185486e-01
2.195798307657241821e-01
-1.907675713300704956e-01
2.339682430028915405e-01
9.560152888298034668e-02
1.805215477943420410e-01
2.081231325864791870e-01
-5.707844346761703491e-02
-3.999631851911544800e-03
-8.251016587018966675e-02
4.452440142631530762e-02
-1.254557967185974121e-01
4.356889724731445312e-01
-1.969471573829650879e-01
-2.857811450958251953e-01
-8.147022873163223267e-02
-3.862306475639343262e-04
-3.371521234512329102e-01
-2.768295705318450928e-01
3.973220661282539368e-02
2.275072932243347168e-01
-8.313404768705368042e-02
-2.158591598272323608e-01
-2.340717166662216187e-01
4.113302007317543030e-02
-1.029791384935379028e-01
-7.869977504014968872e-02
-2.425068616867065430e-01
7.438759505748748779e-02
-1.038291305303573608e-01
-1.275824662297964096e-02
-1.236223243176937103e-02
-2.423159629106521606e-01
-1.443262863904237747e-02
-2.391734719276428223e-01
-5.096753686666488647e-02
4.518340807408094406e-03
6.096093058586120605e-01
-3.579859137535095215e-01
-9.097245335578918457e-02
1.047476008534431458e-01
9.531628340482711792e-03
2.732310816645622253e-02
-1.648774296045303345e-01
-3.813493549823760986e-01
2.496209144592285156e-01
-2.972834184765815735e-02
2.554709091782569885e-02
-1.929865330457687378e-01
-4.905023276805877686e-01
-7.014285027980804443e-02
5.055738985538482666e-02
-1.586218923330307007e-02
4.260015487670898438e-02
-2.215938828885555267e-02
3.157086670398712158e-02
4.472091048955917358e-02
-3.796811401844024658e-02
-4.925982654094696045e-02
5.785410106182098389e-02
-2.303674817085266113e-02
6.141681224107742310e-02
-1.494213938713073730e-04
-4.463141411542892456e-02
4.395882785320281982e-02
4.704425483942031860e-02
-5.671145766973495483e-02
6.390932202339172363e-02
2.719211280345916748e-01
-4.114029109477996826e-01
-3.032178878784179688e-01
-4.902705550193786621e-02
1.582134664058685303e-01
-1.642473638057708740e-01
-2.306803315877914429e-02
5.416757240891456604e-02
1.362051665782928467e-01
8.722580969333648682e-02
4.162003695964813232e-01
-4.173032939434051514e-02
1.209491342306137085e-01
3.519082069396972656e-01
-2.575428225100040436e-02
-8.741155266761779785e-02
4.137747362256050110e-02
-1.991308331489562988e-01
-3.533524572849273682e-01
4.823856055736541748e-02
-6.744430214166641235e-02
2.662700712680816650e-01
-3.033698070794343948e-03
7.855238765478134155e-02
6.888074427843093872e-02
2.003178447484970093e-01
1.183243542909622192e-01
-1.833158135414123535e-01
2.256712317466735840e-01
1.372101753950119019e-01
1.169558800756931305e-02
3.475843667984008789e-01
-3.985421955585479736e-01
4.047406017780303955e-01
-4.432849958539009094e-02
-1.176000162959098816e-01
6.822836399078369141e-02
-9.102939069271087646e-02
-8.423344045877456665e-02
1.345662865787744522e-02
4.162421822547912598e-02
-6.759181618690490723e-02
-1.255751103162765503e-01
1.049761697649955750e-01
-1.456583589315414429e-01
-4.213337004184722900e-01
1.431624405086040497e-02
-2.450263351202011108e-01
-7.141935202525928617e-05
-3.681792914867401123e-01
-8.097468316555023193e-02
4.193038493394851685e-02
1.191019192337989807e-01
2.493417710065841675e-01
1.702633500099182129e-01
2.629241943359375000e-01
-3.951048105955123901e-02
-1.521582603454589844e-01
-4.436567053198814392e-02
2.300727814435958862e-01
3.262682259082794189e-01
-6.519210338592529297e-02
-3.433560207486152649e-02
2.313043475151062012e-01
3.731337785720825195e-01
-1.181386224925518036e-02
-1.359993368387222290e-01
4.520257189869880676e-02
-8.650626987218856812e-03
1.218178197741508484e-01
-8.337998390197753906e-02
-9.673361480236053467e-02
1.610312312841415405e-01
-1.933370828628540039e-01
-2.304071560502052307e-02
-1.438248306512832642e-01
-4.712659418582916260e-01
-3.237249255180358887e-01
-1.057871133089065552e-01
1.806549429893493652e-01
3.189021050930023193e-01
4.978058040142059326e-01
5.421524122357368469e-02
-7.441143691539764404e-02
8.960759639739990234e-02
2.995609119534492493e-02
-6.322977691888809204e-02
2.592739164829254150e-01
9.536982327699661255e-02
-7.454274594783782959e-02
-1.533201187849044800e-01
-2.181404531002044678e-01
-1.536904722452163696e-01
-4.654612243175506592e-01
-1.792944371700286865e-01
-5.233293399214744568e-02
-3.128996491432189941e-02
-1.422075089067220688e-02
-5.521697178483009338e-02
-2.297158539295196533e-02
-4.392107017338275909e-03
-3.011032566428184509e-02
-3.596443682909011841e-02
2.649897336959838867e-02
-4.930228367447853088e-02
-3.272520005702972412e-02
-6.651046127080917358e-02
-1.430590637028217316e-02
4.300804436206817627e-02
9.404846280813217163e-02
-1.445840898668393493e-04
-2.706374414265155792e-02
3.366440534591674805e-01
4.509406164288520813e-02
1.967143267393112183e-01
3.419133722782135010e-01
1.064727008342742920e-01
5.684219300746917725e-03
-7.397459447383880615e-02
5.009352788329124451e-02
-1.257629692554473877e-01
-5.685679614543914795e-02
1.559489071369171143e-01
-4.899652302265167236e-02
7.110842317342758179e-02
-3.856648504734039307e-02
9.205621900036931038e-04
-1.759556233882904053e-01
-1.102354303002357483e-01
-5.911744013428688049e-02
1.848579943180084229e-02
7.342764735221862793e-02
9.205421060323715210e-02
2.020649239420890808e-02
-1.038987655192613602e-02
1.246640011668205261e-01
4.548298940062522888e-02
4.463740065693855286e-02
-3.518845885992050171e-02
-6.150990724563598633e-02
9.501538425683975220e-02
-2.800981998443603516e-01
-9.447766095399856567e-02
1.161461463198065758e-03
4.800210520625114441e-02
-2.117614299058914185e-01
-1.428303495049476624e-02
1.030505001544952393e-01
-4.377782046794891357e-01
2.692955136299133301e-01
2.932929098606109619e-01
6.068062037229537964e-02
-3.643301501870155334e-02
3.267222642898559570e-01
1.694009900093078613e-01
-2.141822427511215210e-01
1.354059576988220215e-01
1.523483693599700928e-01
1.165164113044738770e-01
3.670861572027206421e-02
-3.620354533195495605e-01
-1.769675612449645996e-01
1.598676480352878571e-02
1.311082625761628151e-03
9.949847310781478882e-02
4.170391708612442017e-02
1.358971744775772095e-01
-2.262024730443954468e-01
2.486629933118820190e-01
1.153053715825080872e-01
7.698746770620346069e-02
1.090668365359306335e-01
-6.447217464447021484e-01
1.034853328019380569e-02
7.011056691408157349e-02
5.419849157333374023e-01
-2.314527928829193115e-01
-3.017519600689411163e-02
2.704482376575469971e-01
2.180553972721099854e-01
-1.112711206078529358e-01
1.147078499197959900e-01
-5.688144639134407043e-02
1.169907599687576294e-01
-9.426554292440414429e-02
-2.726295888423919678e-01
-8.619527518749237061e-02
-2.560845017433166504e-01
-5.134239792823791504e-01
-5.634316205978393555e-01
8.209263533353805542e-02
-5.275982022285461426e-01
-1.179254949092864990e-01
-1.879161298274993896e-01
3.623128682374954224e-02
-3.252405226230621338e-01
-1.823845803737640381e-01
3.041167743504047394e-02
1.008124127984046936e-01
1.071799099445343018e-01
3.771622180938720703e-01
1.561614871025085449e-01
5.102422088384628296e-02
3.821147605776786804e-02
5.626704096794128418e-01
7.521124184131622314e-02
-2.378725213930010796e-03
-1.549624651670455933e-01
-1.473686993122100830e-01
7.864377647638320923e-02
-5.253740586340427399e-03
8.695992827415466309e-02
1.641689091920852661e-01
8.424700237810611725e-03
-1.839169710874557495e-01
1.396376937627792358e-01
-1.007086038589477539e-01
-2.006645202636718750e-01
-9.703793912194669247e-04
3.355942666530609131e-01
2.346099168062210083e-01
8.222889900207519531e-02
1.676610112190246582e-01
1.912898151203989983e-03
-8.131664991378784180e-01
-1.640622019767761230e-01
3.133657574653625488e-02
-1.302268169820308685e-02
-2.619548439979553223e-01
3.807004392147064209e-01
-2.821520566940307617e-01
2.902901358902454376e-02
-7.971758395433425903e-02
2.748172879219055176e-01
1.129429116845130920e-01
1.892809867858886719e-01
-2.535997927188873291e-01
-1.795924007892608643e-01
-1.764627099037170410e-01
-3.671340644359588623e-03
-5.259735882282257080e-02
6.237002462148666382e-02
1.597550348378717899e-03
5.457168817520141602e-02
-1.049391180276870728e-02
-5.116789042949676514e-02
5.727225542068481445e-02
-5.409608036279678345e-02
-6.663650274276733398e-03
-3.954847157001495361e-02
-4.734677821397781372e-02
-5.397231131792068481e-02
3.552238643169403076e-02
3.237277269363403320e-02
3.098837286233901978e-02
-2.353040277957916260e-01
6.177220493555068970e-02
-3.418372273445129395e-01
-5.507515668869018555e-01
-3.552103787660598755e-02
-1.046866998076438904e-01
1.483446955680847168e-01
6.226026639342308044e-02
2.825254388153553009e-02
-1.818876415491104126e-01
1.328641921281814575e-01
1.536435335874557495e-01
-3.850875049829483032e-02
-1.353444159030914307e-01
3.333227038383483887e-01
2.349822372198104858e-01
9.910387545824050903e-02
-3.662981092929840088e-01
6.883912533521652222e-02
-4.910714179277420044e-02
2.469075322151184082e-01
3.077049925923347473e-02
1.444829106330871582e-01
-3.868944197893142700e-02
1.970893293619155884e-01
-9.485294669866561890e-02
1.676496677100658417e-02
3.234288990497589111e-01
4.766578599810600281e-02
2.068651318550109863e-01
1.521649360656738281e-01
1.507528591901063919e-02
2.436101436614990234e-01
2.983808219432830811e-01
-5.085105895996093750e-01
-5.872379243373870850e-02
-3.520558178424835205e-01
3.069847524166107178e-01
4.133533686399459839e-03
4.266186654567718506e-01
7.336813956499099731e-02
1.355571895837783813e-01
8.245015144348144531e-02
-1.686215698719024658e-01
1.454999148845672607e-01
1.605653762817382812e-01
-1.358123570680618286e-01
-2.731615900993347168e-01
5.497535467147827148e-01
-1.075908541679382324e-01
-2.725951373577117920e-01
1.680797338485717773e-01
-2.513567917048931122e-02
-1.095320507884025574e-01
4.068520665168762207e-02
-3.851849958300590515e-02
6.894895806908607483e-03
-1.345893274992704391e-02
-5.056033656001091003e-02
1.998065412044525146e-01
-3.012936934828758240e-02
-4.024049043655395508e-01
5.131270363926887512e-02
3.975461721420288086e-01
3.977534174919128418e-02
8.360131829977035522e-02
-7.453745603561401367e-01
-1.251039355993270874e-01
-1.584309488534927368e-01
-1.262409538030624390e-01
3.433322161436080933e-02
1.568928807973861694e-01
-2.214979976415634155e-01
3.371481895446777344e-01
2.034054249525070190e-01
1.060859858989715576e-01
-1.909834742546081543e-01
-8.319021016359329224e-02
-5.746964365243911743e-02
1.098167002201080322e-01
-7.917587459087371826e-02
7.117332518100738525e-02
1.556070446968078613e-01
1.783309876918792725e-01
-1.237845197319984436e-01
-3.409776091575622559e-01
-3.490613400936126709e-01
2.688779681921005249e-02
-8.745308220386505127e-02
-2.689459919929504395e-01
1.062577739357948303e-01
-5.500281229615211487e-02
2.663891613483428955e-01
7.010817527770996094e-02
1.889137029647827148e-01
-3.938458487391471863e-02
2.919383533298969269e-02
7.830335944890975952e-02
1.855344697833061218e-02
6.122261285781860352e-02
-1.418004045262932777e-03
-6.567167490720748901e-02
-5.609773099422454834e-02
-2.440474927425384521e-02
-2.305043116211891174e-02
6.120294705033302307e-02
9.662061184644699097e-02
6.985229440033435822e-03
2.946755662560462952e-02
5.530606955289840698e-02
-3.839299082756042480e-02
9.994518756866455078e-02
1.127878427505493164e-01
8.034113049507141113e-02
-8.609239012002944946e-02
-5.109018683433532715e-01
5.158201977610588074e-02
-1.618470698595046997e-01
3.012868762016296387e-02
2.075905650854110718e-01
-1.153213828802108765e-01
-4.510334432125091553e-01
-3.570470809936523438e-01
1.347553431987762451e-01
1.286375373601913452e-01
-2.144378125667572021e-01
-2.966669201850891113e-01
-1.291710436344146729e-01
-1.575339734554290771e-01
-5.591024458408355713e-02
1.847088783979415894e-01
-2.983657419681549072e-01
1.588159054517745972e-01
-5.261458754539489746e-01
1.349879205226898193e-01
2.718178927898406982e-02
2.916106879711151123e-01
-3.295378983020782471e-01
2.001984268426895142e-01
1.386220846325159073e-02
1.668842881917953491e-01
2.789257839322090149e-02
1.194416284561157227e-01
1.200852841138839722e-01
-2.108474075794219971e-01
6.650226563215255737e-02
1.195001825690269470e-01
-3.011969476938247681e-02
-2.795940339565277100e-01
9.512306004762649536e-02
1.730837672948837280e-01
-1.877125799655914307e-01
-2.214816957712173462e-01
-7.981043308973312378e-02
9.346795827150344849e-02
-1.387887001037597656e-01
-6.681502610445022583e-02
-2.749815881252288818e-01
-1.625201851129531860e-01
-4.886972159147262573e-02
-2.888227105140686035e-01
7.776977028697729111e-03
5.953144654631614685e-02
3.917613625526428223e-01
-1.674596816301345825e-01
-3.267123401165008545e-01
-2.142464816570281982e-01
-6.110846251249313354e-02
-1.538610607385635376e-01
-1.493873000144958496e-01
-1.325750648975372314e-01
2.189120650291442871e-02
-3.488301336765289307e-01
7.103221863508224487e-02
1.167895942926406860e-01
2.119122445583343506e-01
1.143687963485717773e-01
2.262416034936904907e-01
-8.913550525903701782e-02
1.701762527227401733e-01
-3.933248817920684814e-01
-2.332255840301513672e-01
5.135638639330863953e-02
-3.630547225475311279e-01
1.728940755128860474e-02
-4.943762719631195068e-01
1.754931211471557617e-01
-1.895145028829574585e-01
4.051529169082641602e-01
-6.377190817147493362e-03
2.537884190678596497e-02
-6.209870576858520508e-01
7.914962619543075562e-02
6.248924881219863892e-03
-2.283045053482055664e-01
-1.250872015953063965e-01
3.927973508834838867e-01
1.711798459291458130e-01
9.205132722854614258e-02
-2.561474144458770752e-01
1.370069533586502075e-01
1.777389049530029297e-01
7.067933678627014160e-02
-1.495947986841201782e-01
2.323581874370574951e-01
1.484174374490976334e-02
-4.078729450702667236e-01
-3.744543790817260742e-01
2.837187647819519043e-01
-4.427287261933088303e-03
-3.415780365467071533e-01
5.027137696743011475e-02
2.676449716091156006e-01
1.562884598970413208e-01
1.144977137446403503e-01
-1.597047597169876099e-01
3.031475543975830078e-01
-7.112650573253631592e-02
5.810019746422767639e-02
-5.196932330727577209e-02
1.335321925580501556e-02
-1.219746768474578857e-01
-6.405515968799591064e-02
-1.061429455876350403e-01
-2.715086191892623901e-02
1.674194931983947754e-01
-3.026285469532012939e-01
3.666097819805145264e-01
-2.560081891715526581e-02
3.226901590824127197e-02
-4.601982533931732178e-01
-2.019996754825115204e-04
1.605156213045120239e-01
-5.811466276645660400e-02
-6.047887206077575684e-01
-1.704289615154266357e-01
-4.435959160327911377e-01
-1.663102954626083374e-01
-5.257987603545188904e-02
4.855046793818473816e-02
-4.199713468551635742e-02
-5.297342687845230103e-02
1.674196124076843262e-02
2.961741387844085693e-02
5.876365303993225098e-02
4.409000277519226074e-03
3.428933769464492798e-02
2.921380102634429932e-02
-1.055961847305297852e-02
-6.086793541908264160e-02
-3.896807879209518433e-02
6.611143052577972412e-02
-3.041025251150131226e-02
2.788439393043518066e-03
-7.760144770145416260e-03
1.625523716211318970e-02
-2.292043864727020264e-01
1.319876313209533691e-01
-4.299155473709106445e-01
-5.123698115348815918e-01
1.278488896787166595e-02
-5.378781557083129883e-01
-4.261634871363639832e-02
9.922012686729431152e-02
-2.095611765980720520e-02
-2.133356034755706787e-01
-1.065548732876777649e-01
3.252180665731430054e-02
-2.221542298793792725e-01
1.047610584646463394e-02
2.054582983255386353e-01
1.921988874673843384e-01
-8.165072649717330933e-02
-1.614270657300949097e-01
-9.127339720726013184e-02
-2.808761596679687500e-02
1.739618368446826935e-02
-6.437528878450393677e-02
1.502044498920440674e-01
-6.104436516761779785e-02
1.797986477613449097e-01
-2.077430486679077148e-01
1.634203195571899414e-01
1.585422307252883911e-01
-2.744686417281627655e-02
-5.685347691178321838e-02
4.319947585463523865e-02
2.159178704023361206e-01
3.930716589093208313e-02
-1.016126796603202820e-01
-1.423694044351577759e-01
-1.241796016693115234e-01
3.565117418766021729e-01
-8.136189728975296021e-02
3.237783014774322510e-01
-1.373987197875976562e-01
1.113704591989517212e-01
1.353220194578170776e-01
-2.994128689169883728e-02
2.943539060652256012e-02
4.951569736003875732e-01
2.499172389507293701e-01
4.644828289747238159e-02
1.479812264442443848e-01
-2.488832175731658936e-01
-3.238479197025299072e-01
-5.571181536652147770e-04
1.824851483106613159e-01
-2.796811163425445557e-01
-1.665108203887939453e-01
1.978223174810409546e-01
-2.444031983613967896e-01
-2.771471142768859863e-01
-1.462998241186141968e-02
1.499729752540588379e-01
-4.196742773056030273e-01
2.764232754707336426e-01
-2.131287455558776855e-01
3.530157506465911865e-01
-2.358480393886566162e-01
-2.157713919878005981e-01
2.093711197376251221e-01
-2.887364663183689117e-02
-5.098171904683113098e-02
2.444655150175094604e-01
1.468187272548675537e-01
5.085493251681327820e-02
-4.609399661421775818e-02
3.780194520950317383e-01
2.299302369356155396e-01
-3.213879466056823730e-01
1.016802503727376461e-03
3.422867953777313232e-01
1.881049871444702148e-01
-2.289660125970840454e-01
2.281223237514495850e-01
-2.231003940105438232e-01
1.301360689103603363e-02
-3.804706037044525146e-02
-7.053508758544921875e-01
1.189685687422752380e-01
1.168605387210845947e-01
2.992973476648330688e-02
-2.477401793003082275e-01
2.248686999082565308e-01
-6.865974515676498413e-02
-2.734634876251220703e-01
2.799596264958381653e-02
3.196550011634826660e-01
-2.125876396894454956e-01
-7.118473201990127563e-02
-5.017519742250442505e-02
1.539561431854963303e-02
2.951164729893207550e-02
-4.554490442387759686e-04
1.070429664105176926e-02
5.364382266998291016e-02
-5.813642218708992004e-02
-2.400966174900531769e-02
7.385031133890151978e-02
2.691744826734066010e-02
-6.830905377864837646e-02
1.004907209426164627e-02
1.741247810423374176e-02
-2.603891864418983459e-02
4.649602994322776794e-02
2.197674475610256195e-02
-2.825182862579822540e-02
-1.141256988048553467e-01
2.007218152284622192e-01
1.044238731265068054e-01
-4.655412733554840088e-01
2.346529066562652588e-01
3.615565225481987000e-02
-3.977715075016021729e-01
-3.426786363124847412e-01
1.648375988006591797e-01
-1.273056566715240479e-01
-1.322273612022399902e-01
-3.037281632423400879e-01
3.303621113300323486e-01
-9.033198654651641846e-02
7.357136905193328857e-02
-8.356548100709915161e-02
-7.839288711547851562e-01
1.052249968051910400e-01
1.678131669759750366e-01
-5.333848595619201660e-01
-1.186363920569419861e-01
-1.731004863977432251e-01
2.418557405471801758e-01
-2.114428579807281494e-01
9.707148373126983643e-02
-8.876865357160568237e-02
1.903903931379318237e-01
3.516014665365219116e-02
-4.855670630931854248e-01
3.017249517142772675e-02
4.743357747793197632e-02
-2.532207965850830078e-01
1.406552940607070923e-01
-5.204167682677507401e-03
-1.892239600419998169e-01
-1.688329577445983887e-01
2.583657018840312958e-02
4.641550406813621521e-02
-3.357657045125961304e-02
-5.848859250545501709e-02
4.678254947066307068e-02
-2.137106806039810181e-01
-6.580683588981628418e-02
-1.875614225864410400e-01
-6.633807718753814697e-02
-1.850155144929885864e-01
1.369971968233585358e-02
-1.009794622659683228e-01
1.758748888969421387e-01
2.334785908460617065e-01
9.019427001476287842e-02
-4.820643067359924316e-01
-1.353760715574026108e-03
4.234872162342071533e-01
7.950165867805480957e-02
-2.810771763324737549e-01
-1.498738024383783340e-02
1.958255618810653687e-01
-2.209405750036239624e-01
6.132174283266067505e-02
6.481406278908252716e-03
-8.195132017135620117e-02
2.362996935844421387e-01
2.844313085079193115e-01
1.113831847906112671e-01
-2.192196063697338104e-02
3.217110633850097656e-01
3.481155261397361755e-02
-3.303575217723846436e-01
-1.611830443143844604e-01
-2.557814493775367737e-02
8.552394062280654907e-02
7.486446946859359741e-02
-3.360208272933959961e-01
1.106455251574516296e-01
-7.753225415945053101e-02
-6.878286600112915039e-02
-1.890913583338260651e-02
-1.857130825519561768e-01
2.635907232761383057e-01
-3.051343262195587158e-01
1.256724745035171509e-01
5.222027748823165894e-02
1.112023964524269104e-01
2.731499969959259033e-01
1.354447156190872192e-01
-1.978549361228942871e-01
-3.122460469603538513e-02
2.747699618339538574e-01
-3.624619841575622559e-01
-1.156996339559555054e-01
-2.280347049236297607e-01
-6.092601269483566284e-02
-6.581988930702209473e-02
1.207236349582672119e-01
-1.721566617488861084e-01
-4.221544861793518066e-01
-2.011829018592834473e-01
3.420915901660919189e-01
7.133071869611740112e-02
2.182791754603385925e-02
-2.429619282484054565e-01
-1.776295006275177002e-01
-9.674595296382904053e-02
-2.942879684269428253e-02
-6.106578558683395386e-02
1.039195135235786438e-01
-1.410456299781799316e-01
3.823231458663940430e-01
1.140873432159423828e-01
6.945709884166717529e-02
1.439714580774307251e-01
-7.921333611011505127e-02
2.500790059566497803e-01
-2.290865331888198853e-01
-2.136890292167663574e-01
-8.283571153879165649e-02
1.682049632072448730e-01
-1.213826164603233337e-01
3.034546673297882080e-01
-9.684821270639076829e-05
-1.311566829681396484e-01
-1.313157677650451660e-01
7.384841889142990112e-02
4.956006705760955811e-01
-2.809784412384033203e-01
5.165489390492439270e-02
-1.517979502677917480e-01
5.300499498844146729e-02
2.660366147756576538e-02
-2.305073291063308716e-02
3.374164178967475891e-02
3.906378149986267090e-02
2.582036703824996948e-02
-7.651150226593017578e-03
2.470728754997253418e-02
-2.646681666374206543e-02
5.453363806009292603e-02
-4.820153862237930298e-02
-4.758290573954582214e-02
-5.750986188650131226e-02
6.228540092706680298e-02
-2.386003732681274414e-03
-2.606964856386184692e-02
6.880380958318710327e-02
-8.347535133361816406e-02
-1.089468747377395630e-01
5.186477899551391602e-01
-5.377151072025299072e-02
1.366862505674362183e-01
-1.855984926223754883e-01
2.082894593477249146e-01
8.523037284612655640e-02
1.100005134940147400e-01
-7.277386635541915894e-02
-1.012485995888710022e-01
5.996343865990638733e-02
-2.383339107036590576e-01
-2.908500432968139648e-01
-2.554668188095092773e-01
6.559371948242187500e-03
-4.513460025191307068e-02
-1.471105068922042847e-01
2.193525880575180054e-01
-3.397075459361076355e-02
-4.254399985074996948e-02
3.425742685794830322e-02
5.169300734996795654e-02
2.470703795552253723e-02
-1.140775904059410095e-02
2.557536214590072632e-02
-2.257750183343887329e-01
-2.539787292480468750e-01
-1.145547255873680115e-01
-1.737579852342605591e-01
-5.680284500122070312e-01
1.332524567842483521e-01
-1.594964265823364258e-01
5.660396069288253784e-02
-1.021517664194107056e-01
-1.369228065013885498e-01
-3.068410754203796387e-01
2.423002868890762329e-01
2.299872189760208130e-01
-3.258225917816162109e-01
-1.129402220249176025e-01
1.879253238439559937e-02
1.283339262008666992e-01
-2.716384530067443848e-01
1.413357704877853394e-01
9.059914387762546539e-03
1.524315178394317627e-01
1.422809660434722900e-01
2.487716525793075562e-01
2.024184912443161011e-01
-7.897742092609405518e-02
-8.022896945476531982e-03
-1.674349755048751831e-01
-3.313735825940966606e-03
1.880401819944381714e-01
-1.344431489706039429e-01
-9.710547327995300293e-02
-1.337135732173919678e-01
2.924492061138153076e-01
-4.674046039581298828e-01
-1.663968414068222046e-01
-3.466873764991760254e-01
1.566033624112606049e-02
1.326670777052640915e-02
1.014809533953666687e-01
1.561236530542373657e-01
-1.640523523092269897e-01
3.415860235691070557e-02
1.092298328876495361e-01
-3.046112880110740662e-02
-7.821708917617797852e-02
9.299827367067337036e-02
-2.689710557460784912e-01
2.941142916679382324e-01
-3.469617068767547607e-01
7.640387117862701416e-02
2.596576809883117676e-01
-1.721143722534179688e-01
-4.363209754228591919e-02
1.273118108510971069e-01
1.071432381868362427e-01
-5.424563586711883545e-02
-5.691206455230712891e-02
-6.189663708209991455e-02
8.553060144186019897e-02
-1.274835616350173950e-01
-1.335674673318862915e-01
-1.123003065586090088e-01
-9.864597767591476440e-02
3.127209842205047607e-02
-2.209655940532684326e-01
-2.521588504314422607e-01
5.582291260361671448e-02
2.680166363716125488e-01
-2.621264457702636719e-01
-2.550245076417922974e-02
3.449304401874542236e-02
-3.399246931076049805e-02
8.151703327894210815e-02
-2.396783232688903809e-02
4.989594221115112305e-03
-3.214819822460412979e-03
-1.246046461164951324e-02
4.790797829627990723e-03
3.435572236776351929e-02
2.806864678859710693e-02
7.851556688547134399e-02
8.200637251138687134e-02
5.115792155265808105e-04
1.018524728715419769e-02
9.244763851165771484e-02
4.729635715484619141e-01
8.689616224728524685e-04
7.972743362188339233e-03
2.897793240845203400e-02
-7.402510941028594971e-02
1.071722283959388733e-01
-2.258343994617462158e-02
-9.683544188737869263e-02
-3.264665305614471436e-01
1.858154535293579102e-01
1.293400675058364868e-01
2.509016096591949463e-01
-1.208076253533363342e-01
1.205626130104064941e-01
-1.701999008655548096e-01
-2.318019606173038483e-02
-5.149478837847709656e-02
2.646153271198272705e-01
1.458140760660171509e-01
4.772982001304626465e-02
2.383775413036346436e-01
5.519967153668403625e-02
1.333660632371902466e-01
-7.869553565979003906e-02
1.731327772140502930e-01
-9.068740159273147583e-02
2.632781565189361572e-01
1.369278132915496826e-01
-2.305472642183303833e-01
4.126743972301483154e-02
1.232395973056554794e-02
1.679149866104125977e-01
-3.895240277051925659e-02
-6.089356541633605957e-02
-5.432960391044616699e-02
-1.073748543858528137e-01
1.768770962953567505e-01
8.537486195564270020e-02
-1.301640272140502930e-01
-2.866952717304229736e-01
-1.563880359753966331e-03
9.415122866630554199e-02
1.358610242605209351e-01
-7.354974746704101562e-02
1.193568706512451172e-01
2.851479053497314453e-01
2.204349786043167114e-01
-8.071978390216827393e-02
-7.681970298290252686e-02
4.802477359771728516e-02
-1.895777434110641479e-01
6.106065213680267334e-02
4.740567877888679504e-02
-2.046705484390258789e-01
-1.029989272356033325e-01
5.776599049568176270e-02
1.913255751132965088e-01
1.786788403987884521e-01
-1.053257659077644348e-01
-1.564141809940338135e-01
-2.436192631721496582e-01
2.378604114055633545e-01
4.554715380072593689e-02
-4.124546349048614502e-01
1.477843672037124634e-01
1.555864363908767700e-01
-1.649213284254074097e-01
5.350831151008605957e-01
3.249219059944152832e-02
-1.053481474518775940e-01
1.229088231921195984e-01
1.181104332208633423e-01
-7.064325734972953796e-03
3.381930664181709290e-02
-2.430552095174789429e-01
2.069356143474578857e-01
2.608285248279571533e-01
-6.322898715734481812e-02
-1.307533383369445801e-01
-5.216825604438781738e-01
1.121528595685958862e-01
3.410806655883789062e-01
-2.480304986238479614e-01
-3.862592577934265137e-01
-5.990360379219055176e-01
-2.065430879592895508e-01
5.686346441507339478e-02
-4.987274110317230225e-02
-5.533246397972106934e-01
-2.913746237754821777e-01
2.365161478519439697e-01
5.490402132272720337e-02
-4.055128395557403564e-01
1.353337019681930542e-01
2.506867349147796631e-01
3.997183144092559814e-01
-2.734735310077667236e-01
8.319008164107799530e-03
-8.997763507068157196e-03
1.298645287752151489e-01
-1.706587076187133789e-01
2.883492410182952881e-02
-1.031046658754348755e-01
2.782790064811706543e-01
-2.096767127513885498e-01
7.566493004560470581e-02
-1.671436727046966553e-01
-5.303125083446502686e-02
-9.079509228467941284e-02
6.762035191059112549e-02
1.268793493509292603e-01
-1.907232254743576050e-01
3.620515465736389160e-01
-1.397154629230499268e-01
2.077803760766983032e-01
-2.714159786701202393e-01
2.206239998340606689e-01
-8.832226693630218506e-02
-6.873393803834915161e-02
-2.630068920552730560e-03
2.321143746376037598e-01
-1.793962270021438599e-01
-2.468448877334594727e-02
-3.205637931823730469e-01
-1.449124068021774292e-01
1.909872442483901978e-01
3.503440618515014648e-01
-3.699428215622901917e-02
-1.611813902854919434e-03
-6.610035896301269531e-03
-1.105361431837081909e-02
-2.142712660133838654e-02
-5.622696876525878906e-02
-2.533290535211563110e-02
-4.582233726978302002e-03
2.775204181671142578e-02
-5.180753022432327271e-02
4.648156464099884033e-03
1.210464537143707275e-02
9.514832636341452599e-04
5.581754446029663086e-02
4.203153401613235474e-02
-5.321962386369705200e-02
2.261036634445190430e-02
-5.631925165653228760e-02
-1.400831192731857300e-01
-3.317707777023315430e-01
-5.824350714683532715e-01
-3.269453644752502441e-01
-1.237289533019065857e-01
-2.774331271648406982e-01
-1.651345044374465942e-01
-1.110385805368423462e-01
1.444969028234481812e-01
1.011876612901687622e-01
-1.392437219619750977e-01
9.868004918098449707e-02
4.836578369140625000e-01
3.209999501705169678e-01
4.698733985424041748e-01
3.056245855987071991e-02
-2.364423274993896484e-01
-3.787053748965263367e-02
-5.570181459188461304e-02
-1.326696574687957764e-01
-1.943673565983772278e-02
-2.473208457231521606e-01
9.881874173879623413e-02
1.121648494154214859e-02
-1.167484521865844727e-01
-2.989387810230255127e-01
-1.239069364964962006e-02
-1.175954192876815796e-02
-2.172502577304840088e-01
-8.059808611869812012e-02
1.508136242628097534e-01
4.150024652481079102e-01
4.125407710671424866e-02
3.347306549549102783e-01
-2.257804274559020996e-01
7.630603015422821045e-02
1.072147265076637268e-01
8.177898824214935303e-02
-1.018097251653671265e-01
-2.426689863204956055e-01
-1.010919660329818726e-01
-1.065840758383274078e-02
2.119203284382820129e-02
2.202924191951751709e-01
-2.940143644809722900e-01
2.115776240825653076e-01
-5.245515704154968262e-02
-1.092214286327362061e-01
1.086393445730209351e-01
-1.088338717818260193e-01
1.019801795482635498e-01
-5.825014784932136536e-02
1.885956376791000366e-01
-7.821919396519660950e-03
-1.721363961696624756e-01
2.446612901985645294e-02
1.487350165843963623e-01
1.153267249464988708e-01
-3.318030619993805885e-03
4.456847906112670898e-01
9.987744688987731934e-02
-1.682637780904769897e-01
3.405226767063140869e-02
1.137393265962600708e-01
2.315200865268707275e-01
-5.214008688926696777e-02
7.537282258272171021e-02
-2.131332829594612122e-02
-1.981347203254699707e-01
-4.298069775104522705e-01
-1.325124800205230713e-01
-6.022528931498527527e-02
-5.655341222882270813e-02
2.521850913763046265e-02
-9.403978288173675537e-02
-1.017075628042221069e-01
-2.416795939207077026e-01
2.730322778224945068e-01
1.860058903694152832e-01
1.568741649389266968e-01
1.204697415232658386e-01
-2.474318742752075195e-01
-1.168519780039787292e-01
-1.042947396636009216e-01
-3.158213570713996887e-02
-1.467162072658538818e-01
-1.421784311532974243e-01
-5.553684383630752563e-02
-3.536945208907127380e-02
1.261542439460754395e-01
-5.738754197955131531e-02
-3.492718935012817383e-01
1.177206635475158691e-01
7.375142723321914673e-02
-2.482119500637054443e-01
-5.657981708645820618e-02
-2.134141512215137482e-02
8.568139746785163879e-04
3.934962674975395203e-03
5.516903474926948547e-02
-2.410272322595119476e-02
-5.334075912833213806e-02
2.347931079566478729e-02
2.108609303832054138e-02
-2.431495301425457001e-02
1.415936648845672607e-02
1.090126931667327881e-01
5.980708077549934387e-02
2.399722114205360413e-02
-2.465957961976528168e-02
5.372700840234756470e-02
-3.273597657680511475e-01
-3.253346979618072510e-01
-5.475192666053771973e-01
-2.332793474197387695e-01
-8.899362385272979736e-02
1.280609220266342163e-01
1.218049302697181702e-01
-2.007268667221069336e-01
-1.255131363868713379e-01
2.803527377545833588e-02
4.045289456844329834e-01
2.327918410301208496e-01
1.153724640607833862e-01
2.157225012779235840e-01
5.313013195991516113e-01
-1.199283897876739502e-01
-2.026904821395874023e-01
-1.646281480789184570e-01
-2.729619853198528290e-02
-4.432665184140205383e-02
-6.906090676784515381e-02
3.446705937385559082e-01
5.106613412499427795e-02
8.537737303413450718e-04
-2.392138354480266571e-03
9.780231863260269165e-02
2.698484435677528381e-02
4.814662970602512360e-03
-1.549463570117950439e-01
3.278414905071258545e-01
5.486455187201499939e-02
-7.287784665822982788e-02
2.558577060699462891e-01
1.619333624839782715e-01
1.012772135436534882e-02
4.806733503937721252e-02
2.534155547618865967e-02
-1.643022298812866211e-01
7.294031977653503418e-02
5.013804510235786438e-02
1.071594282984733582e-01
2.572609484195709229e-01
6.649249047040939331e-02
-7.914028316736221313e-02
2.197768688201904297e-01
4.663416743278503418e-01
2.172228693962097168e-01
-4.978271201252937317e-02
7.713583763688802719e-03
3.441201448440551758e-01
1.599707752466201782e-01
1.814191639423370361e-01
1.334442496299743652e-01
6.639385223388671875e-02
-3.886182606220245361e-02
-2.517572939395904541e-01
-7.495284080505371094e-03
-3.929159790277481079e-02
-2.757043242454528809e-01
-1.860149502754211426e-01
2.444096505641937256e-01
-4.141075313091278076e-01
-1.732720285654067993e-01
-1.808710992336273193e-01
5.159995555877685547e-01
3.504399359226226807e-01
2.679150998592376709e-01
-3.517659902572631836e-01
-4.152642562985420227e-03
-2.722065448760986328e-01
5.213738605380058289e-02
1.140321418642997742e-01
-2.559876739978790283e-01
3.695135703310370445e-03
-9.820645302534103394e-02
-1.386623829603195190e-01
2.314052283763885498e-01
-4.390087351202964783e-02
-1.361251920461654663e-01
-1.886223703622817993e-01
-5.873457714915275574e-02
-3.896586298942565918e-01
-5.342652555555105209e-03
-5.615663714706897736e-03
2.857937514781951904e-01
-3.401646316051483154e-01
2.960068583488464355e-01
-1.098142862319946289e-01
6.010114029049873352e-02
-1.290507465600967407e-01
1.785400509834289551e-01
1.974479667842388153e-02
-8.930581063032150269e-02
-4.832441210746765137e-01
-2.555704489350318909e-02
-2.970433048903942108e-02
-2.601489722728729248e-01
-5.758190155029296875e-01
-2.678872048854827881e-01
-8.296403102576732635e-03
-2.797387838363647461e-01
7.704747468233108521e-02
1.425919532775878906e-01
-2.518503367900848389e-02
7.908266782760620117e-02
2.289637923240661621e-01
9.525312483310699463e-02
2.521932423114776611e-01
2.911878526210784912e-01
4.332012534141540527e-01
3.343734741210937500e-01
-1.928958483040332794e-02
-1.641092002391815186e-01
8.597905933856964111e-02
-2.050812393426895142e-01
-3.574365973472595215e-01
-9.446033090353012085e-02
-1.880667172372341156e-02
1.416738331317901611e-01
-2.339297533035278320e-02
-4.918116703629493713e-02
-1.873585581779479980e-01
-3.135395050048828125e-02
1.985470950603485107e-01
-3.252480924129486084e-02
-1.226616129279136658e-01
-1.491054147481918335e-01
-2.470111250877380371e-01
-3.540003299713134766e-02
7.712788879871368408e-03
-4.904242604970932007e-02
-2.415911667048931122e-02
-4.109679162502288818e-02
-2.817226201295852661e-02
-1.946730911731719971e-02
2.459400147199630737e-02
2.650832384824752808e-02
5.947913229465484619e-02
-5.842158198356628418e-02
2.944663725793361664e-02
4.064247757196426392e-02
-5.532457679510116577e-02
-4.198037087917327881e-02
1.774819195270538330e-02
-6.784406304359436035e-02
-4.307075962424278259e-02
-1.391502842307090759e-02
-4.908193647861480713e-02
2.371968701481819153e-02
-6.952868402004241943e-02
-1.664128527045249939e-02
3.069089725613594055e-03
-7.807078957557678223e-02
-1.002297736704349518e-02
7.276715245097875595e-03
1.203447114676237106e-02
-6.978986412286758423e-02
-1.828127168118953705e-02
-3.500597551465034485e-02
3.420295566320419312e-02
-1.658472418785095215e-02
-3.661495819687843323e-02
1.978719420731067657e-02
-4.055667202919721603e-03
-5.660302191972732544e-02
-1.690499857068061829e-02
1.072481274604797363e-02
-6.901669502258300781e-02
3.689360618591308594e-02
-7.249731570482254028e-02
-1.396323181688785553e-02
-3.941137716174125671e-02
4.421164095401763916e-02
3.679332137107849121e-02
-2.265638671815395355e-02
-4.427063092589378357e-02
-2.438264340162277222e-02
3.204114735126495361e-02
-6.701862066984176636e-02
2.553386986255645752e-02
-6.395439803600311279e-02
-6.510949134826660156e-02
2.002454549074172974e-02
-4.729984328150749207e-02
3.466494753956794739e-02
3.013190813362598419e-02
-3.879081085324287415e-02
-5.182498320937156677e-02
9.253635071218013763e-03
-7.109075784683227539e-02
-3.174597630277276039e-03
-6.773279607295989990e-02
-1.797386258840560913e-02
4.389058053493499756e-02
-4.882496595382690430e-02
-3.489227592945098877e-02
-6.751492619514465332e-02
1.471933070570230484e-02
-3.169242059811949730e-03
3.506405279040336609e-02
-7.086099684238433838e-02
1.521521434187889099e-02
2.172553678974509239e-03
-5.480980873107910156e-02
6.303540896624326706e-03
2.761625312268733978e-02
-1.020541414618492126e-02
4.555213823914527893e-02
-2.270924113690853119e-02
-3.198268264532089233e-02
1.180361956357955933e-02
2.360525168478488922e-02
4.330740496516227722e-02
-1.523362565785646439e-02
-9.395128116011619568e-03
4.564782604575157166e-02
-5.293123424053192139e-02
-6.554855406284332275e-02
4.424341395497322083e-02
-2.712400443851947784e-02
-3.896510601043701172e-02
4.256524145603179932e-02
2.838565409183502197e-02
-5.229711532592773438e-02
4.271142184734344482e-03
-2.492227405309677124e-02
-7.051521539688110352e-02
2.051536552608013153e-02
-2.938239276409149170e-02
-5.481605604290962219e-02
-2.812529541552066803e-02
-6.061138585209846497e-02
-1.025032065808773041e-02
-6.291068345308303833e-02
4.336183890700340271e-02
-5.366604775190353394e-02
-5.704588443040847778e-02
-1.088388497009873390e-03
-5.500663816928863525e-02
-6.920866668224334717e-02
-1.263088732957839966e-02
-3.460016846656799316e-02
2.337753027677536011e-02
8.937388658523559570e-03
2.648972719907760620e-02
3.231223672628402710e-02
6.860874593257904053e-03
1.251093298196792603e-02
-2.323394268751144409e-02
-2.375364303588867188e-03
-1.927493512630462646e-02
-1.086288690567016602e-02
9.465582668781280518e-03
2.695640921592712402e-02
-1.645683497190475464e-02
3.787886351346969604e-02
-3.099067695438861847e-02
-2.650141343474388123e-02
-4.885364696383476257e-02
5.093640834093093872e-02
-7.472290098667144775e-02
-5.770381167531013489e-02
1.322967465966939926e-02
-2.022058889269828796e-02
5.165667086839675903e-02
-7.086634170264005661e-03
-5.446586385369300842e-02
-1.963884569704532623e-02
-4.137510061264038086e-02
-4.310066625475883484e-02
4.951559007167816162e-02
-2.129925973713397980e-02
2.618048340082168579e-03
-7.812505960464477539e-02
2.917976677417755127e-02
-6.063102558255195618e-02
-7.096169143915176392e-02
-4.692016914486885071e-02
-5.884856730699539185e-02
-1.540395058691501617e-02
-4.958798736333847046e-02
-6.521323323249816895e-02
-4.656309634447097778e-02
4.065912589430809021e-02
-4.309682548046112061e-02
-5.458841845393180847e-02
2.471640519797801971e-02
4.054106771945953369e-02
3.839087486267089844e-02
-3.419555723667144775e-03
2.886231988668441772e-02
-1.839948445558547974e-02
1.004002243280410767e-02
2.115000039339065552e-02
4.744090139865875244e-02
3.665520250797271729e-02
2.579267323017120361e-02
5.030811578035354614e-02
-8.102886378765106201e-03
4.827082157135009766e-03
4.340541362762451172e-02
-4.338461905717849731e-02
4.605751484632492065e-02
1.252579689025878906e-02
-3.873451054096221924e-02
2.072794735431671143e-02
-4.939178377389907837e-02
-7.129500061273574829e-02
-5.716440454125404358e-02
3.437651321291923523e-03
-1.917059160768985748e-02
-4.654069617390632629e-02
-5.285999178886413574e-02
-1.600169576704502106e-02
3.301048651337623596e-02
2.727943472564220428e-03
-4.276303574442863464e-02
-3.089332487434148788e-03
-6.362680345773696899e-02
-2.786776749417185783e-04
-1.868455670773983002e-03
1.657648012042045593e-02
1.269429735839366913e-02
2.434774488210678101e-02
-7.546814531087875366e-02
-3.972758725285530090e-02
6.978175137192010880e-03
1.267794705927371979e-02
-1.619427278637886047e-02
3.139421716332435608e-02
-7.231371104717254639e-02
-5.294653773307800293e-02
3.026541694998741150e-02
6.172733008861541748e-02
-5.317824333906173706e-02
5.167547613382339478e-03
6.643170490860939026e-03
-7.475658319890499115e-03
1.653278432786464691e-02
3.085321001708507538e-02
-6.930171698331832886e-02
-3.560094907879829407e-02
-8.976233005523681641e-02
-1.111783552914857864e-02
-3.935739025473594666e-02
1.736142300069332123e-02
-2.460261434316635132e-02
3.572818636894226074e-02
4.228735715150833130e-02
1.842295401729643345e-03
-1.210543978959321976e-02
-3.759911283850669861e-02
-6.097813695669174194e-02
-2.860551327466964722e-02
2.410431019961833954e-02
4.538899660110473633e-02
-5.470426380634307861e-02
5.580070614814758301e-02
-3.339014574885368347e-02
4.343636706471443176e-02
-2.123797684907913208e-02
4.064188152551651001e-02
2.518448792397975922e-02
2.321811765432357788e-02
3.988114371895790100e-02
-5.936604365706443787e-02
-1.108198799192905426e-02
-1.139493566006422043e-02
7.573039270937442780e-03
5.502107739448547363e-02
-2.471541799604892731e-02
-5.726867914199829102e-02
-2.584898099303245544e-02
-4.325073957443237305e-02
4.270634613931179047e-03
5.650877207517623901e-02
6.167401373386383057e-02
9.098574519157409668e-04
-5.628131702542304993e-02
3.815669566392898560e-02
-2.179871499538421631e-02
1.735707372426986694e-02
4.153847694396972656e-03
-2.114024758338928223e-02
-2.098116278648376465e-02
1.911152899265289307e-02
5.617915838956832886e-02
-8.356213569641113281e-03
1.152140647172927856e-02
1.434180885553359985e-02
2.294424176216125488e-02
-1.517338305711746216e-02
-2.993275970220565796e-02
-4.072126746177673340e-02
-1.887951791286468506e-02
3.439271450042724609e-02
5.864015221595764160e-02
-5.677288025617599487e-02
2.408149838447570801e-02
2.935961633920669556e-02
-1.646969765424728394e-01
2.994090318679809570e-01
3.542044386267662048e-02
2.608989477157592773e-01
-5.477160215377807617e-02
3.887797594070434570e-01
-1.989993005990982056e-01
-5.442852526903152466e-02
1.770587116479873657e-01
1.420922279357910156e-01
-2.678591609001159668e-01
5.710041522979736328e-02
-1.472102254629135132e-01
-4.988665282726287842e-01
-2.227768599987030029e-01
-1.073525696992874146e-01
7.445781677961349487e-02
-1.494493186473846436e-01
5.505019798874855042e-02
-1.620197594165802002e-01
1.039944589138031006e-01
-8.216184563934803009e-03
-1.995687633752822876e-01
2.255030423402786255e-01
1.726887673139572144e-01
2.355415076017379761e-01
-6.377733498811721802e-02
-4.125738143920898438e-01
-3.417310714721679688e-01
3.619907200336456299e-01
3.978745639324188232e-02
-1.179343611001968384e-01
2.017141431570053101e-01
-1.741896420717239380e-01
-1.248903200030326843e-01
1.322048902511596680e-01
5.476050823926925659e-02
3.973717987537384033e-02
-1.010824292898178101e-01
-3.824997320771217346e-02
4.443005844950675964e-02
2.934038043022155762e-01
1.803995519876480103e-01
-4.822438210248947144e-02
-4.696255177259445190e-02
3.684967756271362305e-01
-4.200397431850433350e-01
1.500892639160156250e-01
-1.894288361072540283e-01
-5.226630568504333496e-01
-4.401051700115203857e-01
-2.097303569316864014e-01
-2.244025021791458130e-01
9.566483646631240845e-02
-2.067938745021820068e-01
-1.071985065937042236e-02
-1.732275038957595825e-01
2.110795676708221436e-01
-8.034792542457580566e-02
-6.503830850124359131e-02
-1.823187023401260376e-01
3.775740265846252441e-01
-2.779296338558197021e-01
1.151676326990127563e-01
1.121074259281158447e-01
-8.526844531297683716e-02
6.840801984071731567e-02
-9.400855749845504761e-02
8.589152991771697998e-02
4.363621026277542114e-02
3.777336329221725464e-02
9.647548198699951172e-02
6.108643487095832825e-02
2.363778650760650635e-01
-2.750274725258350372e-02
-1.616496443748474121e-01
-1.268280595541000366e-01
4.210399985313415527e-01
1.413333266973495483e-01
-6.607551872730255127e-02
-4.474932551383972168e-01
6.172255873680114746e-01
2.067126184701919556e-01
3.425470888614654541e-01
-2.655444741249084473e-01
-2.653228342533111572e-01
-2.043453156948089600e-01
-2.171831130981445312e-01
3.780570253729820251e-02
4.049724712967872620e-02
-3.135960102081298828e-01
-5.797567311674356461e-03
7.181571424007415771e-02
2.311314940452575684e-01
-5.523541942238807678e-02
1.343743503093719482e-01
4.544284567236900330e-02
4.136624187231063843e-02
-2.521236985921859741e-02
1.065562292933464050e-02
-5.353273078799247742e-02
5.824973434209823608e-02
-5.634281318634748459e-03
5.436518788337707520e-02
-4.074304178357124329e-02
2.150170132517814636e-02
1.190746575593948364e-02
-7.105104305082932115e-05
9.052476286888122559e-02
3.734593093395233154e-02
9.338258206844329834e-02
-9.174431674182415009e-03
8.675841987133026123e-02
3.007822334766387939e-01
4.858516454696655273e-01
9.953434765338897705e-02
-1.338740438222885132e-01
6.478557479567825794e-04
8.943422883749008179e-02
-5.310255289077758789e-02
-6.663700193166732788e-02
4.212519526481628418e-01
-2.452883869409561157e-02
1.625748723745346069e-02
-5.794286355376243591e-02
-6.774003803730010986e-02
-2.594371438026428223e-01
-4.801766201853752136e-02
-2.749586999416351318e-01
-3.038891553878784180e-01
-1.667751669883728027e-01
2.933695167303085327e-02
-1.101212427020072937e-01
-2.042934000492095947e-01
-2.214408293366432190e-02
6.430155038833618164e-02
1.036705542355775833e-02
-1.837234944105148315e-01
7.876110076904296875e-02
1.918754875659942627e-01
1.521296054124832153e-01
-2.586978375911712646e-01
1.738001108169555664e-01
8.801326900720596313e-02
-3.746954724192619324e-02
3.025021851062774658e-01
2.039808183908462524e-01
3.147127926349639893e-01
-6.588005460798740387e-03
-4.963617026805877686e-02
1.676565110683441162e-01
-1.641065441071987152e-02
-8.197726309299468994e-02
-1.139694899320602417e-01
-6.637442111968994141e-02
7.568538188934326172e-03
-5.032704398036003113e-02
-7.642548531293869019e-02
-1.859529465436935425e-01
3.401535004377365112e-02
3.929513692855834961e-02
2.835306525230407715e-02
-1.540825814008712769e-01
-2.889011800289154053e-01
4.694776609539985657e-02
-1.870684623718261719e-01
-1.163481026887893677e-01
6.590121239423751831e-02
-1.191246509552001953e-01
2.340747863054275513e-01
-3.874937295913696289e-01
-1.798719614744186401e-01
-1.355423778295516968e-01
2.199447304010391235e-01
3.162491917610168457e-01
-1.485422998666763306e-01
-3.716746270656585693e-01
-1.333502382040023804e-01
-1.261215563863515854e-02
2.758945822715759277e-01
-1.499195843935012817e-01
6.869055330753326416e-02
1.338505446910858154e-01
-4.751678183674812317e-02
3.067945539951324463e-01
6.848649680614471436e-02
-2.208034694194793701e-01
-4.434143751859664917e-02
7.254248112440109253e-02
3.400613069534301758e-01
-1.728846877813339233e-01
-3.873363137245178223e-01
3.418917208909988403e-02
-1.577139347791671753e-01
-4.988124128431081772e-03
-1.520129740238189697e-01
7.601211220026016235e-02
2.945090830326080322e-01
2.606733702123165131e-02
1.581666767597198486e-01
-4.797379020601511002e-03
8.044485002756118774e-02
2.270208448171615601e-01
5.988276377320289612e-02
3.937024772167205811e-01
5.847563743591308594e-01
8.007806539535522461e-02
-7.256767153739929199e-02
1.861062347888946533e-01
-1.625574007630348206e-02
-2.301130210980772972e-03
1.598183810710906982e-02
3.623262047767639160e-01
2.184137850999832153e-01
1.367703378200531006e-01
-9.965396672487258911e-02
-2.121610641479492188e-01
-4.269202798604965210e-02
-3.629437983036041260e-01
-1.925734058022499084e-02
-2.356020361185073853e-01
-2.687564492225646973e-01
-1.733006685972213745e-01
1.398188471794128418e-01
-3.273784816265106201e-01
1.758756488561630249e-02
9.333341568708419800e-02
-2.432111799716949463e-01
-1.347333788871765137e-01
2.995547354221343994e-01
-2.175537347793579102e-01
-1.987571269273757935e-01
2.436344474554061890e-01
-2.994475364685058594e-01
-1.092541515827178955e-01
1.317018568515777588e-01
3.421413004398345947e-01
-3.248825669288635254e-01
3.507131636142730713e-01
4.377020895481109619e-01
2.698418498039245605e-02
-4.277016222476959229e-02
5.246104300022125244e-02
7.331158220767974854e-02
5.433358252048492432e-02
3.639276325702667236e-02
3.545548021793365479e-02
8.936703205108642578e-03
-1.081048697233200073e-02
1.303026825189590454e-02
-1.117566227912902832e-02
2.383985929191112518e-02
-4.301610589027404785e-02
4.591447114944458008e-02
1.754304021596908569e-02
4.262492060661315918e-02
-3.157652318477630615e-01
-3.594540357589721680e-01
-2.166721969842910767e-01
-1.227954924106597900e-01
-5.473791807889938354e-02
-5.544236302375793457e-01
-3.671931624412536621e-01
2.208133228123188019e-02
-3.864761590957641602e-01
-6.289963722229003906e-01
-4.372236132621765137e-01
-9.391851723194122314e-02
-1.104162037372589111e-01
1.773484945297241211e-01
-2.150969356298446655e-01
1.404102426022291183e-02
-3.437607288360595703e-01
3.761166334152221680e-02
-2.311160042881965637e-02
-6.729786098003387451e-02
5.837409570813179016e-02
-1.467753946781158447e-01
1.402392536401748657e-01
1.442367881536483765e-01
5.230825394392013550e-02
-6.494057178497314453e-02
1.465427726507186890e-01
2.626173794269561768e-01
1.811701618134975433e-02
-1.021242793649435043e-02
9.370011091232299805e-02
3.686064779758453369e-01
-2.949464321136474609e-01
2.886615395545959473e-01
-9.893729537725448608e-02
1.479391157627105713e-01
2.034081518650054932e-02
1.490484029054641724e-01
2.311338782310485840e-01
-1.251830309629440308e-01
3.978760242462158203e-01
2.061410695314407349e-01
-6.784149259328842163e-02
-3.256029263138771057e-02
1.110149174928665161e-01
7.086603343486785889e-02
1.715081632137298584e-01
-1.415675412863492966e-02
3.493575453758239746e-01
-2.315316945314407349e-01
-1.878749281167984009e-01
2.819034457206726074e-01
6.953027099370956421e-02
-3.666001558303833008e-01
-1.391702983528375626e-02
-3.697773069143295288e-02
6.029193848371505737e-02
-2.492170780897140503e-01
-4.594792127609252930e-01
6.934536248445510864e-02
2.287515699863433838e-01
-1.946681290864944458e-01
2.140720337629318237e-01
-1.949266344308853149e-01
6.110629532486200333e-03
-7.976011931896209717e-02
-2.050376981496810913e-01
-5.314101651310920715e-02
2.159247547388076782e-02
-1.701658070087432861e-01
2.390846796333789825e-02
-1.671184599399566650e-01
-4.125478118658065796e-02
9.374784678220748901e-02
-1.964968442916870117e-02
-1.148838996887207031e-01
-4.528841003775596619e-02
5.725388601422309875e-02
-2.395246736705303192e-02
1.733501702547073364e-01
-2.244718074798583984e-01
-4.168167244642972946e-03
1.403965502977371216e-01
3.292711973190307617e-01
3.480032682418823242e-01
-1.330277621746063232e-01
2.739288508892059326e-01
-1.400905475020408630e-02
1.050346195697784424e-01
-3.845837414264678955e-01
2.340327203273773193e-01
7.998518645763397217e-02
8.076436072587966919e-02
9.707117453217506409e-03
1.410647630691528320e-01
-2.071611434221267700e-01
-8.635232225060462952e-03
-6.493262201547622681e-02
7.532919757068157196e-03
-4.860997945070266724e-02
-3.040198236703872681e-02
-3.213928267359733582e-02
2.963124774396419525e-02
-4.483224079012870789e-02
3.918081149458885193e-02
4.738145694136619568e-02
-9.176623821258544922e-02
-9.357927739620208740e-02
-4.445821046829223633e-02
7.803445309400558472e-02
1.223452016711235046e-02
-6.999196112155914307e-02
5.544233694672584534e-02
-1.088991910219192505e-01
-3.965061008930206299e-01
-3.558171689510345459e-01
-3.298611938953399658e-02
-6.033931970596313477e-01
-2.033278495073318481e-01
-8.894808590412139893e-02
3.746094647794961929e-03
-3.707089722156524658e-01
-3.339526653289794922e-01
2.910157851874828339e-02
1.916775405406951904e-01
-1.046189889311790466e-01
-2.787182629108428955e-01
1.411345452070236206e-01
-4.969701468944549561e-01
-4.642477631568908691e-02
-1.143964286893606186e-02
-2.819221913814544678e-01
-8.300454169511795044e-02
-2.913629868999123573e-04
8.505307883024215698e-02
9.233253449201583862e-02
4.924132302403450012e-02
7.948389276862144470e-03
1.828127801418304443e-01
8.579844236373901367e-02
6.721364706754684448e-02
1.697919219732284546e-01
9.788948297500610352e-02
6.707794964313507080e-02
-2.935532331466674805e-01
-3.172515332698822021e-02
-9.357769042253494263e-02
-2.059710174798965454e-01
-1.746148169040679932e-01
-4.727385565638542175e-02
1.747361384332180023e-02
-3.390078842639923096e-01
-1.248027384281158447e-01
-4.376869276165962219e-02
-1.192699745297431946e-01
-2.011381238698959351e-01
-3.154784739017486572e-01
-1.485882848501205444e-01
-1.714509576559066772e-01
-2.387960813939571381e-02
-2.757429480552673340e-01
-4.973683506250381470e-02
2.738257944583892822e-01
2.329233884811401367e-01
2.230288535356521606e-01
-1.365623176097869873e-01
2.812306769192218781e-02
2.118992656469345093e-01
-1.462348997592926025e-01
-1.124214679002761841e-01
2.364104092121124268e-01
3.057686388492584229e-01
-2.884083986282348633e-01
-4.675597324967384338e-02
4.263357222080230713e-01
3.167181015014648438e-01
-3.815520321950316429e-03
9.016633778810501099e-02
-1.991814747452735901e-02
4.257109165191650391e-01
7.574635744094848633e-02
-1.821037679910659790e-01
2.754179239273071289e-01
-4.603493958711624146e-02
-2.655753195285797119e-01
-1.642074584960937500e-01
2.652713470160961151e-02
-8.342951536178588867e-02
2.285273820161819458e-01
1.771189831197261810e-02
2.197107076644897461e-01
5.456145387142896652e-03
-9.281250834465026855e-02
-7.067872583866119385e-02
7.160405069589614868e-02
1.152652330347336829e-04
2.019916102290153503e-02
-4.742795228958129883e-02
2.130740135908126831e-02
-3.469618856906890869e-01
4.021216034889221191e-01
7.053543627262115479e-02
-6.446857750415802002e-02
-3.767469227313995361e-01
5.362801551818847656e-01
4.062973558902740479e-01
-3.427013158798217773e-01
-1.828663647174835205e-01
1.426492035388946533e-01
-1.928021311759948730e-01
-1.960611045360565186e-01
-4.531732574105262756e-02
-1.001217588782310486e-01
-2.394545227289199829e-01
-6.524799466133117676e-01
-8.175900578498840332e-02
1.015321388840675354e-01
-1.503487080335617065e-01
-1.065239906311035156e-01
-9.191250056028366089e-02
1.769114844501018524e-02
-1.637452691793441772e-01
-2.704961597919464111e-01
-3.241761326789855957e-01
-1.023079678416252136e-01
1.916040778160095215e-01
-1.751278340816497803e-02
-1.801775544881820679e-01
1.705025285482406616e-01
4.195430502295494080e-02
-4.203516058623790741e-03
2.315688692033290863e-02
1.406979858875274658e-01
1.718599908053874969e-02
-1.223794668912887573e-01
2.910140156745910645e-02
-3.881452083587646484e-01
-3.248584398534148932e-04
-2.215912491083145142e-01
4.101707935333251953e-01
3.734683990478515625e-02
-1.482834666967391968e-02
5.925453454256057739e-02
-5.437035858631134033e-02
5.812742561101913452e-02
-5.614205449819564819e-02
-6.066554039716720581e-02
-5.644568800926208496e-02
-1.671514660120010376e-02
3.275753557682037354e-02
-1.854322850704193115e-03
4.885461181402206421e-02
4.719190299510955811e-02
2.561392635107040405e-02
5.715066194534301758e-02
9.743392467498779297e-03
-1.447956413030624390e-01
9.284838289022445679e-02
-2.751632928848266602e-01
-2.925991415977478027e-01
1.224916577339172363e-01
1.952328234910964966e-01
3.326622545719146729e-01
5.407373234629631042e-02
-1.406264258548617363e-03
3.976017609238624573e-02
-5.731559172272682190e-02
-7.003287319093942642e-03
-3.489644825458526611e-02
-1.559631316922605038e-03
2.276955172419548035e-02
-1.196207329630851746e-01
9.904639422893524170e-02
-1.593079268932342529e-01
-4.356167018413543701e-01
-2.967660874128341675e-02
9.162390232086181641e-02
1.065532560460269451e-03
8.498264476656913757e-03
2.113385051488876343e-01
3.369310498237609863e-02
-4.723315685987472534e-02
2.100592851638793945e-02
1.936561912298202515e-01
-2.238292694091796875e-01
2.724404633045196533e-01
8.961256593465805054e-02
-1.456606388092041016e-01
-6.032546237111091614e-02
-3.687870204448699951e-01
-7.368386536836624146e-02
-6.428858265280723572e-03
-1.928457915782928467e-01
-3.735489547252655029e-01
-4.555604755878448486e-01
-2.264455258846282959e-01
-1.264773309230804443e-01
2.037340402603149414e-02
8.829417079687118530e-02
4.044958949089050293e-02
9.725970029830932617e-02
3.187781572341918945e-01
4.531335458159446716e-02
-1.797391623258590698e-01
-1.293983310461044312e-01
-3.484667241573333740e-01
-3.286393880844116211e-01
1.321313679218292236e-01
-4.143747091293334961e-01
-6.371036171913146973e-02
-2.465613931417465210e-01
-5.351398587226867676e-01
1.127421855926513672e-02
-8.475450798869132996e-03
-5.652262642979621887e-02
-4.118344783782958984e-01
-9.007373824715614319e-03
2.896305322647094727e-01
-3.226397037506103516e-01
2.448669821023941040e-01
-5.868375301361083984e-02
3.091423399746417999e-02
-1.746053695678710938e-01
-1.692473189905285835e-03
5.333572626113891602e-02
-1.951974332332611084e-01
3.343626558780670166e-01
-1.283688396215438843e-01
-7.482641842216253281e-03
2.081244438886642456e-01
3.087204396724700928e-01
-9.154184907674789429e-02
-2.959372401237487793e-01
-2.197389453649520874e-01
9.234496951103210449e-02
1.669504344463348389e-01
-9.459325671195983887e-02
1.203896254301071167e-01
2.859462983906269073e-02
-2.345549166202545166e-01
-1.439438760280609131e-01
-3.882014155387878418e-01
3.695080056786537170e-02
6.299232598394155502e-03
1.413206905126571655e-01
-9.029883891344070435e-02
1.342682987451553345e-01
8.378352224826812744e-02
-1.852090470492839813e-02
2.037740349769592285e-01
3.243997097015380859e-01
2.579142153263092041e-02
-1.852695643901824951e-02
2.894682995975017548e-02
1.029455568641424179e-03
5.037453770637512207e-02
4.367027059197425842e-02
-6.459998339414596558e-02
-1.433439273387193680e-02
5.977564025670289993e-03
1.884296536445617676e-02
3.550187498331069946e-02
-4.971598833799362183e-02
-1.614278182387351990e-02
-4.064419120550155640e-02
-4.617769643664360046e-02
-9.606631472706794739e-03
5.268666148185729980e-02
6.754062138497829437e-03
2.142142802476882935e-01
3.058794438838958740e-01
-1.350042819976806641e-01
2.876196615397930145e-02
2.302726507186889648e-01
-6.918954662978649139e-03
1.313810050487518311e-01
-7.254346460103988647e-02
-1.453095581382513046e-02
-1.318056434392929077e-01
-2.051226049661636353e-02
-1.112223789095878601e-01
-2.116334438323974609e-01
-5.961318686604499817e-02
1.443617641925811768e-01
-6.050214767456054688e-01
-4.870611727237701416e-01
2.867253124713897705e-01
-1.667049080133438110e-01
-3.949459493160247803e-01
-1.279881149530410767e-01
-5.842952728271484375e-01
1.419916599988937378e-01
-8.617583662271499634e-03
-2.128544449806213379e-01
-1.163233444094657898e-02
1.496600508689880371e-01
-5.967056006193161011e-02
1.586767584085464478e-01
1.357013434171676636e-01
-7.119131833314895630e-02
3.442036220803856850e-03
-3.594851866364479065e-02
7.629015296697616577e-02
1.269391924142837524e-01
-1.023873686790466309e-01
-2.105214297771453857e-01
-4.646024852991104126e-02
1.827036291360855103e-01
-5.037265364080667496e-04
-7.326012104749679565e-02
-2.804595530033111572e-01
7.804826647043228149e-02
6.895442306995391846e-02
5.753403156995773315e-02
-3.716977685689926147e-02
-5.598817393183708191e-02
-4.911398049443960190e-03
1.770846545696258545e-01
-2.176464796066284180e-01
1.175017133355140686e-01
-2.977369911968708038e-02
5.249664559960365295e-02
2.682200968265533447e-01
2.721869051456451416e-01
-1.760577857494354248e-01
8.344715833663940430e-02
-3.252281993627548218e-02
7.552303373813629150e-02
2.366279214620590210e-01
1.133480202406644821e-02
1.186810210347175598e-01
2.095837444067001343e-01
-2.612495124340057373e-01
-2.623431384563446045e-01
2.764935195446014404e-01
-1.584666520357131958e-01
-3.415516391396522522e-02
2.294679582118988037e-01
1.735455840826034546e-01
5.156690627336502075e-02
1.740998327732086182e-01
-1.722674258053302765e-02
-3.269671201705932617e-01
-5.307292565703392029e-02
-2.603493817150592804e-02
3.249060511589050293e-01
-3.302366137504577637e-01
-1.640474349260330200e-01
-1.976539641618728638e-01
-1.241063475608825684e-01
-3.415372073650360107e-01
2.172874957323074341e-01
3.485820442438125610e-02
1.027927026152610779e-01
-3.181996643543243408e-01
7.525674253702163696e-02
2.288887649774551392e-02
-2.366194128990173340e-01
-4.383066296577453613e-01
2.142302878201007843e-02
-1.337512284517288208e-01
-1.517283171415328979e-01
-7.124531269073486328e-01
-2.225761413574218750e-01
8.190944790840148926e-02
-4.989945292472839355e-01
2.768671512603759766e-01
2.528662383556365967e-01
-4.919242486357688904e-02
7.918255031108856201e-02
-2.544176876544952393e-01
1.965561807155609131e-01
-3.204021975398063660e-02
-1.637457609176635742e-01
-1.768510639667510986e-01
-2.722614109516143799e-01
1.762668788433074951e-01
1.681074686348438263e-02
4.234483465552330017e-03
-2.392226606607437134e-01
-4.845818877220153809e-02
1.648211479187011719e-01
-2.078547328710556030e-01
-2.014517039060592651e-01
2.149902582168579102e-01
5.629754811525344849e-02
8.482776582241058350e-02
-4.147800058126449585e-02
-2.263300418853759766e-01
-5.541200563311576843e-02
-3.365696668624877930e-01
1.694313250482082367e-02
2.094647586345672607e-01
-3.927940502762794495e-02
2.584100067615509033e-01
1.730717271566390991e-01
3.273329883813858032e-02
-3.065392374992370605e-04
-3.353618085384368896e-03
5.499344319105148315e-02
5.866022408008575439e-02
-5.004855990409851074e-02
-5.797039717435836792e-02
-3.931684792041778564e-02
-6.237363815307617188e-02
-2.716213464736938477e-02
3.218829631805419922e-03
-2.071109414100646973e-02
5.918288975954055786e-02
1.526550948619842529e-02
-4.412152618169784546e-02
4.836018383502960205e-02
-2.244680225849151611e-01
-6.826955080032348633e-02
-3.781661093235015869e-01
-1.702848970890045166e-01
1.402924358844757080e-01
1.301175057888031006e-01
-1.080126538872718811e-01
-6.312458217144012451e-02
1.121612712740898132e-01
-2.191859483718872070e-02
-1.761920303106307983e-01
3.544044494628906250e-02
1.556386053562164307e-01
3.923612087965011597e-02
4.144926965236663818e-01
-6.104797497391700745e-02
2.016763538122177124e-01
-3.418471217155456543e-01
-4.069045931100845337e-02
-9.833392500877380371e-02
-3.361635282635688782e-02
-1.854717731475830078e-02
3.401305973529815674e-01
2.415203750133514404e-01
5.060828477144241333e-02
8.959103375673294067e-02
8.987566083669662476e-02
6.877622008323669434e-02
6.069200113415718079e-03
-8.453564345836639404e-02
1.682755351066589355e-02
-8.455097675323486328e-03
1.604667007923126221e-01
1.128554344177246094e-01
3.896435350179672241e-02
5.487637966871261597e-02
-2.355791032314300537e-01
1.086262613534927368e-01
-4.125607609748840332e-01
8.344417810440063477e-02
7.064203172922134399e-02
-5.301356315612792969e-02
3.349155932664871216e-02
1.533637493848800659e-01
2.605237662792205811e-01
-1.294347550719976425e-02
-9.877859055995941162e-02
-3.336734175682067871e-01
1.925676465034484863e-01
6.671534478664398193e-02
-4.233798012137413025e-02
1.856869906187057495e-01
3.149423375725746155e-02
-5.987029150128364563e-02
-4.091887176036834717e-02
-3.088247589766979218e-02
7.304858416318893433e-02
-2.323008924722671509e-01
1.304896622896194458e-01
-9.523671120405197144e-02
1.942566931247711182e-01
1.952717639505863190e-02
3.149810731410980225e-01
-9.772691130638122559e-02
4.270364940166473389e-01
-2.442082911729812622e-01
-4.317890703678131104e-01
-2.808050513267517090e-01
4.432035610079765320e-02
6.928873062133789062e-02
-1.840888112783432007e-01
9.827447682619094849e-02
-7.966113835573196411e-02
1.623530834913253784e-01
-3.592294752597808838e-01
-3.698366880416870117e-02
-3.317612409591674805e-02
-5.639055967330932617e-01
6.319988518953323364e-02
2.226513028144836426e-01
-1.428647935390472412e-01
8.985424786806106567e-02
7.598142325878143311e-02
-2.543174326419830322e-01
-3.071562647819519043e-01
-1.499238759279251099e-01
4.734233021736145020e-02
-1.824449002742767334e-01
-2.122135311365127563e-01
-7.458660751581192017e-02
3.425837680697441101e-02
7.649644464254379272e-02
-2.777760028839111328e-01
-4.043404757976531982e-02
-1.389060914516448975e-01
-4.520986601710319519e-02
-9.037217497825622559e-02
8.023689687252044678e-02
-1.879311352968215942e-02
4.234129190444946289e-02
-3.802642226219177246e-02
-9.795635938644409180e-03
2.206078916788101196e-02
-1.007638275623321533e-01
2.649185806512832642e-02
-4.404564853757619858e-03
-2.640471421182155609e-02
-1.614161580801010132e-02
-2.475830726325511932e-02
-1.240433380007743835e-02
-1.742216758430004120e-02
-4.496220126748085022e-02
-1.239787638187408447e-01
-1.721085608005523682e-02
-1.521417051553726196e-01
-1.990817040205001831e-01
-7.804691046476364136e-02
8.715666830539703369e-02
1.385925896465778351e-02
-5.104825645685195923e-02
2.336077159270644188e-03
6.785900145769119263e-02
-2.669722735881805420e-01
-1.060236096382141113e-01
1.456370800733566284e-01
5.956524983048439026e-03
4.707341790199279785e-01
3.951507061719894409e-02
1.974702924489974976e-01
1.475343760102987289e-02
7.814063876867294312e-02
-1.612082496285438538e-02
3.054392039775848389e-01
1.375433504581451416e-01
-6.422048807144165039e-02
9.207420796155929565e-02
6.262507289648056030e-02
4.230513870716094971e-01
-1.703378707170486450e-01
1.071275547146797180e-01
3.447140753269195557e-02
3.790140450000762939e-01
2.704473771154880524e-02
-2.487779594957828522e-03
2.070559263229370117e-01
2.101972699165344238e-01
-6.700922548770904541e-02
8.964817970991134644e-02
3.878005221486091614e-02
-5.036670714616775513e-02
1.816591024398803711e-01
5.472799763083457947e-02
6.736730039119720459e-02
3.280708193778991699e-02
1.133185848593711853e-01
-2.785040736198425293e-01
-1.293831020593643188e-01
2.290133833885192871e-01
1.498815715312957764e-01
-1.007245033979415894e-01
-9.355956315994262695e-02
-2.645905613899230957e-01
1.374449813738465309e-03
1.722978055477142334e-01
-7.281381636857986450e-02
1.986746937036514282e-01
2.131171077489852905e-01
-1.571286818943917751e-03
-2.392623871564865112e-01
-1.760528422892093658e-02
1.242669001221656799e-01
-1.472454220056533813e-01
1.547982990741729736e-01
-3.067643940448760986e-01
-5.823146104812622070e-01
3.091606125235557556e-02
-2.119252532720565796e-01
4.439714550971984863e-01
4.867687821388244629e-02
-2.106132209300994873e-01
6.929413974285125732e-02
2.251919209957122803e-01
1.906466186046600342e-01
-2.533279657363891602e-01
1.118064522743225098e-01
1.592584103345870972e-01
1.905628740787506104e-01
-3.141822516918182373e-01
8.230454474687576294e-02
-5.903213620185852051e-01
-1.340243816375732422e-01
-2.185934484004974365e-01
-2.006213515996932983e-01
1.373585164546966553e-01
1.246204003691673279e-01
3.134632483124732971e-02
-7.301887869834899902e-02
-4.193410649895668030e-02
2.797171473503112793e-01
-5.234416574239730835e-02
-4.643361899070441723e-04
-1.219332441687583923e-01
5.941378697752952576e-02
1.478560566902160645e-01
-1.696226000785827637e-01
-5.277824401855468750e-01
4.063708335161209106e-02
1.375711560249328613e-01
2.608037926256656647e-02
-3.266713619232177734e-01
-6.576482057571411133e-01
-1.086122449487447739e-02
-2.478369139134883881e-02
1.401055604219436646e-01
-1.118061318993568420e-01
-4.104793071746826172e-02
-8.842662721872329712e-02
1.105406060814857483e-01
-6.042343378067016602e-02
1.186338067054748535e-01
-7.955069094896316528e-02
3.663682043552398682e-01
2.599228322505950928e-01
9.908957034349441528e-02
-4.607423394918441772e-02
-5.546098947525024414e-02
-1.274615228176116943e-01
2.755335271358489990e-01
2.494341731071472168e-01
-4.553791284561157227e-01
1.294292807579040527e-01
-5.364114642143249512e-01
2.280972152948379517e-01
-7.254081219434738159e-02
-1.395353078842163086e-01
-3.329655230045318604e-01
1.423700898885726929e-01
-1.704264879226684570e-01
-4.303254187107086182e-01
-1.681476831436157227e-01
-3.099320083856582642e-02
1.396095752716064453e-02
4.957731813192367554e-02
-6.850911676883697510e-02
-4.074119031429290771e-03
5.784559249877929688e-02
2.305351942777633667e-02
6.158410012722015381e-02
3.605005145072937012e-02
-2.959374338388442993e-02
3.976967930793762207e-02
4.190454725176095963e-03
-5.021324008703231812e-02
-4.329416900873184204e-02
2.431397885084152222e-02
2.665036171674728394e-02
-3.074004352092742920e-01
-9.191628545522689819e-02
-2.268012017011642456e-01
4.784556105732917786e-02
-5.647124722599983215e-02
5.439653620123863220e-02
1.822466552257537842e-01
6.962127983570098877e-02
-1.833730638027191162e-01
1.935954838991165161e-01
-1.876691132783889771e-01
3.794616460800170898e-01
-4.448876380920410156e-01
-3.182044625282287598e-01
-2.155846953392028809e-01
1.935875415802001953e-01
9.433722496032714844e-02
3.185461461544036865e-02
2.099933624267578125e-01
4.696087837219238281e-01
-3.044405281543731689e-01
-4.326925426721572876e-02
-2.540959119796752930e-01
-4.232452437281608582e-02
1.770069748163223267e-01
4.182037431746721268e-03
1.345648020505905151e-01
3.311793506145477295e-01
-1.749408990144729614e-01
-3.970314282923936844e-03
-1.311150342226028442e-01
-8.511199802160263062e-02
5.721438676118850708e-02
3.246523141860961914e-01
-9.517032653093338013e-02
3.230442851781845093e-02
-1.674790680408477783e-02
8.616678416728973389e-02
3.859217092394828796e-02
-3.906067907810211182e-01
7.640699297189712524e-02
-3.167131170630455017e-02
3.448386862874031067e-02
-4.693419858813285828e-02
1.598520874977111816e-01
2.498300373554229736e-01
1.853753775358200073e-01
1.378587037324905396e-01
4.450178444385528564e-01
-1.004393026232719421e-01
-1.306023299694061279e-01
8.558766543865203857e-02
1.629353463649749756e-01
1.355146467685699463e-01
-1.222050264477729797e-01
-2.811267226934432983e-02
6.512046605348587036e-02
-1.830916255712509155e-01
-1.137330904603004456e-01
3.776183724403381348e-02
-1.255849283188581467e-02
1.395685374736785889e-01
-6.426268815994262695e-02
3.507667221128940582e-03
1.052635014057159424e-01
-4.635966569185256958e-02
4.297079518437385559e-02
2.543361783027648926e-01
1.397534459829330444e-01
-3.672738373279571533e-02
7.762396335601806641e-02
-1.083780527114868164e-01
1.083936542272567749e-01
-7.734548300504684448e-02
-2.461642026901245117e-02
1.540680080652236938e-01
1.792635172605514526e-01
2.179111838340759277e-01
1.927962005138397217e-01
-2.914699316024780273e-01
-7.722786068916320801e-02
-3.301734328269958496e-01
-1.778237074613571167e-01
-2.159183621406555176e-01
-2.304893881082534790e-01
3.131155297160148621e-02
1.042011082172393799e-01
-2.255376279354095459e-01
3.892570734024047852e-01
2.250681668519973755e-01
-7.171273231506347656e-02
-1.710907518863677979e-01
2.432443350553512573e-01
1.685254573822021484e-01
5.379452183842658997e-02
1.580553352832794189e-01
5.337501317262649536e-02
-7.381642609834671021e-02
4.001026228070259094e-02
-4.995659738779067993e-02
-2.525241114199161530e-02
2.622556872665882111e-02
4.949524626135826111e-02
1.060447394847869873e-01
-4.424452409148216248e-02
1.653917878866195679e-02
-9.215299040079116821e-02
-8.663564920425415039e-03
1.483854651451110840e-02
-1.254165917634963989e-02
4.618525505065917969e-02
2.765078842639923096e-02
-6.478227674961090088e-02
2.261431142687797546e-02
-8.569446206092834473e-02
-3.317353427410125732e-01
-2.055966407060623169e-01
7.034578826278448105e-03
1.530186086893081665e-01
5.574035458266735077e-03
-2.514567077159881592e-01
1.136974468827247620e-01
1.370653361082077026e-01
1.818349808454513550e-01
9.832540154457092285e-02
-2.259621769189834595e-01
-3.435772657394409180e-02
3.891390562057495117e-01
4.288394749164581299e-01
1.378607451915740967e-01
1.796031743288040161e-02
-2.801882624626159668e-01
3.193521201610565186e-01
-3.611914217472076416e-01
-6.924307346343994141e-01
-2.609944641590118408e-01
4.041942954063415527e-02
2.042553871870040894e-01
1.945735663175582886e-01
-1.547084152698516846e-01
1.119439154863357544e-01
-6.608746945858001709e-02
1.767608076333999634e-01
1.115085780620574951e-01
-1.262242794036865234e-01
-1.680914079770445824e-03
-1.074597910046577454e-01
-2.426685206592082977e-02
-2.788633704185485840e-01
2.024803906679153442e-01
1.188691928982734680e-01
7.849904894828796387e-02
-1.918714642524719238e-01
-2.267586253583431244e-02
3.340719938278198242e-01
9.748248010873794556e-02
-8.612779527902603149e-02
-1.279300004243850708e-01
1.749722063541412354e-01
-8.160282671451568604e-02
-3.477751612663269043e-01
2.159361727535724640e-02
2.692842781543731689e-01
4.113461077213287354e-01
-3.169637620449066162e-01
4.359231293201446533e-01
5.600385367870330811e-02
1.532533317804336548e-01
-2.129519544541835785e-02
2.032207250595092773e-01
-2.481427974998950958e-03
-1.341004371643066406e-01
-2.925163507461547852e-01
2.650712728500366211e-01
-2.607848644256591797e-01
-7.488459348678588867e-01
-3.416570723056793213e-01
-1.679334491491317749e-01
1.498761177062988281e-01
-1.166977807879447937e-01
-1.153648197650909424e-01
4.243247210979461670e-03
9.237329475581645966e-03
1.387709230184555054e-01
1.618999801576137543e-02
1.311634331941604614e-01
2.572317123413085938e-01
3.830677270889282227e-01
-8.117803186178207397e-02
3.070626854896545410e-01
-3.387946784496307373e-01
1.453390270471572876e-01
2.214777171611785889e-01
-2.473057247698307037e-02
-1.316311955451965332e-01
4.595403373241424561e-02
-1.317093521356582642e-01
-3.264578431844711304e-02
-1.859988123178482056e-01
-7.779664546251296997e-02
-2.284249663352966309e-01
1.345549523830413818e-01
-2.057104706764221191e-01
-4.491996765136718750e-01
-1.169280558824539185e-01
-4.070929437875747681e-02
2.810930907726287842e-01
-3.390630781650543213e-01
-7.432799041271209717e-02
-7.348026335239410400e-02
2.259092330932617188e-01
8.099456317722797394e-03
-1.426533563062548637e-03
-2.966982312500476837e-02
-2.351203560829162598e-01
1.748270243406295776e-01
1.012898236513137817e-01
-3.100583888590335846e-02
2.177073061466217041e-01
-4.059833660721778870e-02
-2.186851948499679565e-02
-1.035034656524658203e-01
-6.550604011863470078e-03
4.676933214068412781e-02
-1.461253017187118530e-01
-1.117662265896797180e-01
2.933482229709625244e-01
-1.590921133756637573e-01
-2.322607934474945068e-01
-3.257372379302978516e-01
2.597721479833126068e-02
1.000105291604995728e-01
-1.352998763322830200e-01
2.839720547199249268e-01
-7.931649684906005859e-02
-3.121988475322723389e-01
2.183903455734252930e-01
3.829197883605957031e-01
9.259976446628570557e-02
-4.995467960834503174e-01
-2.603111416101455688e-02
-5.109670013189315796e-02
-9.702667593955993652e-03
5.350361019372940063e-02
-1.358017325401306152e-02
6.021068990230560303e-02
2.285260707139968872e-02
-5.002312362194061279e-02
4.727733135223388672e-02
-6.002774834632873535e-02
5.178285390138626099e-02
7.737390697002410889e-03
1.618703454732894897e-02
-5.182871222496032715e-02
4.871089756488800049e-02
-2.056389302015304565e-02
-5.171933770179748535e-02
-5.351266860961914062e-01
-4.259325861930847168e-01
5.717791989445686340e-02
2.974495589733123779e-01
-3.517113924026489258e-01
2.766948342323303223e-01
3.121372759342193604e-01
4.973498359322547913e-02
-2.090315520763397217e-01
1.738671213388442993e-01
2.138192057609558105e-01
3.843479230999946594e-02
-8.066392689943313599e-02
-2.948035858571529388e-02
-8.243893831968307495e-02
-1.127735674381256104e-01
-2.198239117860794067e-01
-3.391852974891662598e-02
-2.862150669097900391e-01
5.850113928318023682e-03
1.685157418251037598e-01
1.811182796955108643e-01
-2.159897238016128540e-01
-7.840637117624282837e-03
-1.389834433794021606e-01
-2.837723493576049805e-02
-3.059828579425811768e-01
2.921081781387329102e-01
3.769133239984512329e-02
3.294443711638450623e-02
2.556922733783721924e-01
-3.330169916152954102e-01
4.394125044345855713e-01
-4.905783832073211670e-01
-8.814642578363418579e-02
8.506006561219692230e-03
-1.858099848031997681e-01
1.032880879938602448e-02
1.017269417643547058e-01
2.444309592247009277e-01
1.799542158842086792e-01
2.192082703113555908e-01
1.556165367364883423e-01
-1.371986567974090576e-01
5.760649442672729492e-01
1.545445919036865234e-01
9.234580397605895996e-02
3.184133470058441162e-01
9.101437777280807495e-02
5.122699588537216187e-02
1.866004317998886108e-01
-8.357305824756622314e-02
-9.546694927848875523e-04
-1.809472292661666870e-01
-2.522662878036499023e-01
9.443650022149085999e-03
-7.950525730848312378e-02
6.772523373365402222e-02
5.836319923400878906e-02
1.747837960720062256e-01
-2.041720002889633179e-01
1.051550209522247314e-01
8.840293437242507935e-02
-3.158940374851226807e-02
-1.211058795452117920e-01
-2.171943336725234985e-02
-2.617540955543518066e-01
3.730948269367218018e-01
-2.275552749633789062e-01
-1.809560954570770264e-01
-2.256021350622177124e-01
2.162780147045850754e-03
1.843178644776344299e-02
-7.334572076797485352e-02
