-3.803363069891929626e-02
3.063353244215250015e-03
1.210802607238292694e-02
1.042363941669464111e-01
1.475590020418167114e-01
-1.939088702201843262e-01
-2.173877060413360596e-01
2.333053499460220337e-01
-7.769761234521865845e-02
-4.524803534150123596e-02
2.515499591827392578e-01
-2.414861768484115601e-01
-1.975111104547977448e-02
4.595509171485900879e-01
2.334522157907485962e-01
-9.977170825004577637e-02
3.667519092559814453e-01
1.972954273223876953e-01
1.569674015045166016e-01
5.384144186973571777e-02
1.420675218105316162e-01
-2.932738885283470154e-02
3.899881243705749512e-02
-2.886802852153778076e-01
4.927816335111856461e-03
-1.226000711321830750e-01
-4.952414892613887787e-03
4.352901577949523926e-01
2.469495385885238647e-01
-5.351420491933822632e-02
5.332425981760025024e-02
1.156391724944114685e-01
-1.226544659584760666e-02
-7.753737270832061768e-02
3.987579345703125000e-01
-3.514942526817321777e-02
-5.773929879069328308e-02
-1.498164832592010498e-01
2.964755594730377197e-01
-5.248691514134407043e-02
-2.109051495790481567e-01
3.448708057403564453e-01
-6.923238933086395264e-02
-3.149518668651580811e-01
3.992111384868621826e-01
-9.642623364925384521e-03
-2.184397429227828979e-01
2.997045814990997314e-01
-8.591205626726150513e-02
1.605675965547561646e-01
1.563094258308410645e-01
7.737588137388229370e-02
-6.803569197654724121e-02
-2.126727439463138580e-02
3.209861740469932556e-02
9.077290445566177368e-02
8.104646950960159302e-02
-6.270962208509445190e-02
1.192552074790000916e-01
-7.340150326490402222e-02
1.697402745485305786e-01
-7.885310053825378418e-02
-4.781297594308853149e-02
7.107811421155929565e-02
3.469767272472381592e-01
-3.757539018988609314e-02
1.787146180868148804e-02
-1.740255020558834076e-02
2.788687497377395630e-02
9.662026911973953247e-02
1.659912765026092529e-01
3.855311274528503418e-01
-7.287743687629699707e-02
2.193788737058639526e-01
4.255019873380661011e-02
-5.639317259192466736e-02
-4.588728770613670349e-03
-4.302795976400375366e-02
2.031333744525909424e-01
-4.756211116909980774e-02
1.611481606960296631e-01
1.562273595482110977e-03
2.865302748978137970e-02
2.548207342624664307e-01
-1.014133822172880173e-02
-1.912944465875625610e-01
-2.039873786270618439e-02
3.516975045204162598e-01
4.385634958744049072e-01
8.712892234325408936e-02
3.057989664375782013e-02
2.623465359210968018e-01
-7.095690071582794189e-02
-6.681540608406066895e-02
-3.108743429183959961e-01
2.972795069217681885e-01
-6.933881342411041260e-02
2.381760030984878540e-01
-9.121742099523544312e-02
-7.874558120965957642e-02
6.243358179926872253e-02
-8.437679708003997803e-02
1.817461401224136353e-01
-7.587465923279523849e-03
6.850691139698028564e-02
-1.111988127231597900e-01
-3.260004892945289612e-02
3.634903207421302795e-02
3.641299903392791748e-02
-7.018908113241195679e-02
3.200323581695556641e-01
4.192115962505340576e-01
-4.017271846532821655e-02
-5.334471166133880615e-02
1.060662642121315002e-01
7.849074900150299072e-02
-9.799601137638092041e-02
-1.043266654014587402e-01
1.983842998743057251e-01
3.786335289478302002e-01
