-3.018796257674694061e-02
-1.629860140383243561e-02
-3.328854218125343323e-02
-8.781998418271541595e-03
-3.747027134522795677e-03
5.124862790107727051e-01
-5.666876211762428284e-02
-1.001477390527725220e-01
-2.306546270847320557e-01
-6.093599647283554077e-02
-1.906680911779403687e-01
-1.385638713836669922e-01
-4.037178307771682739e-02
1.696168035268783569e-01
2.779334187507629395e-01
1.701117455959320068e-01
2.237659394741058350e-01
-5.229420065879821777e-01
-2.161334455013275146e-01
1.563667804002761841e-01
1.902178823947906494e-01
5.178803578019142151e-02
8.943161368370056152e-02
-4.221711158752441406e-01
-3.109971806406974792e-02
-2.133739925920963287e-02
7.425504922866821289e-02
3.586479127407073975e-01
3.070489764213562012e-01
8.007847517728805542e-02
-2.493551820516586304e-01
-1.881331764161586761e-02
-9.706498682498931885e-02
3.606865555047988892e-02
-6.890831887722015381e-02
5.116336420178413391e-02
-1.831652224063873291e-02
-3.157250583171844482e-01
1.935484409332275391e-01
-3.387024700641632080e-01
1.522820908576250076e-03
-1.179681718349456787e-01
8.100116252899169922e-02
-2.411843389272689819e-01
8.712653815746307373e-02
-2.584674060344696045e-01
6.058795452117919922e-01
-1.890181005001068115e-02
2.136924490332603455e-02
1.974914595484733582e-02
1.902439594268798828e-01
5.234597623348236084e-02
2.571066915988922119e-01
2.264653518795967102e-02
2.948185205459594727e-01
-1.126699224114418030e-01
-1.279519945383071899e-01
4.635368287563323975e-02
-6.145730018615722656e-01
-2.839202880859375000e-01
1.150965020060539246e-01
-5.070374533534049988e-02
2.937578596174716949e-02
1.898872405290603638e-01
-2.209188789129257202e-01
3.307634964585304260e-03
-9.483245667070150375e-04
6.403399258852005005e-02
1.069039851427078247e-01
-1.269958727061748505e-02
4.729086756706237793e-01
-1.241578683257102966e-01
-7.884208112955093384e-03
2.739408314228057861e-01
-4.231471940875053406e-02
-1.005674079060554504e-01
-3.076528012752532959e-01
-1.487858146429061890e-01
2.458177655935287476e-01
1.579870879650115967e-01
-2.648358047008514404e-01
-2.548370957374572754e-01
1.546892523765563965e-01
-5.590549707412719727e-01
3.831788524985313416e-02
-7.190463691949844360e-02
2.602894604206085205e-01
-1.970442831516265869e-01
3.637748956680297852e-01
1.794950366020202637e-01
-1.137034595012664795e-02
1.648958474397659302e-01
-3.919579461216926575e-02
-2.286446988582611084e-01
1.677190512418746948e-02
2.226643413305282593e-01
-5.098250135779380798e-02
-6.684862077236175537e-03
1.847597211599349976e-02
-1.060417592525482178e-01
1.849350519478321075e-02
1.352459366898983717e-04
-2.146844752132892609e-02
-2.718970738351345062e-02
-2.170289494097232819e-02
1.881581731140613556e-02
5.363133549690246582e-01
3.214205503463745117e-01
-7.079373300075531006e-02
-2.035613954067230225e-01
8.317704498767852783e-02
4.206553101539611816e-01
-1.485893130302429199e-02
5.792045593261718750e-02
-2.277964353561401367e-01
-1.819319427013397217e-01
-5.423279851675033569e-02
-1.147628054022789001e-01
-2.114614844322204590e-01
4.840985313057899475e-02
-1.562875509262084961e-02
-2.927125990390777588e-02
8.835937827825546265e-03
-8.890262246131896973e-02
-7.735654711723327637e-02
-3.073711879551410675e-03
-6.576185673475265503e-02
-1.418879330158233643e-01
2.246569283306598663e-02
8.139513432979583740e-02
-7.360240072011947632e-02
-2.379510365426540375e-02
-5.590831488370895386e-02
-1.011037826538085938e-01
-3.229568526148796082e-02
-1.567354053258895874e-01
4.512101411819458008e-02
-5.797443911433219910e-02
-5.777196958661079407e-02
-1.196379512548446655e-01
3.999973833560943604e-02
-7.631508260965347290e-02
8.946071565151214600e-02
-1.611730456352233887e-02
-1.152930408716201782e-01
1.920289546251296997e-02
9.015306830406188965e-02
-1.046884283423423767e-01
-2.951431460678577423e-02
1.492359489202499390e-02
-5.846832878887653351e-03
-2.532533928751945496e-02
-4.316960275173187256e-02
2.669413387775421143e-02
1.497570192441344261e-03
-5.767643079161643982e-02
4.010863602161407471e-03
-1.088718175888061523e-01
-1.423166990280151367e-01
9.588251821696758270e-03
-2.796541899442672729e-02
-8.984696120023727417e-02
-6.313299387693405151e-02
8.716002106666564941e-02
-3.528612107038497925e-02
-6.849221885204315186e-03
3.689856454730033875e-02
3.758297115564346313e-02
-6.772153079509735107e-03
-6.596805900335311890e-02
5.378905311226844788e-02
-1.050484851002693176e-01
-2.529110573232173920e-02
-5.118166282773017883e-02
-1.062540113925933838e-01
-9.889146685600280762e-02
-4.396483302116394043e-02
-5.267712473869323730e-02
-1.306089013814926147e-01
-5.211592093110084534e-02
-1.479180604219436646e-01
4.106523096561431885e-02
-6.575846672058105469e-02
4.633704945445060730e-02
-2.840708009898662567e-02
-1.669493876397609711e-02
-6.114773452281951904e-02
6.794857978820800781e-02
1.636528782546520233e-02
-6.218865886330604553e-02
6.851676851511001587e-02
-6.993887573480606079e-02
-7.027271389961242676e-02
-3.745897486805915833e-02
3.131288290023803711e-02
-9.382807463407516479e-02
2.954214066267013550e-02
-1.549839228391647339e-01
-1.489199995994567871e-01
-4.342046752572059631e-02
-1.324215531349182129e-01
-7.442093640565872192e-02
2.568819373846054077e-02
-1.190035045146942139e-02
7.990732789039611816e-03
1.846989989280700684e-02
-1.753503233194351196e-01
-6.946426630020141602e-02
-6.321742385625839233e-02
-1.623289287090301514e-02
-3.000104427337646484e-02
-1.043965145945549011e-01
-3.762934356927871704e-02
1.603587530553340912e-02
-8.380564302206039429e-02
-1.036957353353500366e-01
-6.503824889659881592e-02
8.079550229012966156e-03
7.330331206321716309e-02
5.428141355514526367e-02
5.240099877119064331e-02
-3.782205283641815186e-03
-8.945353329181671143e-02
-7.464395463466644287e-02
-8.070582896471023560e-02
-7.449308037757873535e-02
-7.632879912853240967e-02
-8.638495951890945435e-02
2.060297876596450806e-02
-6.649420410394668579e-02
2.503419108688831329e-02
-2.464214107021689415e-03
6.096255779266357422e-02
-4.771649837493896484e-04
-1.602722108364105225e-01
-9.892380237579345703e-02
-2.824155986309051514e-02
-7.584253698587417603e-02
-7.501667365431785583e-03
-9.834033250808715820e-02
7.930386811494827271e-02
2.411174029111862183e-02
-1.654313206672668457e-01
4.412289708852767944e-02
-7.880885154008865356e-02
7.632594555616378784e-02
-7.811190187931060791e-02
1.302977055311203003e-01
-5.314816534519195557e-02
-3.055252507328987122e-02
1.910022348165512085e-01
1.157834604382514954e-01
4.037546217441558838e-01
1.210721284151077271e-01
2.224872447550296783e-02
5.417917296290397644e-02
2.443144172430038452e-01
-1.563238948583602905e-01
1.276500616222620010e-02
2.965112626552581787e-01
-9.201892465353012085e-02
1.462773084640502930e-01
-8.650051802396774292e-02
4.150716215372085571e-02
5.072844028472900391e-02
-1.049180552363395691e-01
6.821495480835437775e-03
1.634218990802764893e-01
8.776111900806427002e-02
3.751546144485473633e-03
-4.303438216447830200e-02
1.250307104783132672e-04
-2.912187576293945312e-02
7.050925493240356445e-02
2.766399383544921875e-01
6.224452331662178040e-02
-1.069427505135536194e-01
-8.023452758789062500e-02
-3.675185143947601318e-01
-2.821514010429382324e-01
7.426591217517852783e-02
-2.620310485363006592e-01
7.605724781751632690e-02
-4.377085566520690918e-01
2.471426278352737427e-01
-3.962720558047294617e-02
5.509048104286193848e-01
-1.674371212720870972e-01
-3.553261980414390564e-02
-5.208613276481628418e-01
2.674779295921325684e-01
-4.990532398223876953e-01
8.221115171909332275e-02
4.984105005860328674e-02
4.405442476272583008e-01
-2.733769118785858154e-01
-3.852041959762573242e-01
-3.522627055644989014e-02
1.841719299554824829e-01
2.269696816802024841e-02
4.300427809357643127e-02
1.913636177778244019e-02
1.520651429891586304e-01
9.857933223247528076e-02
1.113539934158325195e-01
6.926409155130386353e-02
6.054586544632911682e-02
-1.806448027491569519e-02
3.618855476379394531e-01
5.819907411932945251e-02
2.108576446771621704e-01
-4.516663029789924622e-02
7.001625746488571167e-02
-2.994190156459808350e-01
2.318748272955417633e-02
-1.728193275630474091e-02
-3.461980447173118591e-02
-7.271134108304977417e-02
1.254384815692901611e-01
-3.579546511173248291e-01
3.078201115131378174e-01
3.267331123352050781e-01
-2.232020944356918335e-01
-4.868482705205678940e-03
4.017855599522590637e-02
-3.488064408302307129e-01
2.180035710334777832e-01
1.061832308769226074e-01
1.882585883140563965e-01
-2.272011637687683105e-01
5.956072360277175903e-02
-3.981703519821166992e-02
-3.847443149425089359e-04
-1.229274347424507141e-01
-6.819218397140502930e-02
4.944301545619964600e-01
8.032673969864845276e-03
-1.881119757890701294e-01
7.312358915805816650e-02
1.765450276434421539e-02
2.586720287799835205e-01
-6.279589235782623291e-02
2.400530576705932617e-01
3.221851959824562073e-02
-1.484875977039337158e-01
1.940944343805313110e-01
5.437095183879137039e-03
-1.464197188615798950e-01
9.749010950326919556e-02
-2.064983546733856201e-01
1.740427613258361816e-01
3.710541129112243652e-02
6.374566256999969482e-02
3.532308386638760567e-03
5.136350542306900024e-02
-2.191427350044250488e-01
2.201365120708942413e-02
-4.199265688657760620e-02
2.536454498767852783e-01
-7.905441336333751678e-03
8.155547082424163818e-02
-9.887798875570297241e-02
-4.612748697400093079e-02
-6.160098686814308167e-02
4.132857546210289001e-02
3.685484528541564941e-01
4.329493641853332520e-02
1.053814738988876343e-01
-2.025938332080841064e-01
9.329752624034881592e-02
2.019413113594055176e-01
5.626280978322029114e-02
-2.127557396888732910e-01
-1.366136521100997925e-01
-1.136548593640327454e-01
2.348324209451675415e-01
1.562458649277687073e-02
-1.761950254440307617e-01
-1.469655781984329224e-01
6.715416908264160156e-02
2.718873135745525360e-02
-9.696006774902343750e-02
9.921241551637649536e-02
2.945047318935394287e-01
1.219025552272796631e-01
-7.877521216869354248e-02
4.858647659420967102e-02
-2.493189424276351929e-01
-3.770028799772262573e-02
7.961657643318176270e-02
-3.824182972311973572e-02
8.219185471534729004e-02
-6.020389962941408157e-03
-9.437841176986694336e-02
-6.690030544996261597e-02
6.112383306026458740e-02
-4.167425911873579025e-03
2.341528832912445068e-01
4.484163597226142883e-02
-1.348667889833450317e-01
-1.180535480380058289e-01
2.125824987888336182e-01
4.853557329624891281e-03
-2.013671211898326874e-02
-1.339737921953201294e-01
2.429257929325103760e-01
2.473444193601608276e-01
3.757985532283782959e-01
-5.962570011615753174e-02
2.224666625261306763e-01
3.204593360424041748e-01
1.681932359933853149e-01
8.617495000362396240e-02
3.896081820130348206e-02
1.050751283764839172e-01
2.238623946905136108e-01
-1.704648435115814209e-01
-1.369940955191850662e-02
-3.713154792785644531e-01
2.578424811363220215e-01
-6.878444552421569824e-02
1.133315637707710266e-01
-3.110304176807403564e-01
-5.050640553236007690e-02
-2.861968874931335449e-01
-7.082352042198181152e-02
-6.476469337940216064e-02
-1.996509358286857605e-02
-2.492373995482921600e-02
-1.871781796216964722e-01
4.269056394696235657e-02
-3.047165572643280029e-01
5.195279046893119812e-02
-2.210768908262252808e-01
-3.129736334085464478e-02
-1.735081337392330170e-02
1.602724194526672363e-01
6.044212356209754944e-02
-1.271234601736068726e-01
-3.998269438743591309e-01
1.821119338274002075e-01
1.406628787517547607e-01
-3.085435330867767334e-01
4.944918211549520493e-03
-3.440896794199943542e-02
-6.535875797271728516e-02
1.966115832328796387e-02
3.046086523681879044e-03
7.813901454210281372e-02
2.151728421449661255e-01
1.029631197452545166e-01
-9.987784177064895630e-02
-8.397378027439117432e-02
-3.740404248237609863e-01
9.889324754476547241e-02
-4.308829605579376221e-01
1.165234744548797607e-01
5.635219812393188477e-02
-3.041765093803405762e-02
-4.492053017020225525e-02
-3.866470456123352051e-01
3.896107524633407593e-02
1.378496084362268448e-02
-8.093716949224472046e-02
-4.721016883850097656e-01
-2.953452765941619873e-01
3.629626333713531494e-01
-2.448180019855499268e-01
-5.580033361911773682e-02
1.973887085914611816e-01
-2.361290156841278076e-02
3.216547071933746338e-01
2.730030007660388947e-02
4.773635044693946838e-02
-1.594263017177581787e-01
-4.438039064407348633e-01
8.010744303464889526e-02
6.250908970832824707e-02
7.314086705446243286e-02
-3.647252917289733887e-01
1.815684884786605835e-02
7.828330248594284058e-02
-8.276946609839797020e-04
-9.312739968299865723e-02
-1.087119579315185547e-01
-6.316983699798583984e-02
-5.466264206916093826e-03
-1.391431391239166260e-01
-6.881737709045410156e-02
-8.851988613605499268e-02
-9.330832958221435547e-02
5.344083532691001892e-03
-8.040235936641693115e-02
-1.020822525024414062e-01
-2.207531966269016266e-02
2.640970610082149506e-02
3.684153407812118530e-02
-4.264339059591293335e-02
1.371881272643804550e-02
-3.270480409264564514e-02
-1.086771413683891296e-01
-9.343717992305755615e-02
5.573366582393646240e-02
-1.093442589044570923e-01
-7.372209429740905762e-02
-3.223778679966926575e-02
4.368340596556663513e-02
2.367751859128475189e-02
-1.060040891170501709e-01
-3.109391778707504272e-02
1.620811410248279572e-02
1.107678562402725220e-02
-6.777210161089897156e-03
-3.543670475482940674e-02
5.019087344408035278e-02
5.714297667145729065e-02
4.406662285327911377e-02
-2.772989915683865547e-03
-5.540068075060844421e-02
-7.382499426603317261e-02
-6.092737987637519836e-02
-3.921245690435171127e-03
-9.110433608293533325e-02
7.499321550130844116e-02
-8.908621221780776978e-02
-1.834560930728912354e-02
-2.384311892092227936e-02
1.774980314075946808e-02
2.455960027873516083e-02
-1.110431086272001266e-02
-1.120872423052787781e-01
1.377191022038459778e-02
3.247581422328948975e-02
-1.262142695486545563e-02
2.205972000956535339e-02
-9.999572485685348511e-02
-1.223690137267112732e-01
2.280139923095703125e-02
-5.362125486135482788e-02
-3.754036873579025269e-02
-1.072736158967018127e-01
3.772766143083572388e-02
-6.437134929001331329e-03
-6.864377111196517944e-02
-1.299746483564376831e-01
7.628092914819717407e-02
-2.903160452842712402e-02
-2.468166127800941467e-02
-8.931641466915607452e-03
3.841141611337661743e-02
-1.211713701486587524e-01
-1.078391261398792267e-02
3.667552396655082703e-02
-7.954970747232437134e-02
-3.174208104610443115e-03
2.094390802085399628e-03
-5.852080881595611572e-03
-1.807554811239242554e-02
-1.227456778287887573e-01
-9.078738838434219360e-02
-1.001455262303352356e-02
5.300771817564964294e-02
-5.484429001808166504e-02
-7.624020427465438843e-02
-2.731855213642120361e-02
-2.164608426392078400e-02
-1.088819280266761780e-01
-1.119918078184127808e-01
-1.001182571053504944e-01
-2.537533827126026154e-02
4.986163973808288574e-02
-1.527528557926416397e-02
-7.276669144630432129e-03
-7.634580135345458984e-02
-1.101865097880363464e-01
2.934010513126850128e-02
2.602363377809524536e-02
-8.127368986606597900e-02
4.171310365200042725e-02
-7.197372615337371826e-02
-6.374701112508773804e-02
9.595209360122680664e-02
-6.155523285269737244e-02
6.508503109216690063e-02
-8.631809800863265991e-02
-2.636856958270072937e-02
-6.435473263263702393e-02
6.109145656228065491e-02
2.072991803288459778e-02
8.458518236875534058e-02
4.474442824721336365e-02
-2.442288026213645935e-02
6.342314183712005615e-03
-6.192489713430404663e-02
5.129393935203552246e-02
-1.194014325737953186e-01
8.276037871837615967e-02
-4.528287053108215332e-02
-8.680841885507106781e-03
-4.382997751235961914e-02
5.208335071802139282e-02
-6.330774165689945221e-03
-2.242011278867721558e-01
1.562241166830062866e-01
1.262973819393664598e-04
-1.311364024877548218e-01
-1.325151771306991577e-01
-9.421898424625396729e-02
-9.141413867473602295e-02
5.679942667484283447e-03
7.684712857007980347e-02
3.228048607707023621e-02
-3.492567837238311768e-01
2.273717522621154785e-01
2.420970052480697632e-01
-9.291859343647956848e-03
1.568920910358428955e-01
-1.273657828569412231e-01
-1.613165438175201416e-01
1.255547851324081421e-01
-1.314556896686553955e-01
3.196557238698005676e-02
-1.468370202928781509e-02
3.686373233795166016e-01
-7.234714925289154053e-02
6.230868771672248840e-02
-7.314095646142959595e-02
-1.887958347797393799e-01
-2.788329422473907471e-01
-6.343537569046020508e-02
-3.975602611899375916e-02
-2.100703716278076172e-01
-7.830470055341720581e-02
1.281529068946838379e-01
3.936900943517684937e-02
-4.314735531806945801e-02
9.254305809736251831e-02
1.332109421491622925e-01
6.966020911931991577e-03
3.221095800399780273e-01
-2.564341425895690918e-01
1.440791785717010498e-01
3.127668052911758423e-02
7.124327868223190308e-02
-4.058882966637611389e-02
-2.183927148580551147e-01
4.975178465247154236e-02
-2.013794183731079102e-01
-8.396022766828536987e-02
-8.613673597574234009e-02
-9.546034783124923706e-02
4.743334650993347168e-02
-3.842581510543823242e-01
4.989495873451232910e-02
-7.407391071319580078e-02
-9.534975141286849976e-02
4.127259254455566406e-01
-7.560072839260101318e-02
-5.358983762562274933e-03
-1.766590774059295654e-01
-1.838703453540802002e-01
-1.304698456078767776e-02
-1.326852105557918549e-02
1.210268214344978333e-01
3.719072788953781128e-02
5.775832757353782654e-02
-4.243095964193344116e-02
-7.996343821287155151e-02
-2.847543656826019287e-01
4.443664103746414185e-02
4.214646294713020325e-02
5.640913546085357666e-02
8.795978873968124390e-02
2.978569269180297852e-01
1.767412759363651276e-02
3.436238970607519150e-03
4.520072638988494873e-01
-3.658594563603401184e-02
5.842800065875053406e-02
-1.907817274332046509e-01
-1.072282716631889343e-01
-1.496465802192687988e-01
-5.666358470916748047e-01
1.831654310226440430e-01
-4.608987271785736084e-02
2.358431816101074219e-01
-8.431079983711242676e-02
-6.424317359924316406e-01
9.698140621185302734e-02
3.419262170791625977e-01
-7.691319286823272705e-02
1.625628769397735596e-02
-9.049276821315288544e-03
-2.569717466831207275e-01
-1.107762530446052551e-01
4.417535290122032166e-02
1.018216162919998169e-01
-5.211833864450454712e-02
-5.117831006646156311e-02
-4.764101654291152954e-02
-2.214019447565078735e-01
1.358729694038629532e-02
-1.920505911111831665e-01
-5.573889613151550293e-02
-2.122965604066848755e-01
-3.733768314123153687e-02
-1.302780397236347198e-02
4.655712842941284180e-01
2.351127564907073975e-02
-5.835249274969100952e-02
-1.237327232956886292e-01
1.317365616559982300e-01
-9.468294680118560791e-03
-5.242192372679710388e-02
-7.125138640403747559e-01
-4.685735702514648438e-02
-5.003134906291961670e-02
4.680055379867553711e-02
1.650601327419281006e-01
-1.301406025886535645e-01
7.281057536602020264e-02
3.709681332111358643e-02
-4.280826076865196228e-02
-2.870589792728424072e-01
3.144299685955047607e-01
-3.683310449123382568e-01
-4.019990190863609314e-02
-1.735848784446716309e-01
-4.338116049766540527e-01
-5.678012967109680176e-04
-5.948259234428405762e-01
-4.101622477173805237e-02
-3.387718275189399719e-02
-3.117814846336841583e-02
-1.340962946414947510e-01
2.948949672281742096e-02
6.072589010000228882e-02
-2.498985528945922852e-01
-8.635818213224411011e-02
1.823030114173889160e-01
1.656871438026428223e-01
-3.748536109924316406e-03
7.941023446619510651e-03
1.762576848268508911e-01
1.351150423288345337e-01
-2.561463415622711182e-02
2.785643935203552246e-02
-2.380263358354568481e-01
4.062857851386070251e-02
-5.665707960724830627e-02
-4.997542873024940491e-02
-2.030741423368453979e-01
7.298569381237030029e-02
-7.515569031238555908e-02
-2.773520648479461670e-01
-1.088154315948486328e-02
5.014389753341674805e-03
3.463175892829895020e-02
2.604288458824157715e-01
-1.978705674409866333e-01
-5.824021622538566589e-02
-2.182349413633346558e-01
1.001784950494766235e-02
-6.594854593276977539e-01
-3.399062752723693848e-01
1.752821169793605804e-02
1.030245721340179443e-01
-3.070866465568542480e-01
-7.819260656833648682e-02
-2.965594232082366943e-01
-3.332048058509826660e-01
-2.245796620845794678e-01
2.592882812023162842e-01
1.775120198726654053e-02
2.147056162357330322e-01
-2.182818502187728882e-01
1.263403147459030151e-01
7.375518977642059326e-02
-2.842133939266204834e-01
2.411667816340923309e-02
-4.142604172229766846e-01
5.075320135802030563e-03
-5.414717644453048706e-02
5.531486123800277710e-02
-1.166778653860092163e-01
-6.785196065902709961e-02
-9.014805406332015991e-02
6.263327598571777344e-02
2.291615679860115051e-02
-3.088675737380981445e-01
-2.779949009418487549e-01
-9.149252437055110931e-03
8.783577382564544678e-02
9.616954624652862549e-02
6.419324129819869995e-02
-1.078531146049499512e-03
1.057257205247879028e-01
3.703441470861434937e-02
4.890224710106849670e-02
-2.750901579856872559e-01
3.550620079040527344e-01
-1.623610109090805054e-01
5.120146647095680237e-02
1.200718730688095093e-01
8.209298551082611084e-02
-2.575332224369049072e-01
6.667793542146682739e-02
-2.228201180696487427e-01
-8.955068886280059814e-03
-1.137842088937759399e-01
5.656316876411437988e-02
1.247793138027191162e-01
3.495073318481445312e-02
-2.620840072631835938e-01
-5.011480301618576050e-02
-1.152701452374458313e-01
6.200589239597320557e-02
1.123842820525169373e-01
2.616427093744277954e-02
7.174370437860488892e-02
1.755783148109912872e-02
2.941948920488357544e-02
-1.901536285877227783e-01
1.976092904806137085e-02
-2.368078678846359253e-01
-3.061321675777435303e-01
4.970760047435760498e-01
3.872765004634857178e-01
4.385866224765777588e-02
-7.147898524999618530e-02
-2.798011600971221924e-01
-2.297232151031494141e-01
2.126395702362060547e-02
-2.299170941114425659e-02
-1.498492509126663208e-01
2.404758036136627197e-01
-6.142009049654006958e-02
1.189883351325988770e-01
-1.159048601984977722e-01
-3.637774884700775146e-01
-2.489962615072727203e-02
-3.756089508533477783e-02
-1.473274081945419312e-02
1.786494702100753784e-01
-3.316543996334075928e-02
2.296597212553024292e-01
-2.247376739978790283e-01
-1.014085561037063599e-01
2.697410285472869873e-01
-6.813732441514730453e-03
-1.079906076192855835e-01
3.084215819835662842e-01
-1.527837216854095459e-01
2.874326407909393311e-01
-6.462953686714172363e-01
1.787151247262954712e-01
-3.087811768054962158e-01
-3.864620923995971680e-01
-1.329180151224136353e-01
-2.892124056816101074e-01
2.275389283895492554e-01
-9.352904558181762695e-02
-5.139680579304695129e-02
-1.378841251134872437e-01
-3.948238790035247803e-01
-2.234158478677272797e-02
4.794527217745780945e-02
-3.489813208580017090e-01
-3.833998441696166992e-01
-5.049799755215644836e-02
-1.123201698064804077e-01
-3.774443566799163818e-01
-3.876750171184539795e-02
-9.790651500225067139e-02
-9.454990923404693604e-02
-1.076586823910474777e-02
9.929022938013076782e-02
1.291927397251129150e-01
1.571295857429504395e-01
2.350957989692687988e-01
1.014014557003974915e-01
-6.165461987257003784e-02
1.032915636897087097e-01
-1.537577481940388680e-03
1.236601620912551880e-01
-3.181297779083251953e-01
-2.951122261583805084e-02
2.090483903884887695e-01
-3.611266613006591797e-03
-2.254221886396408081e-01
-2.475377172231674194e-01
7.869573682546615601e-02
1.520530134439468384e-01
-1.379546429961919785e-02
-8.622021973133087158e-02
5.742290988564491272e-02
-1.787993907928466797e-01
3.396831452846527100e-02
8.277255110442638397e-03
-2.927381172776222229e-02
1.126794964075088501e-01
1.041134521365165710e-01
-2.034086287021636963e-01
-2.350424081087112427e-01
5.962383374571800232e-02
-2.153327688574790955e-02
4.154487513005733490e-03
1.099158544093370438e-03
4.795135557651519775e-02
9.640645980834960938e-02
-3.113273382186889648e-01
3.488077223300933838e-02
-5.566845089197158813e-02
3.227055668830871582e-01
-3.107463009655475616e-03
9.086746722459793091e-03
-1.224783584475517273e-01
-3.638294637203216553e-01
-1.879355758428573608e-01
-1.643470078706741333e-01
1.083943098783493042e-01
3.046161830425262451e-01
1.181343272328376770e-01
2.113356888294219971e-01
4.894598945975303650e-02
4.816414415836334229e-01
-3.102871589362621307e-02
-1.590069830417633057e-01
5.151400808244943619e-03
3.376519680023193359e-01
-1.556085981428623199e-02
1.190918236970901489e-01
-9.821507148444652557e-03
1.739367097616195679e-01
-1.974926590919494629e-01
-2.575488090515136719e-01
-1.674241572618484497e-02
8.807782828807830811e-02
-5.235715303570032120e-03
-3.199017792940139771e-02
2.161075733602046967e-02
-3.556929063051939011e-03
1.377998143434524536e-01
5.643169954419136047e-02
1.781915873289108276e-01
4.283729791641235352e-01
-1.712546199560165405e-01
1.304995417594909668e-01
-9.638939984142780304e-03
3.949387073516845703e-01
3.958586230874061584e-02
-1.088907122611999512e-01
9.036214649677276611e-02
-6.639278680086135864e-02
6.277486681938171387e-02
1.981672644615173340e-02
7.902965694665908813e-02
7.457446772605180740e-04
-4.740646183490753174e-01
2.158371210098266602e-01
-4.999581351876258850e-02
9.825976192951202393e-02
5.055917501449584961e-01
1.644245088100433350e-01
2.618150226771831512e-02
-3.321917951107025146e-01
6.044465303421020508e-01
-1.498842835426330566e-01
1.443887650966644287e-01
3.462153673171997070e-02
1.142175495624542236e-01
-2.659286856651306152e-01
1.747745275497436523e-01
2.305406928062438965e-01
1.558336466550827026e-01
5.555894225835800171e-02
-5.365237966179847717e-02
2.648837268352508545e-01
1.225523352622985840e-01
-9.091568738222122192e-02
3.657649755477905273e-01
-3.526264429092407227e-02
-7.425248622894287109e-02
-7.155980169773101807e-02
2.216755971312522888e-02
-4.896978661417961121e-02
-1.299110352993011475e-01
-1.769703328609466553e-01
6.508076190948486328e-02
8.399138599634170532e-02
1.357132047414779663e-01
3.736225888133049011e-02
-1.233789138495922089e-02
-9.099239856004714966e-02
4.294817894697189331e-02
-5.576481297612190247e-02
-2.461854368448257446e-02
-3.298217654228210449e-01
-3.818990429863333702e-03
-4.128626286983489990e-01
-1.108873710036277771e-01
2.188789546489715576e-01
-5.244668200612068176e-02
-2.019279748201370239e-01
4.954588413238525391e-02
3.507817387580871582e-01
1.414893269538879395e-01
2.578337788581848145e-01
8.137728273868560791e-02
-1.843429207801818848e-01
-5.459967255592346191e-01
2.894527912139892578e-01
-4.410573840141296387e-02
2.403234539087861776e-04
-5.285496711730957031e-01
-1.073931902647018433e-01
1.346604824066162109e-01
-1.416556537151336670e-02
1.936983466148376465e-01
-1.441579014062881470e-01
1.820538491010665894e-01
-4.404815658926963806e-02
-2.853662371635437012e-01
-5.243409052491188049e-02
-6.701586246490478516e-01
3.653653711080551147e-02
2.065216889604926109e-03
1.726265437901020050e-02
2.627384848892688751e-02
-3.665822148323059082e-01
6.399724632501602173e-02
-5.295087024569511414e-02
6.559696793556213379e-02
2.603299170732498169e-02
-8.599859476089477539e-02
2.290423773229122162e-02
8.943746238946914673e-02
3.546278923749923706e-02
-2.610101103782653809e-01
-2.186519205570220947e-01
-1.423831582069396973e-01
-1.473131775856018066e-01
6.103464961051940918e-02
9.657717496156692505e-02
3.839502483606338501e-02
-2.670066952705383301e-01
1.625360250473022461e-01
4.322822391986846924e-01
-1.701401621103286743e-01
-5.338747054338455200e-02
9.234569221735000610e-02
-1.673889011144638062e-01
6.963594257831573486e-02
-1.177191138267517090e-01
-2.692028321325778961e-02
-1.005363742478948552e-06
-6.168226525187492371e-02
5.180842876434326172e-01
-2.948411041870713234e-03
3.457547351717948914e-02
4.958477914333343506e-01
-3.938199579715728760e-02
-2.911470234394073486e-01
7.963607087731361389e-03
-2.458904869854450226e-02
-3.798480927944183350e-01
1.526678204536437988e-01
1.029694918543100357e-02
5.015597492456436157e-02
7.563194632530212402e-02
3.210602104663848877e-01
-3.251477330923080444e-02
9.253213554620742798e-02
6.267165392637252808e-02
1.416016668081283569e-01
1.322122197598218918e-02
7.421915978193283081e-02
-1.006324496120214462e-02
2.557831704616546631e-01
-2.128992080688476562e-01
-6.848255544900894165e-02
1.715597137808799744e-02
-1.552249491214752197e-01
2.975929975509643555e-01
-3.370967805385589600e-01
3.403132408857345581e-02
-2.782141566276550293e-01
-1.408205777406692505e-01
2.504367940127849579e-02
-6.974818184971809387e-03
-4.801936447620391846e-01
-1.859487891197204590e-01
-2.787159681320190430e-01
-1.103543788194656372e-01
-2.240201272070407867e-02
1.984992474317550659e-01
-2.962848544120788574e-01
3.090449273586273193e-01
-1.212578043341636658e-01
-1.025584638118743896e-01
-4.630864560604095459e-01
9.222270548343658447e-02
1.297216489911079407e-02
3.668495640158653259e-02
1.738611012697219849e-01
6.038847565650939941e-02
-1.151904240250587463e-01
-5.442339461296796799e-03
7.586050033569335938e-02
-5.254492536187171936e-02
-1.033293828368186951e-02
-1.005938798189163208e-01
1.309684664011001587e-02
2.256915345788002014e-02
5.075991898775100708e-02
-3.512172773480415344e-02
4.814610630273818970e-02
1.022490411996841431e-01
1.107845455408096313e-01
1.117632165551185608e-02
-3.633935153484344482e-01
4.874164462089538574e-01
5.484233051538467407e-02
1.270814239978790283e-01
-3.117468953132629395e-01
2.493077069520950317e-01
-2.324325591325759888e-01
4.162363335490226746e-02
-1.490567810833454132e-02
-1.938149780035018921e-01
1.374433785676956177e-01
2.147440016269683838e-01
-2.255713343620300293e-01
-8.002588897943496704e-02
1.326741725206375122e-01
-3.672172129154205322e-01
1.607682257890701294e-01
4.068193212151527405e-02
2.868719995021820068e-01
1.640952974557876587e-01
5.749273300170898438e-01
4.906199499964714050e-02
-2.515888810157775879e-01
-2.939872145652770996e-01
1.149061918258666992e-01
1.641589030623435974e-02
7.248442620038986206e-02
-8.264949172735214233e-02
2.676903642714023590e-02
-3.915994465351104736e-01
2.237346023321151733e-02
9.925664961338043213e-02
4.372021183371543884e-02
1.457400321960449219e-01
-6.095850095152854919e-02
-6.556616723537445068e-02
3.461867868900299072e-01
1.419404745101928711e-01
-2.926500514149665833e-02
-1.649296581745147705e-01
1.945658475160598755e-01
8.031634986400604248e-02
-6.641130149364471436e-02
6.401664111763238907e-03
-9.514231234788894653e-02
-4.088339209556579590e-02
2.579608373343944550e-02
2.826899886131286621e-01
3.189846575260162354e-01
6.685501337051391602e-02
7.407918572425842285e-02
9.178774058818817139e-02
1.309687085449695587e-02
2.581320106983184814e-01
-4.497698973864316940e-03
2.495753169059753418e-01
1.606735587120056152e-02
-5.353696346282958984e-01
-7.405233383178710938e-02
-5.989767983555793762e-02
1.005188003182411194e-01
4.122942313551902771e-02
-5.161717534065246582e-02
4.605563730001449585e-02
-8.428899198770523071e-02
-2.608814239501953125e-01
4.760321080684661865e-01
2.546214759349822998e-01
-3.932621330022811890e-02
8.500862121582031250e-02
-3.545684218406677246e-01
-7.914763689041137695e-02
-6.682980805635452271e-02
5.012799426913261414e-02
-8.906082063913345337e-02
1.990249305963516235e-01
6.155238021165132523e-03
1.228672116994857788e-01
4.693854749202728271e-01
-2.603888809680938721e-01
5.699821189045906067e-02
-6.543646007776260376e-02
3.160510063171386719e-01
2.903816998004913330e-01
-2.757144272327423096e-01
3.409052193164825439e-01
-2.604515254497528076e-01
1.036169230937957764e-01
3.806345760822296143e-01
1.602613739669322968e-02
4.839088022708892822e-02
-1.292618960142135620e-01
-9.577570110559463501e-02
-1.715164035558700562e-01
2.950837910175323486e-01
-8.864045888185501099e-02
-2.300856709480285645e-01
-1.187880486249923706e-01
1.759843900799751282e-02
1.940037012100219727e-01
-1.848388165235519409e-01
-2.906615100800991058e-02
-8.227863907814025879e-02
-3.283324092626571655e-02
-5.944942310452461243e-02
6.600237637758255005e-02
-5.322315171360969543e-02
3.817431330680847168e-01
-3.854962885379791260e-01
2.602264098823070526e-02
-2.335901409387588501e-01
-1.814177818596363068e-02
6.404040008783340454e-02
-2.769600786268711090e-02
2.931350469589233398e-01
-4.638452548533678055e-03
-3.581359982490539551e-02
1.703637391328811646e-01
-6.804893910884857178e-02
-3.840616047382354736e-01
-8.274701982736587524e-02
1.580390483140945435e-01
-9.707775712013244629e-02
1.209622323513031006e-01
4.438654780387878418e-01
3.482764661312103271e-01
-1.507626175880432129e-01
-2.853204905986785889e-01
-1.841891184449195862e-02
2.817561030387878418e-01
-2.490783110260963440e-02
6.338731944561004639e-02
-7.696682214736938477e-02
9.447603672742843628e-02
-8.955086767673492432e-02
-3.573378920555114746e-01
1.617927998304367065e-01
-8.934754878282546997e-02
-2.315425686538219452e-02
-1.560671329498291016e-01
-2.121583074331283569e-01
1.771195605397224426e-02
2.097800374031066895e-01
8.520503342151641846e-02
-3.259627148509025574e-02
5.684213340282440186e-02
-9.070848673582077026e-02
5.851731449365615845e-02
-2.047507911920547485e-01
-7.765755802392959595e-02
-1.811306327581405640e-01
3.621448948979377747e-02
-6.752318888902664185e-02
-1.952419057488441467e-02
1.238288804888725281e-01
-3.082255274057388306e-02
1.703997999429702759e-01
-1.449666917324066162e-01
-1.715855151414871216e-01
-3.596240580081939697e-01
-8.237336575984954834e-02
3.900659680366516113e-01
3.320550918579101562e-01
1.332032531499862671e-01
-4.140971228480339050e-02
-1.243821978569030762e-01
-2.430556863546371460e-01
1.744236201047897339e-01
-7.393059320747852325e-03
-3.611704409122467041e-01
-5.863520130515098572e-02
-2.457821071147918701e-01
-1.599682494997978210e-02
-4.567347168922424316e-01
7.137433439493179321e-02
-6.262413859367370605e-01
-2.654930762946605682e-02
4.046425595879554749e-02
-3.098793886601924896e-02
-6.646486371755599976e-02
-1.337780207395553589e-01
4.895650967955589294e-02
-3.846074938774108887e-01
4.551616311073303223e-02
-1.950037479400634766e-01
-1.624436825513839722e-01
5.039977654814720154e-02
1.665916480123996735e-02
7.026847451925277710e-02
-1.588465459644794464e-02
-2.187121063470840454e-01
2.419927865266799927e-01
-9.564715623855590820e-02
-4.481673240661621094e-02
-6.017069891095161438e-02
4.298242926597595215e-01
-3.703590482473373413e-02
-1.894899904727935791e-01
3.066536784172058105e-01
-1.686689555644989014e-01
-1.047722902148962021e-02
7.892941683530807495e-02
1.704096496105194092e-01
2.662404179573059082e-01
1.358150988817214966e-01
2.661384344100952148e-01
2.383195459842681885e-01
-1.535733789205551147e-01
1.898766905069351196e-01
5.572307854890823364e-02
2.370848879218101501e-02
2.890917956829071045e-01
-2.960110604763031006e-01
-1.125604584813117981e-01
-2.967537939548492432e-01
7.478393614292144775e-02
-1.838466972112655640e-01
-1.185244321823120117e-01
-1.324041932821273804e-01
-3.267690911889076233e-02
2.017377465963363647e-01
5.484513193368911743e-02
1.376183182001113892e-01
1.271357238292694092e-01
-4.523698389530181885e-01
-8.311817795038223267e-02
3.890460729598999023e-02
-9.828586131334304810e-02
-1.730512380599975586e-01
2.394985407590866089e-02
1.135597005486488342e-01
-3.044123351573944092e-01
6.266038119792938232e-02
-7.187044620513916016e-02
1.141938939690589905e-01
-3.946164250373840332e-02
6.396018713712692261e-02
-1.072569042444229126e-01
-8.077529817819595337e-02
2.561916112899780273e-01
-9.459516406059265137e-02
1.805347502231597900e-01
1.800016616471111774e-03
1.728167533874511719e-01
-2.196569442749023438e-01
-1.173142045736312866e-01
2.036546766757965088e-01
-6.046482548117637634e-02
2.242495492100715637e-02
5.698726512491703033e-03
-3.719845041632652283e-02
7.575481384992599487e-02
1.847772896289825439e-01
-7.294607162475585938e-02
-4.217866435647010803e-02
8.232794352807104588e-04
1.700012534856796265e-01
-1.967382989823818207e-02
6.341005861759185791e-02
9.151360951364040375e-03
-1.732366830110549927e-01
-7.344318181276321411e-02
-2.011462897062301636e-01
-5.011125206947326660e-01
-5.834945291280746460e-02
6.945798546075820923e-02
-6.420341785997152328e-03
4.214403405785560608e-02
1.078284680843353271e-01
4.473808780312538147e-02
2.196991592645645142e-01
-1.155893318355083466e-02
3.295420855283737183e-02
-3.458410501480102539e-02
-8.471555262804031372e-02
-1.457749586552381516e-02
5.407884120941162109e-01
2.893647551536560059e-02
-2.551522552967071533e-01
-2.407454699277877808e-01
-1.197187826037406921e-01
2.730232179164886475e-01
-2.360053211450576782e-01
-2.019938826560974121e-02
-4.286668822169303894e-02
1.959080994129180908e-01
-2.217518985271453857e-01
-1.242400631308555603e-01
-1.580140367150306702e-02
2.893888056278228760e-01
-6.642442196607589722e-02
-2.003597468137741089e-01
6.752708554267883301e-02
-8.240425586700439453e-02
1.741497367620468140e-01
1.319137513637542725e-01
1.044621616601943970e-01
3.405404984951019287e-01
-7.683862745761871338e-02
2.293370664119720459e-02
6.890240311622619629e-02
2.238612994551658630e-02
-7.434766739606857300e-02
1.098744478076696396e-02
-1.979978531599044800e-01
1.265848875045776367e-01
2.076104581356048584e-01
3.782069077715277672e-03
-1.079675033688545227e-01
-4.328631982207298279e-02
-1.217966079711914062e-01
2.119565848261117935e-03
-1.313064340502023697e-02
2.331763133406639099e-02
-2.962301075458526611e-01
3.031784668564796448e-02
-9.201130270957946777e-02
-2.051731944084167480e-01
-1.106218844652175903e-01
-8.593439310789108276e-02
5.386440828442573547e-02
7.550064940005540848e-03
-1.271771788597106934e-01
-5.288502573966979980e-01
5.412281304597854614e-02
1.268224269151687622e-01
-2.509866654872894287e-01
-4.716301336884498596e-02
1.967704147100448608e-01
2.297983877360820770e-02
-1.926015019416809082e-01
6.093593686819076538e-02
-1.340088844299316406e-01
1.154270321130752563e-01
-1.438627541065216064e-01
-3.124218583106994629e-01
5.423986911773681641e-02
1.046473532915115356e-01
-4.651288315653800964e-02
-3.068507015705108643e-01
3.394170105457305908e-01
-8.501508086919784546e-02
8.222950249910354614e-02
-8.859405666589736938e-02
-1.133054122328758240e-01
6.456321477890014648e-02
-9.084922261536121368e-03
3.677895963191986084e-01
6.480760872364044189e-02
4.920091014355421066e-03
-4.743628203868865967e-02
1.048150733113288879e-01
-1.800790987908840179e-02
6.627623736858367920e-02
5.933671444654464722e-02
7.265739142894744873e-02
6.432114541530609131e-02
-4.513673782348632812e-01
-3.494140803813934326e-01
-7.188650965690612793e-02
2.979731559753417969e-01
6.340301781892776489e-02
1.244563683867454529e-01
2.323178350925445557e-01
1.740462929010391235e-01
2.599437832832336426e-01
-2.387063354253768921e-01
1.080364882946014404e-01
-1.109319478273391724e-01
-1.111393794417381287e-01
-1.550872772932052612e-01
-5.317376554012298584e-02
1.941353529691696167e-01
-4.214420914649963379e-02
-2.864248454570770264e-01
-3.130499040707945824e-03
9.181253612041473389e-02
9.737920761108398438e-02
2.502799928188323975e-01
-1.882215030491352081e-02
9.999971836805343628e-02
2.471072226762771606e-02
-2.115776240825653076e-01
9.045859426259994507e-02
6.145632639527320862e-02
-1.139398515224456787e-01
7.545977365225553513e-03
1.846827566623687744e-02
9.817204624414443970e-02
1.433245986700057983e-01
-6.989215314388275146e-02
1.351192742586135864e-01
-5.245040729641914368e-02
3.060818910598754883e-01
-3.174464777112007141e-02
8.991349488496780396e-02
-2.087513804435729980e-01
-1.485699862241744995e-01
5.244208127260208130e-02
2.285047322511672974e-01
-2.668283283710479736e-01
-8.907631784677505493e-02
4.153948724269866943e-01
-9.998586028814315796e-02
-2.970027551054954529e-02
1.336975097656250000e-01
5.722920224070549011e-02
-9.447322040796279907e-02
-1.080539450049400330e-01
1.332058571279048920e-02
-5.070843547582626343e-02
1.875836253166198730e-01
9.326105937361717224e-03
3.240250349044799805e-01
-4.535997807979583740e-01
4.812646508216857910e-01
-2.274839580059051514e-02
5.000719428062438965e-01
7.112925499677658081e-02
9.790571033954620361e-02
1.027255132794380188e-02
5.902920290827751160e-02
8.319758623838424683e-02
6.092829629778862000e-02
3.840169608592987061e-01
-8.913063444197177887e-03
8.582096546888351440e-02
-2.716287672519683838e-01
7.375686615705490112e-02
2.160608172416687012e-01
1.792486011981964111e-01
-3.437729477882385254e-01
4.167525563389062881e-03
-6.787464767694473267e-02
1.406518220901489258e-01
1.544916033744812012e-01
3.085699677467346191e-02
1.891255974769592285e-01
-3.728111386299133301e-01
-1.141515970230102539e-01
-3.752535954117774963e-02
8.451156318187713623e-02
1.439523696899414062e-02
-4.743730127811431885e-01
2.036582827568054199e-01
2.498835474252700806e-01
4.037126153707504272e-02
3.782277926802635193e-03
-3.410800397396087646e-01
7.242216169834136963e-02
1.844325661659240723e-01
4.111110866069793701e-01
-3.325147628784179688e-01
-6.539623737335205078e-01
-8.127553761005401611e-02
2.306221872568130493e-01
1.361458152532577515e-01
-4.893058240413665771e-01
-2.358393222093582153e-01
-2.869676053524017334e-01
-2.071159631013870239e-01
2.686898969113826752e-02
3.461822494864463806e-02
8.522249758243560791e-02
2.834107577800750732e-01
-2.821742382366210222e-04
7.839046418666839600e-03
-6.486937403678894043e-02
-3.489119410514831543e-01
-1.004537343978881836e-01
4.053570330142974854e-03
4.296963161323219538e-04
-4.125083237886428833e-02
-7.770285755395889282e-02
-7.794652879238128662e-02
-1.183050964027643204e-02
-7.238817960023880005e-02
6.645818799734115601e-02
1.725963354110717773e-01
3.619446158409118652e-01
3.196424245834350586e-01
-1.794463098049163818e-01
-6.755048036575317383e-02
1.870776526629924774e-02
-3.692729398608207703e-02
-4.112223982810974121e-01
2.297940105199813843e-01
4.241309762001037598e-01
3.428939729928970337e-02
8.455081284046173096e-02
8.577466011047363281e-03
9.183765947818756104e-02
-7.782889902591705322e-02
2.111814450472593307e-03
-4.281221032142639160e-01
4.507529735565185547e-02
1.288046091794967651e-01
-1.805025339126586914e-02
-3.448554128408432007e-02
4.971724003553390503e-02
1.503487825393676758e-01
3.543147072196006775e-02
-1.795335710048675537e-01
-1.198233291506767273e-02
-3.023895025253295898e-01
-8.423659205436706543e-02
-4.209381993860006332e-03
-8.535325527191162109e-02
-6.431953608989715576e-02
1.322093456983566284e-01
1.200561448931694031e-01
-6.121337786316871643e-02
-4.440401121973991394e-02
-1.166155040264129639e-01
1.627794653177261353e-02
3.775446116924285889e-02
4.315567016601562500e-02
1.445297449827194214e-01
-1.225013658404350281e-01
1.402023881673812866e-01
2.177920341491699219e-01
-2.415435612201690674e-01
-6.937626004219055176e-02
-1.858674585819244385e-01
5.082588642835617065e-02
-2.611562795937061310e-02
4.914002493023872375e-02
-1.949726343154907227e-01
-5.527138113975524902e-01
-1.543063521385192871e-01
8.356790244579315186e-02
-2.347204089164733887e-01
-3.343383222818374634e-02
4.546392709016799927e-02
4.747422039508819580e-01
7.489772140979766846e-02
-4.741904139518737793e-02
-8.498619496822357178e-02
2.681734226644039154e-02
-1.152611896395683289e-02
-2.652812004089355469e-01
4.124330729246139526e-02
-8.619854599237442017e-02
-4.224864020943641663e-02
-7.690069824457168579e-02
1.128443181514739990e-01
2.811080515384674072e-01
-3.045306801795959473e-01
5.419276654720306396e-02
1.516892760992050171e-01
9.032642841339111328e-02
2.641077339649200439e-01
-5.374767631292343140e-02
-6.646131724119186401e-02
-2.161697596311569214e-01
-1.334485560655593872e-01
1.822551898658275604e-02
1.366387158632278442e-01
3.826666623353958130e-02
-7.166323661804199219e-01
1.073639094829559326e-01
6.892574578523635864e-02
-8.113989233970642090e-02
1.132770925760269165e-01
-2.192556858062744141e-01
3.062153756618499756e-01
1.085849106311798096e-01
-2.410635799169540405e-01
-9.333549439907073975e-02
-4.717434197664260864e-02
9.431688487529754639e-02
3.148843348026275635e-01
-2.715948522090911865e-01
-3.365599364042282104e-02
1.384939104318618774e-01
5.846669897437095642e-02
-2.085212171077728271e-01
-9.020353853702545166e-02
-1.283782161772251129e-02
-1.286996006965637207e-01
8.729916065931320190e-03
-5.595641210675239563e-02
-1.143932528793811798e-02
1.904599815607070923e-01
1.220189854502677917e-01
5.020016059279441833e-02
-1.935924589633941650e-02
-1.095066368579864502e-01
-5.451294183731079102e-01
2.690959721803665161e-03
-1.421159952878952026e-01
-2.632589936256408691e-01
-1.039472073316574097e-01
9.761861525475978851e-03
2.168069332838058472e-01
8.832834661006927490e-02
-5.256400443613529205e-03
4.856444895267486572e-02
-1.568828523159027100e-01
5.323605537414550781e-01
3.370057046413421631e-01
4.089548885822296143e-01
-3.039378114044666290e-02
6.393343806266784668e-01
-1.253681480884552002e-01
-7.835151255130767822e-02
-1.891700178384780884e-01
3.173499405384063721e-01
-8.837579935789108276e-02
-1.826365739107131958e-01
3.846006840467453003e-02
4.769701659679412842e-01
-3.809833526611328125e-01
-6.043097749352455139e-02
-1.840481162071228027e-01
-9.849598258733749390e-02
1.011461243033409119e-01
9.765621274709701538e-02
4.549301266670227051e-01
-3.197720050811767578e-01
1.524245291948318481e-01
-1.963503286242485046e-02
-1.301451772451400757e-01
-4.019999206066131592e-01
-2.129474580287933350e-01
-7.629903405904769897e-02
7.840770483016967773e-02
-4.407389089465141296e-02
-2.255677682114765048e-04
6.781713664531707764e-02
-3.716359436511993408e-01
1.839163303375244141e-01
-5.444828420877456665e-02
3.578918874263763428e-01
3.340795636177062988e-02
-7.946836203336715698e-02
5.567411184310913086e-01
-1.538347899913787842e-01
1.865476816892623901e-01
4.466670155525207520e-01
1.797175593674182892e-02
-2.623529434204101562e-01
2.824200391769409180e-01
2.669718265533447266e-01
-4.784454405307769775e-02
3.388175368309020996e-01
-3.721881657838821411e-02
-4.987306594848632812e-01
-2.865405976772308350e-01
7.064861059188842773e-02
-7.648075371980667114e-02
-3.799947798252105713e-01
4.010190442204475403e-02
3.033734261989593506e-01
1.403461545705795288e-01
1.605835407972335815e-01
-9.419603645801544189e-02
6.191583350300788879e-02
9.057826362550258636e-03
-3.523448482155799866e-02
-2.243329286575317383e-01
-2.775840274989604950e-02
5.341894458979368210e-03
5.453227460384368896e-02
-1.977387815713882446e-01
3.057236969470977783e-01
-1.036501452326774597e-01
4.087945073843002319e-02
-6.215173751115798950e-02
1.884380429983139038e-01
-4.600032269954681396e-01
1.715494133532047272e-02
1.135322637856006622e-02
-7.681564241647720337e-02
-5.610913038253784180e-02
-4.395126923918724060e-02
2.187608741223812103e-02
-1.348931938409805298e-01
1.887769848108291626e-01
-3.494013845920562744e-01
-6.057450920343399048e-02
4.680716618895530701e-02
1.248630732297897339e-01
-1.487000733613967896e-01
2.240848392248153687e-01
-1.040681377053260803e-01
-5.307983607053756714e-02
3.509033322334289551e-01
4.790320247411727905e-02
-8.916266262531280518e-03
2.745505273342132568e-01
-8.669207245111465454e-02
-1.445452272891998291e-01
-3.714922368526458740e-01
4.940167441964149475e-02
1.397046148777008057e-01
8.373162895441055298e-02
-1.586571186780929565e-01
-6.717830151319503784e-02
-1.860426366329193115e-01
-7.751324027776718140e-02
-7.512554060667753220e-03
-3.697472810745239258e-02
4.575076699256896973e-01
6.685609370470046997e-02
-5.419456958770751953e-02
-9.528423845767974854e-02
-4.739911295473575592e-03
-1.788639724254608154e-01
1.126293763518333435e-01
2.994449436664581299e-01
-7.933692634105682373e-02
-2.405865117907524109e-02
-3.142997995018959045e-02
1.001223623752593994e-01
-8.578485995531082153e-02
7.616950571537017822e-02
7.415376603603363037e-02
-1.742265224456787109e-01
1.421339213848114014e-01
-3.597458899021148682e-01
-3.327999711036682129e-01
-1.072850264608860016e-02
-2.645271718502044678e-01
-3.176920711994171143e-01
8.010605722665786743e-02
-4.172654449939727783e-01
-2.874104082584381104e-01
7.298465073108673096e-02
-9.328714758157730103e-02
-2.312977313995361328e-01
-1.726050376892089844e-01
-1.966471970081329346e-01
-8.257294446229934692e-02
2.609810978174209595e-02
2.059788107872009277e-01
1.412201374769210815e-01
-8.252932131290435791e-02
9.529434889554977417e-02
1.343934834003448486e-01
1.952512860298156738e-01
5.197632685303688049e-02
-3.749155998229980469e-01
9.342668205499649048e-02
2.055893242359161377e-01
7.807047665119171143e-02
4.821458458900451660e-02
7.749115116894245148e-03
-4.751005470752716064e-01
-5.169673264026641846e-02
-3.506455421447753906e-01
-1.122526526451110840e-01
4.877509176731109619e-02
-2.495969682931900024e-01
6.585494428873062134e-02
-4.664636030793190002e-02
-4.126885235309600830e-01
7.603107392787933350e-02
-3.697390258312225342e-01
-2.002358585596084595e-01
-1.035180389881134033e-01
1.678840368986129761e-01
1.093589067459106445e-01
1.216332986950874329e-01
-5.976325646042823792e-02
2.712810933589935303e-01
2.297053486108779907e-01
-2.840623259544372559e-01
-3.418791340664029121e-03
1.400252282619476318e-01
-1.373495068401098251e-02
-4.466658458113670349e-02
5.413346365094184875e-02
-1.374294161796569824e-01
9.891579300165176392e-02
-8.211847394704818726e-02
-4.790998622775077820e-02
1.746343225240707397e-01
4.118464887142181396e-02
3.863401710987091064e-02
1.587782353162765503e-01
-2.376549504697322845e-02
-6.137588992714881897e-02
-5.910905078053474426e-02
-6.478527188301086426e-02
1.928842663764953613e-01
6.858257949352264404e-02
-8.732363581657409668e-03
-8.289684355258941650e-02
-4.269488528370857239e-02
-3.139728605747222900e-01
4.515156149864196777e-02
8.449735492467880249e-02
5.542273074388504028e-02
2.317496240139007568e-01
-8.708648383617401123e-02
-6.996822357177734375e-02
2.212416231632232666e-01
-1.566351503133773804e-01
3.450971469283103943e-02
-5.172888934612274170e-02
-6.710922718048095703e-02
-2.486644983291625977e-01
-6.305977702140808105e-02
-1.347562521696090698e-01
-2.630634605884552002e-01
-5.435610935091972351e-02
-1.679010242223739624e-01
5.759304016828536987e-02
-8.033046126365661621e-02
-2.461576610803604126e-01
-1.338293850421905518e-01
1.188125610351562500e-01
-3.955291211605072021e-02
-1.648150756955146790e-02
6.359303742647171021e-02
1.682474017143249512e-01
8.259424567222595215e-02
-3.538108468055725098e-01
-8.804450184106826782e-02
1.623175591230392456e-01
5.637885257601737976e-02
7.332151383161544800e-02
-2.120503336191177368e-01
1.235972791910171509e-01
-7.071891427040100098e-02
3.808998689055442810e-02
1.782090514898300171e-01
3.092006035149097443e-02
-8.429435640573501587e-02
-1.197202727198600769e-01
1.064512655138969421e-01
2.321957796812057495e-02
1.192336454987525940e-01
1.374565511941909790e-01
7.612334191799163818e-02
1.721001416444778442e-02
-4.889543354511260986e-02
1.237009614706039429e-01
2.468161098659038544e-02
-2.204926013946533203e-01
8.529031276702880859e-02
-1.059910878539085388e-01
2.586263120174407959e-01
1.324579268693923950e-01
-1.634385734796524048e-01
-2.917889952659606934e-01
1.239378079771995544e-01
-1.383894705213606358e-04
-1.249321997165679932e-01
-2.042946815490722656e-01
-1.156442165374755859e-01
-1.196690201759338379e-01
-4.443559795618057251e-02
-2.206381112337112427e-01
-2.696396410465240479e-01
-5.557923763990402222e-02
8.061737567186355591e-02
2.391559481620788574e-01
1.337131410837173462e-01
-1.282678693532943726e-01
-8.339731954038143158e-03
2.323983311653137207e-01
1.037947162985801697e-01
1.089944243431091309e-01
-7.559587806463241577e-02
7.907795906066894531e-02
7.599023729562759399e-02
8.579559624195098877e-02
8.691099286079406738e-02
2.827301323413848877e-01
1.642782539129257202e-01
-1.343120937235653400e-03
1.597544401884078979e-01
9.159262292087078094e-03
-6.248451396822929382e-02
-3.451063111424446106e-02
4.728777334094047546e-02
1.385373026132583618e-01
2.608878612518310547e-01
-5.166260600090026855e-01
-3.058632090687751770e-02
-1.261149644851684570e-01
-1.018029600381851196e-01
3.402401506900787354e-02
-6.413204073905944824e-01
6.162828579545021057e-02
1.388052105903625488e-02
3.384416103363037109e-01
-2.878274321556091309e-01
2.558187022805213928e-02
3.267906606197357178e-02
3.677713125944137573e-02
2.020274400711059570e-01
-1.631669700145721436e-01
2.194778993725776672e-02
6.224996596574783325e-02
-2.483101785182952881e-01
-3.662733733654022217e-02
-9.261389076709747314e-02
1.052014762535691261e-03
-1.090547535568475723e-02
1.597173660993576050e-01
-2.535881102085113525e-02
1.870257109403610229e-01
1.239848434925079346e-01
-2.012731879949569702e-01
4.600526988506317139e-01
-1.867563277482986450e-02
-3.916503787040710449e-01
4.154529273509979248e-01
-3.524522781372070312e-01
-5.857236683368682861e-02
3.958217799663543701e-02
-8.594702929258346558e-02
1.494825631380081177e-01
3.579321131110191345e-02
-6.421990692615509033e-02
-1.438674628734588623e-01
1.395059973001480103e-01
2.375269867479801178e-02
-9.776607900857925415e-02
1.704452093690633774e-03
1.850767433643341064e-01
-3.867779299616813660e-02
-3.185136616230010986e-01
-5.116551518440246582e-01
-1.445423928089439869e-03
-4.124956130981445312e-01
9.981114417314529419e-02
-6.603164970874786377e-02
1.108232960104942322e-01
2.978232502937316895e-01
1.714582145214080811e-01
-1.641690880060195923e-01
1.056996136903762817e-01
1.770946085453033447e-01
-1.887893974781036377e-01
3.003421723842620850e-01
-4.979264456778764725e-03
2.971096634864807129e-01
-2.724494971334934235e-02
9.946983307600021362e-02
-5.100230686366558075e-03
-4.690221250057220459e-01
-5.522581562399864197e-02
4.815462604165077209e-02
-1.153167262673377991e-01
1.335285604000091553e-01
-1.286525186151266098e-02
3.929922357201576233e-02
-8.128800243139266968e-02
-8.335576951503753662e-02
6.364452838897705078e-02
-4.474527388811111450e-02
-1.244263164699077606e-02
8.187537640333175659e-02
9.920725226402282715e-02
9.086480736732482910e-02
4.710475727915763855e-02
2.252162396907806396e-01
2.406911924481391907e-03
9.665959328413009644e-02
2.794560194015502930e-01
2.501370608806610107e-01
-1.101192831993103027e-01
-2.037080377340316772e-01
-1.638431549072265625e-01
-9.776591323316097260e-03
3.081938624382019043e-01
-6.294834613800048828e-02
-1.606265753507614136e-01
-2.625641822814941406e-01
-5.426483973860740662e-02
-4.534148871898651123e-01
1.214860752224922180e-01
-9.482543915510177612e-02
-5.069983378052711487e-02
-3.259675204753875732e-01
2.667868435382843018e-01
-3.645171523094177246e-01
-8.444768190383911133e-02
2.248376049101352692e-02
8.574327081441879272e-02
4.744919016957283020e-03
-1.083230227231979370e-02
2.842264436185359955e-02
-5.954703316092491150e-02
-1.323237419128417969e-01
-2.820020020008087158e-01
-3.597825393080711365e-02
5.838816985487937927e-02
3.660826757550239563e-02
3.207690715789794922e-01
-4.752451926469802856e-02
-5.081446096301078796e-02
2.715343534946441650e-01
-1.222694739699363708e-01
-7.459519803524017334e-02
8.475144393742084503e-03
-1.662041544914245605e-01
1.933158189058303833e-01
7.022956013679504395e-01
-5.899519845843315125e-02
-1.746763475239276886e-02
1.333025097846984863e-01
2.039542496204376221e-01
3.733211383223533630e-02
1.413156241178512573e-01
-3.857505321502685547e-02
3.008959628641605377e-02
5.295383278280496597e-03
3.589781746268272400e-02
-3.226894140243530273e-01
-3.718561232089996338e-01
1.589118242263793945e-01
-6.826772540807723999e-02
-2.513897120952606201e-01
-5.348094925284385681e-02
-3.394371271133422852e-02
-4.097093343734741211e-01
6.204678118228912354e-02
-3.871477842330932617e-01
2.340073138475418091e-02
-2.000348865985870361e-01
-4.177688658237457275e-01
-3.561610579490661621e-01
2.605001628398895264e-01
5.044241994619369507e-02
1.901357620954513550e-01
-2.169419080018997192e-02
2.534133195877075195e-01
-2.702018618583679199e-02
-7.420056313276290894e-02
5.400228500366210938e-02
-2.320801764726638794e-01
5.296494811773300171e-02
1.421616226434707642e-01
9.091054648160934448e-02
2.449550330638885498e-01
8.424055576324462891e-02
2.538496255874633789e-02
-1.514046043157577515e-01
-2.906488180160522461e-01
2.799160480499267578e-01
6.000169366598129272e-02
9.952901303768157959e-02
-2.247996777296066284e-01
-2.182242125272750854e-01
-5.222962424159049988e-02
-5.260180830955505371e-01
4.236091971397399902e-01
-2.698301672935485840e-01
1.278916094452142715e-02
-4.716190695762634277e-01
-8.064144849777221680e-02
1.085056066513061523e-01
-2.223256677389144897e-01
-2.045939266681671143e-01
2.195340991020202637e-01
1.006633341312408447e-01
8.322206884622573853e-02
3.636378049850463867e-02
-2.242563217878341675e-01
-2.166863083839416504e-01
2.918656915426254272e-02
-3.888424858450889587e-02
-2.072212100028991699e-01
-4.414523486047983170e-03
-2.648359164595603943e-03
-1.309225112199783325e-01
2.520338445901870728e-02
7.674053311347961426e-02
8.896006643772125244e-02
-3.422850370407104492e-01
6.379556655883789062e-02
1.157288253307342529e-02
-1.734033972024917603e-01
6.012725830078125000e-02
1.636779308319091797e-01
-6.752318143844604492e-02
6.545325517654418945e-01
-2.929789945483207703e-02
-2.663262486457824707e-01
-1.091201901435852051e-01
-1.701287776231765747e-01
2.114377170801162720e-01
-1.303047686815261841e-01
5.993224680423736572e-02
-4.844569265842437744e-01
-3.461028933525085449e-01
2.543558478355407715e-01
4.225333034992218018e-01
-1.454949844628572464e-02
-8.087888360023498535e-02
-2.914276123046875000e-01
3.680793344974517822e-01
8.544929325580596924e-02
-7.355750352144241333e-02
3.084631403908133507e-03
6.501957774162292480e-02
-6.460478901863098145e-02
-1.044709384441375732e-01
-1.447074115276336670e-01
9.797678887844085693e-02
3.659436106681823730e-02
-7.104783505201339722e-02
5.809171497821807861e-02
1.381327304989099503e-02
1.508711129426956177e-01
1.289072781801223755e-01
-6.143736839294433594e-02
2.961807698011398315e-02
3.655539453029632568e-02
-2.949169091880321503e-02
-1.967094093561172485e-02
2.370391637086868286e-01
5.441417172551155090e-02
-1.419491916894912720e-01
-5.091319680213928223e-01
1.247969567775726318e-01
-6.867639720439910889e-02
-1.024682298302650452e-01
1.102372771129012108e-03
5.178798735141754150e-02
-2.041436433792114258e-01
-2.108595222234725952e-01
-5.508908629417419434e-02
1.776492744684219360e-01
-3.437859565019607544e-02
5.689458549022674561e-02
-5.783746391534805298e-02
-4.357060417532920837e-02
1.122739091515541077e-01
1.403816789388656616e-01
-1.079564839601516724e-01
5.115453898906707764e-02
-3.870438784360885620e-02
-5.029365420341491699e-04
-1.679562032222747803e-02
3.610924258828163147e-02
-3.621943667531013489e-02
1.745340228080749512e-01
-8.118917047977447510e-02
4.767035692930221558e-02
-1.586229354143142700e-01
3.832429945468902588e-01
-1.099453493952751160e-01
1.738385856151580811e-02
2.577685713768005371e-01
-3.241435289382934570e-01
8.933627605438232422e-02
4.894445836544036865e-02
-7.050403952598571777e-02
-1.007464528083801270e-01
2.088420540094375610e-01
-1.232870202511548996e-02
2.209052443504333496e-01
1.302073150873184204e-01
-1.141702085733413696e-01
8.127354085445404053e-03
-5.512417852878570557e-02
1.907031983137130737e-02
-2.097685635089874268e-01
-1.018192842602729797e-01
2.575915865600109100e-02
-1.146573871374130249e-01
3.824053332209587097e-02
1.495009809732437134e-01
3.625893592834472656e-02
-4.763521254062652588e-02
1.140899912570603192e-04
-1.780159585177898407e-02
8.645795285701751709e-02
9.731560945510864258e-03
-4.576499387621879578e-02
-1.805678158998489380e-01
1.277074404060840607e-02
-1.434280425310134888e-01
2.656165976077318192e-03
-2.746446616947650909e-02
-5.674703046679496765e-02
-8.919365704059600830e-03
-3.260369226336479187e-02
-2.111255079507827759e-01
-9.036857634782791138e-02
5.897954106330871582e-03
-2.644187398254871368e-02
-1.900691688060760498e-01
-4.828194156289100647e-02
-1.233404278755187988e-01
-1.380114853382110596e-01
2.111208438873291016e-02
1.530490815639495850e-02
7.872170768678188324e-03
2.916760742664337158e-03
9.042881429195404053e-02
6.093037128448486328e-02
9.129006415605545044e-02
-1.897299736738204956e-01
9.947200119495391846e-02
8.984786272048950195e-02
-4.236109554767608643e-02
1.358948834240436554e-02
4.468554165214300156e-03
1.794599369168281555e-02
-1.278980970382690430e-01
2.278375625610351562e-01
9.097129106521606445e-02
-7.157596200704574585e-02
1.050546243786811829e-01
-1.299733947962522507e-02
-1.302948892116546631e-01
8.823467791080474854e-02
-1.683510839939117432e-02
-1.551831662654876709e-01
1.687300577759742737e-02
-5.038276314735412598e-03
2.732232771813869476e-02
-1.273243725299835205e-01
1.098372638225555420e-01
2.744740992784500122e-02
-1.737287938594818115e-01
-1.703301072120666504e-02
8.757567405700683594e-02
4.460196197032928467e-02
-2.802433818578720093e-02
1.770908385515213013e-02
-3.946973755955696106e-02
4.094132035970687866e-02
-1.400340795516967773e-01
-6.384864449501037598e-02
-2.929259836673736572e-02
2.213996350765228271e-01
4.171180725097656250e-02
4.127548635005950928e-02
-5.912095308303833008e-02
9.481333196163177490e-02
-1.739204302430152893e-02
-3.976861014962196350e-02
-1.844136044383049011e-02
5.942920595407485962e-02
-2.400703728199005127e-01
8.405213057994842529e-02
7.411688566207885742e-03
-1.875187456607818604e-02
-2.107910811901092529e-01
-1.206151843070983887e-01
7.311796396970748901e-02
2.889089286327362061e-01
3.279129415750503540e-02
6.093050539493560791e-02
-2.701640874147415161e-02
5.568347126245498657e-02
2.085902541875839233e-01
3.250464424490928650e-02
-1.817412674427032471e-03
-1.891935616731643677e-01
7.913987338542938232e-02
4.479677975177764893e-02
-6.853466853499412537e-03
1.309134066104888916e-02
-2.533011510968208313e-02
7.933439314365386963e-02
6.123884767293930054e-02
5.522475764155387878e-02
1.704573035240173340e-01
5.614030733704566956e-02
6.239987909793853760e-02
-1.172591075301170349e-01
1.424439996480941772e-01
-3.265537694096565247e-02
-8.122377097606658936e-03
-6.231912225484848022e-02
-9.528562426567077637e-02
1.696736551821231842e-02
1.072123646736145020e-02
-6.193391606211662292e-02
8.380107581615447998e-02
-3.303404450416564941e-01
1.444668136537075043e-02
-5.585662648081779480e-02
1.460586339235305786e-01
5.321278795599937439e-02
-2.878636717796325684e-01
3.265177309513092041e-01
-8.468550443649291992e-02
-3.079483211040496826e-01
-1.211308166384696960e-01
-7.645590603351593018e-02
-1.620329916477203369e-01
1.655961126089096069e-01
-2.007539384067058563e-02
9.548904001712799072e-02
3.637262061238288879e-02
-4.253591597080230713e-01
2.355991452932357788e-01
-4.693995416164398193e-01
2.405385822057723999e-01
1.432315707206726074e-01
-1.068703923374414444e-02
-1.393577829003334045e-02
4.375084489583969116e-02
-5.761790275573730469e-02
4.310140386223793030e-02
-7.167544960975646973e-02
-5.582907423377037048e-02
-1.571482606232166290e-02
-3.572382628917694092e-01
-9.138402342796325684e-02
6.618312001228332520e-02
-1.954252421855926514e-01
5.799923464655876160e-02
-5.672597791999578476e-03
-3.529539704322814941e-01
-7.883591949939727783e-02
-3.074420616030693054e-02
9.694814682006835938e-02
-2.107284516096115112e-01
5.124855786561965942e-02
4.454102218151092529e-01
-2.679383009672164917e-02
4.198390245437622070e-02
2.404790818691253662e-01
2.999819517135620117e-01
-1.415659338235855103e-01
-4.342130422592163086e-01
1.432200223207473755e-01
-7.889250665903091431e-02
1.021028533577919006e-01
2.253617793321609497e-01
1.011924967169761658e-01
4.478924721479415894e-02
-8.496606349945068359e-02
-1.296710968017578125e-01
-5.664865672588348389e-02
-2.122424393892288208e-01
-5.329354479908943176e-02
-5.160511285066604614e-02
-7.533775568008422852e-01
1.002373695373535156e-01
9.493483603000640869e-02
-3.029968142509460449e-01
8.602987974882125854e-02
-2.273457646369934082e-01
6.853554397821426392e-02
-3.481800667941570282e-03
-8.924897760152816772e-02
-2.713308334350585938e-01
2.251165211200714111e-01
-5.657037496566772461e-01
1.101205721497535706e-01
2.554038725793361664e-02
1.703295111656188965e-01
-3.625055029988288879e-02
3.046362660825252533e-02
-3.420691937208175659e-02
-2.302253395318984985e-01
5.247975140810012817e-02
2.392410188913345337e-01
-3.483752254396677017e-03
-1.295378711074590683e-02
2.055110931396484375e-01
1.450638920068740845e-01
5.764952301979064941e-02
2.388165593147277832e-01
-2.674537301063537598e-01
-2.496237158775329590e-01
-1.088050827383995056e-01
-1.358893960714340210e-01
4.143303260207176208e-02
-3.938871324062347412e-01
6.068794056773185730e-02
2.771275937557220459e-01
3.414152562618255615e-01
7.897877693176269531e-02
1.696676574647426605e-02
-2.204805612564086914e-01
-8.516025729477405548e-03
4.131607711315155029e-02
7.392617315053939819e-02
5.360187590122222900e-02
-3.539355993270874023e-01
-6.746151018887758255e-03
5.194454640150070190e-02
-2.392822876572608948e-02
2.905156910419464111e-01
-2.132923305034637451e-01
-7.668728381395339966e-02
5.125302076339721680e-01
7.891098409891128540e-02
2.556132674217224121e-01
8.560510352253913879e-03
-3.014384396374225616e-02
1.899130940437316895e-01
-1.260502636432647705e-01
-3.166046366095542908e-02
-3.648906946182250977e-01
-3.889474272727966309e-01
-4.203076362609863281e-01
9.821280837059020996e-02
3.865538910031318665e-02
1.368925422430038452e-01
-3.055326640605926514e-01
6.911280751228332520e-02
-8.364029973745346069e-02
-1.175482869148254395e-01
-9.672820568084716797e-02
-4.651312828063964844e-01
-6.480327993631362915e-02
3.146088123321533203e-01
-1.558442264795303345e-01
2.270786911249160767e-01
1.981662064790725708e-01
5.153765529394149780e-02
-4.413159098476171494e-03
-5.937084928154945374e-02
2.417095005512237549e-01
-1.211763471364974976e-01
7.963803410530090332e-02
-8.009257726371288300e-03
-4.491980746388435364e-02
-5.048105865716934204e-02
6.242947652935981750e-02
4.551703482866287231e-02
-1.627569347620010376e-01
-6.916639208793640137e-02
1.205484643578529358e-01
8.301462978124618530e-02
1.199975833296775818e-01
-7.182440906763076782e-02
-3.561195731163024902e-02
-4.465112090110778809e-02
-1.854598172940313816e-03
-1.042557135224342346e-01
-2.672971785068511963e-02
8.473916351795196533e-02
-2.617390751838684082e-01
6.665182765573263168e-03
-3.848129212856292725e-01
1.478065848350524902e-01
-4.290691912174224854e-01
-1.751121017150580883e-03
-1.316096037626266479e-01
2.361666262149810791e-01
-2.547324001789093018e-01
5.420682430267333984e-01
2.998338341712951660e-01
-6.620548665523529053e-03
2.022598497569561005e-02
5.450011789798736572e-02
4.594128113240003586e-03
-2.939985990524291992e-01
-4.061688855290412903e-02
3.525361418724060059e-01
-7.651296909898519516e-03
-5.937729030847549438e-02
2.582698315382003784e-02
-4.079340696334838867e-01
-8.047217875719070435e-02
-4.684681072831153870e-02
-1.165631562471389771e-01
-5.211110785603523254e-02
-1.602999866008758545e-03
-2.556251883506774902e-01
-4.021737724542617798e-02
1.565979979932308197e-02
4.441731795668601990e-02
1.003557071089744568e-01
1.231285780668258667e-01
3.792451620101928711e-01
-3.015688993036746979e-02
5.046605318784713745e-02
-1.217140406370162964e-01
-3.709958493709564209e-02
-1.374005619436502457e-02
-2.457067668437957764e-01
-3.944243788719177246e-01
3.018919229507446289e-01
-2.081351540982723236e-02
-8.541632443666458130e-02
-2.644304633140563965e-01
-2.166293263435363770e-01
-4.688144326210021973e-01
-1.004096865653991699e-02
-1.256548315286636353e-01
1.549989134073257446e-01
-1.923090219497680664e-01
6.977763026952743530e-02
1.113721206784248352e-01
-1.299456693232059479e-02
-1.545098610222339630e-03
6.966112554073333740e-02
1.591424942016601562e-01
-5.729399248957633972e-02
5.589447617530822754e-01
-5.989018455147743225e-02
7.661659270524978638e-02
5.434763431549072266e-02
-1.062812805175781250e-01
1.808623075485229492e-01
-5.214190110564231873e-02
-4.999194666743278503e-02
5.003877729177474976e-02
1.044894084334373474e-01
-1.080109104514122009e-01
7.033280283212661743e-02
3.843679428100585938e-01
3.867092356085777283e-02
-4.763854295015335083e-02
1.614600270986557007e-01
2.381412237882614136e-01
-6.066972017288208008e-02
-1.033567190170288086e-01
8.025014400482177734e-02
-6.681789755821228027e-01
6.621372699737548828e-02
8.389876782894134521e-02
-2.123432606458663940e-01
-4.498965665698051453e-02
-4.965102672576904297e-02
-2.552334032952785492e-02
-4.834254086017608643e-02
3.375707566738128662e-02
2.268904745578765869e-01
6.215594708919525146e-02
-5.362768173217773438e-01
1.146520748734474182e-01
-6.166064366698265076e-02
-3.508590534329414368e-02
2.849074304103851318e-01
1.407791376113891602e-01
2.101268991827964783e-02
2.384903430938720703e-01
2.191241830587387085e-02
-3.575099408626556396e-01
-1.447185873985290527e-01
-9.141691029071807861e-02
-1.219743713736534119e-01
9.528188407421112061e-02
-1.117334067821502686e-01
2.532913349568843842e-02
9.805149585008621216e-02
-5.286496281623840332e-01
-3.575212657451629639e-01
2.683293307200074196e-03
4.026391357183456421e-02
1.697267889976501465e-01
-5.804113112390041351e-03
4.549552127718925476e-02
4.504623636603355408e-02
-1.554951965808868408e-01
8.269147574901580811e-02
1.697821915149688721e-02
3.942738473415374756e-01
1.248861663043498993e-02
-6.261472404003143311e-02
1.883857548236846924e-01
-1.145345419645309448e-01
1.335936784744262695e-01
-4.144052788615226746e-02
-1.376246567815542221e-02
-1.919655315577983856e-02
5.884286016225814819e-02
6.999987959861755371e-01
4.111661016941070557e-01
-2.477613836526870728e-01
7.472232729196548462e-02
-7.130146771669387817e-02
2.297661900520324707e-01
-9.990317374467849731e-02
-1.069585531949996948e-01
2.372823096811771393e-02
-3.224367275834083557e-02
-4.700811207294464111e-01
2.449352592229843140e-01
-3.530460894107818604e-01
-3.066791221499443054e-02
-1.276049464941024780e-01
-9.907524101436138153e-03
1.726898103952407837e-01
-2.563171088695526123e-02
-2.059353739023208618e-01
2.250259183347225189e-02
-1.972998082637786865e-01
8.536095917224884033e-02
-6.871363520622253418e-02
1.499974750913679600e-03
1.109622865915298462e-01
-1.454577147960662842e-01
-3.245261013507843018e-01
2.726952312514185905e-03
8.654159307479858398e-02
2.362496256828308105e-01
1.202187538146972656e-01
-5.728824529796838760e-03
-1.619773507118225098e-01
-4.256177842617034912e-01
-1.393933445215225220e-01
-2.702904045581817627e-01
-2.507602274417877197e-01
2.384585589170455933e-01
-1.817904710769653320e-01
-1.955307126045227051e-01
-6.597426533699035645e-02
-1.062673702836036682e-01
-2.608069777488708496e-01
1.980040669441223145e-01
-6.186330318450927734e-02
-8.948338031768798828e-02
6.464059650897979736e-02
-5.871774554252624512e-01
6.466029584407806396e-02
-2.631818652153015137e-01
-1.042803153395652771e-01
3.812124207615852356e-02
-7.228583842515945435e-02
2.889338433742523193e-01
-4.610188677906990051e-02
3.743867576122283936e-02
-9.320770204067230225e-02
-1.243971986696124077e-03
-6.398964673280715942e-02
6.724320352077484131e-02
2.008017152547836304e-02
1.064270213246345520e-01
-3.510152995586395264e-01
3.404860943555831909e-02
-3.814480081200599670e-02
1.010872870683670044e-01
1.715470105409622192e-01
1.803602129220962524e-01
-5.909942835569381714e-02
-1.408571843057870865e-02
1.280089914798736572e-01
4.806361198425292969e-01
9.190586395561695099e-03
-2.418942004442214966e-01
2.747578620910644531e-01
-1.808767765760421753e-01
8.655481040477752686e-02
-8.027673512697219849e-02
1.598395407199859619e-01
-7.198520004749298096e-02
-3.116624355316162109e-01
9.883174207061529160e-04
-2.226706594228744507e-02
-1.636231839656829834e-01
-2.871125936508178711e-01
-6.489220261573791504e-02
-1.466308981180191040e-01
-2.639619112014770508e-01
-3.590747714042663574e-01
-1.161228790879249573e-01
3.778454065322875977e-01
9.294266253709793091e-02
-2.177759632468223572e-02
2.006369233131408691e-01
-2.490777373313903809e-01
-2.965583279728889465e-02
8.120155893266201019e-03
-7.841826230287551880e-02
8.819983899593353271e-02
-1.874946430325508118e-02
4.961463436484336853e-02
-2.955610305070877075e-02
3.026865422725677490e-02
8.691502362489700317e-02
-1.192322447896003723e-01
2.729141712188720703e-02
-7.423338294029235840e-02
-3.210589587688446045e-01
-3.128151968121528625e-02
7.492767274379730225e-02
-3.703776597976684570e-01
6.145405769348144531e-02
4.236346483230590820e-02
-3.887888416647911072e-02
1.820524185895919800e-01
-2.329298555850982666e-01
-1.092320159077644348e-01
-2.055801302194595337e-01
-6.038771569728851318e-02
-3.762908279895782471e-02
-2.139751613140106201e-01
1.136756390333175659e-01
-1.278315633535385132e-01
-3.262678980827331543e-01
6.870862841606140137e-02
-4.694339036941528320e-01
1.577881723642349243e-01
-1.678278148174285889e-01
-1.161889433860778809e-01
1.927398890256881714e-02
-1.688086837530136108e-01
2.393948882818222046e-01
2.559865452349185944e-02
8.779510855674743652e-02
-2.795815765857696533e-01
-1.615504026412963867e-01
-1.221677437424659729e-01
-5.410225689411163330e-02
-1.401232182979583740e-01
3.991036489605903625e-02
-1.211681887507438660e-01
9.023071825504302979e-02
3.952150046825408936e-02
6.847356259822845459e-02
-3.552077710628509521e-01
-2.327965348958969116e-01
-1.229827478528022766e-01
-1.255790144205093384e-01
6.248271465301513672e-02
-1.376122683286666870e-01
6.892710924148559570e-02
-1.699299365282058716e-02
4.834038391709327698e-02
2.711832523345947266e-03
-1.790905445814132690e-01
-1.236264109611511230e-01
-2.496565282344818115e-01
3.126273453235626221e-01
-1.305284500122070312e-01
-3.371410667896270752e-01
-8.429285883903503418e-02
-4.030138719826936722e-03
-5.697052553296089172e-02
-5.781717598438262939e-02
2.682790756225585938e-01
2.970131039619445801e-01
-6.874415278434753418e-02
-1.867807358503341675e-01
-4.606363549828529358e-02
-9.802512079477310181e-02
-3.442345187067985535e-02
-4.454883746802806854e-03
-2.158158272504806519e-02
4.194160865154117346e-04
-7.535997778177261353e-02
1.428946107625961304e-02
1.781688332557678223e-01
-5.377998948097229004e-02
-7.990434020757675171e-02
-4.108761996030807495e-02
-4.311102256178855896e-02
-4.874892532825469971e-02
-4.026389122009277344e-01
4.783169925212860107e-01
-3.197807073593139648e-02
-5.156158283352851868e-02
1.748385578393936157e-01
1.369804441928863525e-01
8.969165384769439697e-02
4.818129539489746094e-02
-2.065010666847229004e-01
-1.600635051727294922e-01
-2.527203410863876343e-02
-8.025334775447845459e-02
-1.939019560813903809e-01
4.350905492901802063e-02
3.875806182622909546e-02
-9.518985636532306671e-03
1.588487327098846436e-01
-4.920061826705932617e-01
2.627798914909362793e-02
-1.370826512575149536e-01
-4.477314651012420654e-03
-1.784300357103347778e-01
-2.291042357683181763e-02
5.398104339838027954e-02
3.885375857353210449e-01
-3.161520659923553467e-01
-1.142841205000877380e-02
8.214304107241332531e-04
-2.209286689758300781e-01
5.635652691125869751e-02
-9.301738440990447998e-02
-9.658850729465484619e-02
1.144520044326782227e-01
7.517783343791961670e-02
-1.407117694616317749e-01
1.274918168783187866e-01
-2.881367318332195282e-02
-8.450533449649810791e-02
-6.489713191986083984e-01
2.945377491414546967e-02
9.398870170116424561e-02
8.682226389646530151e-02
8.320954442024230957e-02
2.618624456226825714e-02
1.123412027955055237e-01
-4.025489091873168945e-01
1.845602132380008698e-02
5.024022981524467468e-02
1.209663227200508118e-01
-9.277827292680740356e-02
6.375575065612792969e-02
-3.972300291061401367e-01
1.765988171100616455e-01
-5.800969004631042480e-01
-2.534080110490322113e-02
-1.096983999013900757e-01
5.223380867391824722e-04
-6.401003152132034302e-02
4.477201700210571289e-01
3.814344406127929688e-01
-7.285690903663635254e-01
3.730204701423645020e-01
-7.119809091091156006e-02
-1.441594213247299194e-02
1.631731837987899780e-01
-2.435590028762817383e-01
1.088678389787673950e-01
-3.633405268192291260e-02
2.159509435296058655e-02
3.598045408725738525e-01
-4.263813495635986328e-01
-3.356069698929786682e-02
-3.955321609973907471e-01
4.259382188320159912e-02
-1.260415166616439819e-01
-8.071942627429962158e-02
-4.789535328745841980e-02
-3.346682712435722351e-02
3.923835605382919312e-02
6.968546658754348755e-02
4.518387466669082642e-02
9.152319282293319702e-02
2.419830411672592163e-01
1.300428360700607300e-01
-1.272503733634948730e-01
-2.260359972715377808e-01
-2.674047648906707764e-02
-1.428144574165344238e-01
1.768693700432777405e-02
6.447733938694000244e-02
-2.689584493637084961e-01
-9.610696882009506226e-02
1.836687698960304260e-02
-1.929425746202468872e-01
-4.800712466239929199e-01
-4.787582159042358398e-01
2.697958648204803467e-01
-1.700556022115051746e-03
3.946840390563011169e-02
-2.565667629241943359e-01
-4.671952873468399048e-02
-2.284522354602813721e-01
-3.133090138435363770e-01
1.129798367619514465e-01
1.611288450658321381e-02
-8.910869061946868896e-02
8.876475691795349121e-02
-2.142293378710746765e-02
-3.870993852615356445e-01
-4.804584756493568420e-02
-6.410855054855346680e-02
1.370931714773178101e-01
3.940210491418838501e-02
3.827445441856980324e-03
9.790568053722381592e-02
9.949761442840099335e-03
2.155193239450454712e-01
7.296127080917358398e-02
2.002505064010620117e-01
2.030138522386550903e-01
-3.389848023653030396e-02
-6.103492975234985352e-01
5.981886386871337891e-02
-1.382555514574050903e-01
9.244064986705780029e-02
2.243635244667530060e-03
7.906833291053771973e-02
-8.620484732091426849e-03
1.021404638886451721e-01
-1.928819715976715088e-01
-3.535569878295063972e-03
-3.882688283920288086e-02
-3.892669677734375000e-01
3.540046215057373047e-01
-6.664388813078403473e-03
8.137872815132141113e-02
-1.241667717695236206e-01
-1.404487043619155884e-01
8.695916831493377686e-02
-9.641802310943603516e-02
1.929021179676055908e-01
-1.238217502832412720e-01
-8.746036142110824585e-02
-4.020310565829277039e-02
2.925286535173654556e-03
-3.680482506752014160e-02
-5.914778634905815125e-02
-3.022642806172370911e-02
-2.147715240716934204e-01
8.139340579509735107e-02
1.929908618330955505e-02
2.751072347164154053e-01
-9.040695428848266602e-02
-2.013179510831832886e-01
2.287797182798385620e-01
3.328230697661638260e-03
1.520861405879259109e-02
-2.278930097818374634e-01
-4.086997359991073608e-04
-3.793533658608794212e-03
-8.149307966232299805e-02
3.255850672721862793e-01
-2.978662587702274323e-02
-4.560872539877891541e-02
-3.681721910834312439e-02
1.299471245147287846e-03
-5.524425581097602844e-02
-1.596865430474281311e-02
2.542835287749767303e-02
-4.426699131727218628e-03
9.982981719076633453e-04
-3.757233917713165283e-01
5.914436280727386475e-02
-1.480049490928649902e-01
1.591726019978523254e-02
2.998410165309906006e-01
-6.067348271608352661e-02
1.548714190721511841e-01
-2.298786342144012451e-01
-2.779442630708217621e-02
1.453812420368194580e-01
2.268743067979812622e-01
-3.556086216121912003e-03
-8.358862996101379395e-02
9.532772004604339600e-02
1.807129234075546265e-01
-3.562995046377182007e-02
7.743898779153823853e-02
-3.960485458374023438e-01
-1.770388484001159668e-01
1.374173015356063843e-01
5.080449394881725311e-03
1.537391636520624161e-02
1.148146390914916992e-01
4.679074883460998535e-01
-1.166653633117675781e-02
-3.082921169698238373e-02
-2.967721819877624512e-01
-3.493583500385284424e-01
4.904757812619209290e-02
-1.885828189551830292e-02
7.375589013099670410e-02
9.898709505796432495e-02
-1.997453868389129639e-01
2.579972147941589355e-01
-4.641110301017761230e-01
2.887898124754428864e-02
-2.636312246322631836e-01
2.627177909016609192e-02
-2.477809786796569824e-02
-6.652446091175079346e-02
-6.566972136497497559e-01
-9.149194508790969849e-02
1.033188998699188232e-01
4.255644977092742920e-02
-3.992179930210113525e-01
-1.581142097711563110e-01
6.027060747146606445e-02
4.761862382292747498e-02
-3.081535398960113525e-01
2.455159872770309448e-01
2.074442505836486816e-01
-1.409770455211400986e-02
5.336487293243408203e-02
5.197961255908012390e-02
4.920319467782974243e-02
1.268968284130096436e-01
2.188672423362731934e-01
-2.934747636318206787e-01
4.025616347789764404e-01
2.682308666408061981e-02
1.869458854198455811e-01
-9.698243439197540283e-02
-2.443046681582927704e-02
2.492476254701614380e-01
2.517409436404705048e-02
8.025118708610534668e-02
-6.424861401319503784e-02
-9.155485033988952637e-02
-6.739805638790130615e-02
3.740123510360717773e-01
-3.298465609550476074e-01
5.656608566641807556e-02
-2.466142624616622925e-01
2.759130001068115234e-01
-7.446003612130880356e-03
-7.278636842966079712e-02
-2.957984805107116699e-03
7.117376476526260376e-02
-8.385607004165649414e-01
1.026083454489707947e-01
4.426126480102539062e-01
6.394656747579574585e-02
1.464790403842926025e-01
-4.322476312518119812e-02
5.982933565974235535e-02
3.971262574195861816e-01
1.706376224756240845e-01
-1.784166395664215088e-01
8.017143607139587402e-02
-3.820056021213531494e-01
1.887988597154617310e-01
-4.267510771751403809e-01
1.590587547980248928e-03
-5.046597495675086975e-02
-2.466299682855606079e-01
-5.775405466556549072e-02
-1.630196124315261841e-01
8.630833774805068970e-02
3.490740805864334106e-02
2.155335843563079834e-01
-8.802574127912521362e-02
4.278209432959556580e-02
2.261671274900436401e-01
-1.008441206067800522e-02
6.860993802547454834e-02
3.610969707369804382e-02
5.410278216004371643e-03
1.150380149483680725e-01
7.699061185121536255e-02
9.725345298647880554e-03
1.485231667757034302e-01
2.386940270662307739e-01
-2.402973175048828125e-02
2.745371311902999878e-02
-1.020258814096450806e-01
1.888904906809329987e-02
-3.617534041404724121e-02
-3.306263685226440430e-01
6.380473822355270386e-02
-4.202539473772048950e-02
-4.434942454099655151e-02
2.742731273174285889e-01
-1.399121284484863281e-01
-5.870761871337890625e-01
-1.095864474773406982e-01
3.780008107423782349e-02
-1.775348745286464691e-02
1.534553617238998413e-02
1.216039657592773438e-01
-2.213929593563079834e-01
-5.980654358863830566e-01
3.217707574367523193e-02
3.841173276305198669e-02
-1.579716801643371582e-01
4.042166098952293396e-02
-1.430511772632598877e-01
-4.688585177063941956e-02
2.236395180225372314e-01
1.684458404779434204e-01
4.283846020698547363e-01
-1.837218180298805237e-02
-4.324245080351829529e-02
6.004679948091506958e-02
4.539603367447853088e-02
3.998031839728355408e-02
-4.993267357349395752e-02
2.807704210281372070e-01
9.202785044908523560e-02
5.289338901638984680e-02
-4.278603196144104004e-02
-7.483659684658050537e-02
-2.740010619163513184e-01
-1.219466328620910645e-01
-2.210555784404277802e-02
4.128379821777343750e-01
1.490530371665954590e-02
5.238732323050498962e-02
-3.692824393510818481e-02
3.480053693056106567e-02
1.601430587470531464e-02
1.556028276681900024e-01
-9.081666916608810425e-02
-1.021025329828262329e-02
-2.964832782745361328e-01
2.074149250984191895e-01
2.893466055393218994e-01
-5.411523859947919846e-03
4.537317529320716858e-02
4.031884670257568359e-02
6.100070662796497345e-03
9.472682327032089233e-02
2.136297374963760376e-01
1.436566561460494995e-01
-5.142580345273017883e-02
-1.349349319934844971e-01
5.457627773284912109e-02
-3.097461163997650146e-01
-2.390541881322860718e-01
1.378376781940460205e-01
2.897530421614646912e-02
2.173750102519989014e-01
-5.354931578040122986e-02
-8.540271222591400146e-02
-2.385735362768173218e-01
2.414606139063835144e-02
-3.052392601966857910e-01
-5.826194956898689270e-02
2.974097616970539093e-02
-1.746515631675720215e-01
3.556713461875915527e-02
5.280765891075134277e-01
1.330223865807056427e-02
1.349676847457885742e-01
-1.512306630611419678e-01
1.605591326951980591e-01
-3.245772421360015869e-02
-7.530523091554641724e-02
8.352210372686386108e-02
7.946304976940155029e-02
3.214955702424049377e-02
-2.005703747272491455e-01
1.176815629005432129e-01
-5.002948269248008728e-02
-4.110244289040565491e-02
-3.529741242527961731e-02
2.380651384592056274e-01
-2.134857475757598877e-01
-4.744424521923065186e-01
-7.523130625486373901e-02
-1.320622265338897705e-01
-1.419225037097930908e-01
-1.070938538759946823e-02
4.447637498378753662e-02
3.714163005352020264e-01
-2.121502310037612915e-01
2.519759237766265869e-01
7.186123728752136230e-02
4.143948853015899658e-01
1.392894238233566284e-01
-4.906778633594512939e-01
-1.055072713643312454e-02
3.080578148365020752e-01
-1.195943914353847504e-02
-3.757371604442596436e-01
3.594955429434776306e-02
1.044907886534929276e-02
3.012606203556060791e-01
1.905324496328830719e-02
2.762638218700885773e-02
5.053184926509857178e-03
2.152352035045623779e-01
-2.371471971273422241e-01
-3.289856016635894775e-02
-1.957451701164245605e-01
-3.137037158012390137e-02
6.495794653892517090e-02
-2.449207007884979248e-02
-1.566966921091079712e-01
5.037941038608551025e-03
-5.691137164831161499e-02
7.826202362775802612e-02
-2.063200920820236206e-01
-5.808832496404647827e-02
3.105042278766632080e-01
-4.932268857955932617e-01
-6.329057365655899048e-02
1.663013249635696411e-01
-6.093075275421142578e-01
-2.155527323484420776e-01
6.206775084137916565e-02
-3.274312615394592285e-01
7.046632468700408936e-02
-2.159951329231262207e-01
6.073286011815071106e-02
1.150523573160171509e-01
-2.588842809200286865e-01
3.260830417275428772e-02
1.379390656948089600e-01
-7.801251194905489683e-05
1.442093402147293091e-01
5.486348643898963928e-02
-5.124434828758239746e-01
6.709858775138854980e-02
-3.570334911346435547e-01
-2.102447301149368286e-02
5.213006585836410522e-02
-2.693374752998352051e-01
-4.051485359668731689e-01
-3.276811912655830383e-02
2.952445112168788910e-02
-6.854173261672258377e-03
-3.919165134429931641e-01
-1.703483313322067261e-01
-4.362066388130187988e-01
-2.879717350006103516e-01
7.496432960033416748e-02
-4.101857542991638184e-01
3.839619085192680359e-02
1.016794005408883095e-03
8.686801046133041382e-02
-5.142568051815032959e-02
-2.547388076782226562e-01
1.825774163007736206e-01
-5.747856944799423218e-02
2.330675423145294189e-01
-1.791670918464660645e-01
-2.701884694397449493e-02
5.559755116701126099e-02
7.558840513229370117e-02
1.907965242862701416e-01
-1.762748807668685913e-01
9.793535619974136353e-02
7.889913395047187805e-03
-2.635232917964458466e-02
1.712854951620101929e-01
-5.966532975435256958e-02
-1.944236904382705688e-01
-8.936515450477600098e-02
-3.540845513343811035e-01
-8.640149235725402832e-02
1.263725161552429199e-01
6.420561671257019043e-02
5.397078767418861389e-02
-1.768375784158706665e-01
-8.922147750854492188e-02
-1.271042525768280029e-01
-6.503134220838546753e-02
-2.235219031572341919e-01
-1.704536974430084229e-01
-1.236217617988586426e-01
2.584058344364166260e-01
7.477988302707672119e-02
9.460445493459701538e-02
1.415567249059677124e-01
1.252220571041107178e-01
2.786863036453723907e-02
-8.111710846424102783e-02
-1.409492939710617065e-01
-6.934434175491333008e-01
-1.522567868232727051e-02
-4.060096144676208496e-01
-4.578975960612297058e-02
-4.168740510940551758e-01
-4.274550452828407288e-02
1.204396598041057587e-02
5.686869099736213684e-02
-1.004101801663637161e-02
-1.747525781393051147e-01
-5.016422271728515625e-01
-2.595345973968505859e-01
2.344147115945816040e-01
-1.201339736580848694e-01
3.430264443159103394e-02
-3.681538626551628113e-02
-4.533325731754302979e-01
-1.231873184442520142e-01
1.180507466197013855e-01
2.918905317783355713e-01
1.632772572338581085e-02
1.687410175800323486e-01
-1.807050257921218872e-01
-2.062408924102783203e-01
1.460569500923156738e-01
-2.235244065523147583e-01
1.181316189467906952e-02
-3.709135577082633972e-02
-2.570035755634307861e-01
8.199641853570938110e-02
-4.246046021580696106e-02
3.663574159145355225e-02
-5.389892682433128357e-02
4.064729809761047363e-02
5.154715850949287415e-02
-4.091300666332244873e-01
-2.462802976369857788e-01
4.881852492690086365e-02
5.561739578843116760e-02
9.271359443664550781e-02
-8.589564263820648193e-02
-1.815564744174480438e-02
5.515095219016075134e-02
1.249813660979270935e-01
-1.867615878582000732e-01
-4.636022448539733887e-01
1.398675888776779175e-01
5.849795043468475342e-02
1.135422587394714355e-01
-1.042891442775726318e-01
3.105361461639404297e-01
-1.385657489299774170e-01
-2.209330648183822632e-01
7.195978611707687378e-02
-1.354575604200363159e-01
2.526212856173515320e-02
2.033566981554031372e-01
-7.187967002391815186e-02
-4.014837741851806641e-02
-1.144876182079315186e-01
1.894100606441497803e-01
-9.769190102815628052e-02
-4.577114433050155640e-02
2.838737666606903076e-01
-2.990286946296691895e-01
1.109397336840629578e-01
6.073767319321632385e-03
-3.081235587596893311e-01
1.756877303123474121e-01
9.485623240470886230e-02
-7.644852995872497559e-02
-9.326807409524917603e-02
3.570273518562316895e-02
-4.538893699645996094e-01
1.506605297327041626e-01
1.703184396028518677e-01
5.168608427047729492e-01
3.027684055268764496e-02
3.061555027961730957e-01
7.814237475395202637e-02
3.150230646133422852e-02
-4.416678845882415771e-02
-1.680456474423408508e-02
-1.612037867307662964e-01
-2.660607397556304932e-01
9.906934201717376709e-02
1.896718293428421021e-01
1.141625866293907166e-01
1.458123177289962769e-01
1.406108731316635385e-05
-8.970169723033905029e-02
7.408840209245681763e-02
4.027268290519714355e-02
4.166192412376403809e-01
2.643379569053649902e-01
-5.478646606206893921e-03
1.717857271432876587e-02
-9.356744587421417236e-03
1.829284280538558960e-01
9.936045110225677490e-02
-5.712666735053062439e-02
-3.543758019804954529e-02
-1.866734176874160767e-01
5.050114169716835022e-02
1.099110208451747894e-02
-7.840964198112487793e-02
7.514416426420211792e-02
1.187525019049644470e-01
-5.392083153128623962e-02
-3.844398558139801025e-01
2.161628454923629761e-01
-2.819230258464813232e-01
6.472548246383666992e-01
4.748903959989547729e-02
7.179411500692367554e-02
2.337613552808761597e-01
6.567821651697158813e-02
-2.520260773599147797e-02
1.011162530630826950e-02
-7.801598310470581055e-02
9.086915105581283569e-02
3.661226108670234680e-02
-4.657724872231483459e-02
1.674513816833496094e-01
-2.701529487967491150e-02
-3.558529168367385864e-02
-6.996822357177734375e-02
2.024292796850204468e-01
-1.509760469198226929e-01
1.365080326795578003e-01
-5.521468520164489746e-01
-1.620498895645141602e-01
1.070937067270278931e-01
-9.383899718523025513e-02
-6.505757570266723633e-02
1.197680309414863586e-01
-4.670615121722221375e-02
-1.233007237315177917e-01
-2.890146374702453613e-01
5.448610708117485046e-02
-1.559550762176513672e-01
-2.410338670015335083e-01
-3.008053600788116455e-01
1.242711395025253296e-01
-2.170760482549667358e-01
2.334729582071304321e-01
-5.043156445026397705e-02
-5.877393484115600586e-02
1.014549881219863892e-01
2.018194198608398438e-01
-2.954765036702156067e-02
1.792701333761215210e-02
1.868807226419448853e-01
1.385600566864013672e-01
-6.550995260477066040e-02
2.480604797601699829e-01
-2.104624733328819275e-02
1.039885263890028000e-02
-4.086297005414962769e-02
-3.341015875339508057e-01
5.227375659160315990e-04
-5.414941906929016113e-02
3.745890557765960693e-01
3.034191727638244629e-01
-3.766914829611778259e-02
1.065701991319656372e-01
-3.254007399082183838e-01
-3.488538786768913269e-02
3.406853079795837402e-01
-2.431261390447616577e-01
-2.048659026622772217e-01
3.982011675834655762e-01
-1.903452575206756592e-01
-2.374543994665145874e-02
3.792206048965454102e-01
-2.585857510566711426e-01
-7.211342453956604004e-02
-1.837248951196670532e-01
4.383011907339096069e-02
-2.226976677775382996e-02
1.934995949268341064e-01
-5.974744632840156555e-02
-5.504789203405380249e-02
4.042772203683853149e-02
7.270398736000061035e-02
-1.739890277385711670e-01
9.706611186265945435e-02
-2.132260501384735107e-01
3.310468792915344238e-01
-7.011290639638900757e-02
-7.186234742403030396e-02
-5.374016240239143372e-02
7.870822399854660034e-02
-2.559833526611328125e-01
1.778451204299926758e-01
3.067905828356742859e-02
1.770552396774291992e-01
-7.508966326713562012e-02
-1.542036980390548706e-01
8.941897004842758179e-02
-1.348988059908151627e-02
-1.428333520889282227e-01
-8.545354753732681274e-02
-3.123241364955902100e-01
3.922698795795440674e-01
1.762378066778182983e-01
1.352970898151397705e-01
5.569396615028381348e-01
8.330520987510681152e-02
-1.013540942221879959e-02
-8.436586707830429077e-02
1.041400954127311707e-01
-8.824448287487030029e-02
-3.708012998104095459e-01
2.882921397686004639e-01
3.091995231807231903e-02
1.188035830855369568e-01
2.040030434727668762e-02
-9.390211105346679688e-02
-2.954463660717010498e-01
-2.887543141841888428e-01
3.549660742282867432e-02
1.207227557897567749e-01
4.366778209805488586e-02
-5.113492533564567566e-02
-5.381461977958679199e-01
2.944374270737171173e-02
-3.874197304248809814e-01
-7.204985618591308594e-02
-1.283857375383377075e-01
7.876564562320709229e-02
1.287172883749008179e-01
-3.346747159957885742e-01
6.782531272619962692e-03
3.213939815759658813e-02
1.815794222056865692e-02
2.162030190229415894e-01
4.984987899661064148e-02
-3.631353750824928284e-02
3.235056623816490173e-02
-7.083041220903396606e-02
5.381537228822708130e-02
1.246092170476913452e-01
-1.672348380088806152e-01
-2.456279695034027100e-01
-1.910988008603453636e-03
-9.630039334297180176e-02
-3.252435326576232910e-01
1.524900197982788086e-01
-2.784844636917114258e-01
-1.772035360336303711e-01
-1.454114168882369995e-01
-9.890946745872497559e-02
-1.846522390842437744e-01
-3.230310510843992233e-03
-5.152227878570556641e-01
-9.835723787546157837e-03
-4.622991383075714111e-02
2.611248940229415894e-02
1.648697555065155029e-01
1.608837395906448364e-01
-6.552713457494974136e-03
2.230808883905410767e-01
-6.935179829597473145e-01
1.446662098169326782e-01
2.046570181846618652e-01
6.140369549393653870e-02
-2.052860893309116364e-02
-2.029627114534378052e-01
-7.147382199764251709e-02
1.946969190612435341e-03
-5.366041883826255798e-02
-2.000800222158432007e-01
1.812412440776824951e-01
4.188520833849906921e-02
1.100025177001953125e-01
2.769596502184867859e-02
3.540847077965736389e-02
-1.730922050774097443e-02
-2.833680808544158936e-02
4.718630015850067139e-02
1.978245796635746956e-03
1.862928122282028198e-01
2.803122401237487793e-01
1.355114281177520752e-01
-1.515176743268966675e-01
2.939659543335437775e-02
-5.099647119641304016e-02
3.160222768783569336e-01
-2.162486761808395386e-01
2.314584143459796906e-02
-4.027547538280487061e-01
-7.004024833440780640e-02
3.004181943833827972e-02
-5.824868083000183105e-01
1.069324761629104614e-01
2.814937829971313477e-01
-3.370575308799743652e-01
-6.062260642647743225e-02
3.956113010644912720e-02
1.568794399499893188e-01
3.715266585350036621e-01
2.192070148885250092e-02
2.951260209083557129e-01
-2.324479967355728149e-01
-2.060678750276565552e-01
3.809787705540657043e-02
-2.106572091579437256e-01
1.985089629888534546e-01
-4.310545697808265686e-02
-5.639336258172988892e-02
5.881144665181636810e-03
3.122009150683879852e-02
-1.667965203523635864e-01
-7.653663307428359985e-02
2.304616123437881470e-01
1.472500991076231003e-02
1.040663123130798340e-01
1.979631632566452026e-01
3.491238132119178772e-02
-7.919979840517044067e-02
-1.839985251426696777e-01
1.420874446630477905e-01
1.451783031225204468e-01
7.639694213867187500e-02
-3.286054432392120361e-01
-9.908065944910049438e-02
1.449262201786041260e-01
6.655367463827133179e-02
-3.008570522069931030e-02
1.449819356203079224e-01
1.173049435019493103e-01
-5.140672251582145691e-02
-1.240354329347610474e-01
1.088098064064979553e-01
7.251168042421340942e-02
1.183311417698860168e-01
6.291006505489349365e-02
7.788933068513870239e-02
1.057198122143745422e-01
1.557723432779312134e-01
-2.966919541358947754e-02
-1.658619940280914307e-01
9.291918575763702393e-02
4.069824889302253723e-02
7.605899870395660400e-02
-8.902928233146667480e-02
-2.614153325557708740e-01
8.370081335306167603e-02
-8.227533847093582153e-02
4.282279014587402344e-01
-6.253049522638320923e-02
6.113399267196655273e-01
-4.488367214798927307e-02
9.065432846546173096e-02
-3.894925713539123535e-01
1.232192814350128174e-01
-2.698297426104545593e-02
3.751235455274581909e-02
-3.087075352668762207e-01
-2.747638523578643799e-01
-5.303623899817466736e-02
-2.541858851909637451e-01
2.532629072666168213e-01
-1.218870505690574646e-01
5.672668572515249252e-03
-5.972136184573173523e-02
1.208615079522132874e-01
-2.600947022438049316e-01
1.769872158765792847e-01
-2.659839019179344177e-02
2.997132241725921631e-01
-6.320444345474243164e-01
1.854538768529891968e-01
1.821561157703399658e-02
1.617995053529739380e-01
7.418413460254669189e-02
-2.259476482868194580e-01
1.962425410747528076e-01
2.790699005126953125e-01
6.852421909570693970e-02
-2.568522095680236816e-01
1.065569818019866943e-01
2.794008553028106689e-01
1.544707864522933960e-01
-5.226695910096168518e-02
-2.610858157277107239e-02
3.196561336517333984e-02
2.395983785390853882e-01
-7.304795086383819580e-02
-7.449185475707054138e-03
-3.619735687971115112e-02
-2.246462851762771606e-01
-2.465600222349166870e-01
7.826188579201698303e-03
2.888328731060028076e-01
-2.130498141050338745e-01
5.758075043559074402e-03
1.395982224494218826e-02
-1.177030205726623535e-01
-1.983872614800930023e-02
5.234300717711448669e-02
2.378686219453811646e-01
-5.760366842150688171e-02
3.342452049255371094e-01
-1.384524255990982056e-01
5.992550775408744812e-02
-5.501305684447288513e-03
-2.080114781856536865e-01
8.338386565446853638e-02
-3.354827761650085449e-01
-2.127398401498794556e-01
-2.087279967963695526e-02
-2.126410230994224548e-02
-1.649574376642704010e-02
1.614340543746948242e-01
-1.455344110727310181e-01
4.120575785636901855e-01
7.140633463859558105e-02
-3.681361675262451172e-02
-1.025838255882263184e-01
2.296570129692554474e-02
-1.516487449407577515e-02
-1.235020682215690613e-01
4.480317980051040649e-02
9.197957813739776611e-02
-5.788293853402137756e-02
2.554863095283508301e-01
-1.595014333724975586e-01
-1.598181128501892090e-01
-3.710522130131721497e-02
3.639148175716400146e-02
-8.759986609220504761e-02
2.066772989928722382e-02
9.722442924976348877e-02
-1.857536286115646362e-01
-5.356342792510986328e-01
8.714234828948974609e-02
3.748950064182281494e-01
2.220420725643634796e-02
5.000909417867660522e-02
4.628190398216247559e-01
1.560603547841310501e-02
-8.587506599724292755e-03
-2.059323340654373169e-01
-6.677336245775222778e-02
-7.796243578195571899e-02
-5.761208534240722656e-01
3.798092529177665710e-02
1.086611184291541576e-03
4.867595154792070389e-03
-6.309196352958679199e-02
-9.360058605670928955e-02
2.200216501951217651e-01
2.175726294517517090e-01
7.093279063701629639e-02
1.503788307309150696e-02
-7.912962883710861206e-02
-3.330213725566864014e-01
3.414249792695045471e-02
2.883778512477874756e-01
-9.042210131883621216e-02
-8.268424868583679199e-02
5.812526494264602661e-02
-2.131395787000656128e-02
-2.675085365772247314e-01
4.599095880985260010e-02
-3.154078423976898193e-01
4.597930610179901123e-02
-2.328737825155258179e-01
4.124873131513595581e-02
1.411771774291992188e-01
-3.513796329498291016e-01
1.070206835865974426e-01
3.451872244477272034e-02
-2.455439418554306030e-01
-8.926831930875778198e-02
6.081257387995719910e-02
2.699244581162929535e-02
-1.938835382461547852e-01
2.458976581692695618e-02
-4.110708832740783691e-02
1.087097972631454468e-01
2.565673291683197021e-01
-1.375043094158172607e-01
-5.651162564754486084e-02
8.169469237327575684e-02
-1.883956044912338257e-02
3.891589492559432983e-02
-4.541788622736930847e-02
-6.562568992376327515e-02
-1.839725673198699951e-02
3.125133365392684937e-02
-3.271618112921714783e-02
1.137728244066238403e-02
-5.720105022192001343e-02
-5.875029042363166809e-02
-1.004038676619529724e-01
-1.095577031373977661e-01
-9.816019982099533081e-02
-8.304692804813385010e-02
-7.833891361951828003e-02
2.530592866241931915e-02
-3.991957753896713257e-02
-9.662652760744094849e-02
-8.907379209995269775e-02
2.174820750951766968e-02
3.809696435928344727e-02
-7.164013385772705078e-02
-9.228125959634780884e-02
-5.475395172834396362e-02
-1.118909567594528198e-02
1.675713248550891876e-02
-5.266281589865684509e-02
-4.424127936363220215e-02
-1.072696447372436523e-01
-6.893233209848403931e-02
-4.040925949811935425e-02
-4.330046474933624268e-03
-9.252596646547317505e-03
3.553609549999237061e-02
-1.023665070533752441e-03
2.561435848474502563e-02
-2.088287286460399628e-02
-4.380257800221443176e-02
1.052764244377613068e-02
-4.740786552429199219e-02
-3.437216952443122864e-02
2.335084974765777588e-02
-1.325118634849786758e-02
2.202405035495758057e-02
2.237425558269023895e-02
-1.224133302457630634e-03
-2.375587075948715210e-02
-2.802940551191568375e-03
-1.649212092161178589e-02
-1.344703137874603271e-01
-5.993647873401641846e-02
7.972583174705505371e-02
-1.754818856716156006e-02
-9.875754266977310181e-02
-1.216393187642097473e-01
-3.333844244480133057e-02
2.021437883377075195e-02
-7.847211509943008423e-02
-4.044006392359733582e-02
-7.570935785770416260e-02
-4.468121007084846497e-02
-1.052001491189002991e-01
-3.862579911947250366e-02
1.223817467689514160e-02
-1.867682486772537231e-02
-7.247036695480346680e-02
-9.436499327421188354e-02
-1.088650450110435486e-01
-1.132332980632781982e-01
-7.851228117942810059e-02
-3.031994029879570007e-02
3.701043874025344849e-02
-2.974416315555572510e-02
5.880860984325408936e-02
3.094396181404590607e-02
