2.621875107288360596e-01
-1.286930143833160400e-01
7.276739180088043213e-02
-4.777020215988159180e-02
-7.595406472682952881e-02
4.552758336067199707e-01
2.239552792161703110e-03
8.038966357707977295e-02
1.349437534809112549e-01
-1.289329398423433304e-02
4.110963940620422363e-01
-1.130274608731269836e-01
1.138534992933273315e-01
1.201203688979148865e-01
2.750242352485656738e-01
3.171389400959014893e-01
2.488509267568588257e-01
3.137486279010772705e-01
-1.368991136550903320e-01
-1.658404022455215454e-01
6.384351104497909546e-02
2.638677507638931274e-02
3.450590372085571289e-01
-1.730115413665771484e-01
3.015759289264678955e-01
-8.664178103208541870e-02
3.022636473178863525e-01
1.567835658788681030e-01
3.303933441638946533e-01
1.981345266103744507e-01
1.092172116041183472e-01
1.945780813694000244e-01
-3.468981757760047913e-02
-3.452649414539337158e-01
8.886358141899108887e-02
-7.678534090518951416e-02
4.081982374191284180e-01
3.711703419685363770e-02
2.369772195816040039e-01
1.557762175798416138e-01
1.034909114241600037e-01
9.693616628646850586e-02
-1.733536273241043091e-01
-9.721625596284866333e-02
5.281008407473564148e-02
5.540764331817626953e-02
1.652098149061203003e-01
5.826428532600402832e-01
1.954797655344009399e-01
1.439328640699386597e-01
-1.530840098857879639e-01
2.246656268835067749e-01
5.156198516488075256e-02
1.051122099161148071e-01
4.051165282726287842e-01
-1.254473626613616943e-01
4.041896015405654907e-02
-2.677834630012512207e-01
-2.482588589191436768e-02
4.802665710449218750e-01
-1.460647732019424438e-01
1.701221466064453125e-01
3.188785016536712646e-01
2.362190037965774536e-01
1.410118192434310913e-01
2.524079680442810059e-01
1.215188181959092617e-03
2.937019169330596924e-01
2.015338838100433350e-01
4.600010812282562256e-01
1.426731050014495850e-01
4.561330676078796387e-01
2.907961979508399963e-02
-3.131903409957885742e-01
-7.265647500753402710e-02
3.034908473491668701e-01
2.366886436939239502e-01
-1.228484697639942169e-02
-4.858085140585899353e-02
-1.266900002956390381e-01
-8.050522208213806152e-02
-4.541493579745292664e-02
-2.279286086559295654e-01
-1.481864154338836670e-01
