-4.852627813816070557e-01
-1.368035972118377686e-01
1.066972911357879639e-01
1.605088859796524048e-01
-7.128890138119459152e-03
-5.574942752718925476e-02
2.497808337211608887e-01
1.928936541080474854e-01
-1.019409000873565674e-01
1.213645413517951965e-01
2.191590815782546997e-01
1.735498569905757904e-02
8.673537522554397583e-02
-9.275915473699569702e-02
-2.737658321857452393e-01
1.561938822269439697e-01
8.130642026662826538e-02
-7.318379878997802734e-01
-1.845894604921340942e-01
-1.552718579769134521e-01
-1.624972186982631683e-02
-7.286536693572998047e-02
3.678286671638488770e-01
-1.590013355016708374e-01
3.027221858501434326e-01
-1.173457205295562744e-01
9.202759712934494019e-02
-9.284065961837768555e-01
1.286946386098861694e-01
-3.148481249809265137e-01
-3.844470083713531494e-01
-3.667498826980590820e-01
4.475692287087440491e-02
5.603924393653869629e-02
1.815008819103240967e-01
-5.318396687507629395e-01
1.779191344976425171e-01
-1.666693091392517090e-01
9.303645789623260498e-02
9.714087843894958496e-02
6.130506098270416260e-02
3.416657820343971252e-02
8.030052483081817627e-02
-5.634873509407043457e-01
-1.421508342027664185e-01
2.078476697206497192e-01
-1.868729591369628906e-01
-1.249198336154222488e-02
-2.988785803318023682e-01
1.914305239915847778e-01
-1.331591308116912842e-01
-7.600665837526321411e-02
-3.138428032398223877e-01
2.482059597969055176e-01
-9.381187148392200470e-03
-2.108258306980133057e-01
-7.672127485275268555e-01
-5.523142870515584946e-03
-1.545006483793258667e-01
1.128757521510124207e-01
-9.319090843200683594e-02
8.511919528245925903e-02
9.177454560995101929e-02
2.150953710079193115e-01
2.942811250686645508e-01
1.066052243113517761e-01
-4.076884984970092773e-01
1.389447152614593506e-01
-1.364945620298385620e-01
-2.558872997760772705e-01
-1.693176031112670898e-01
-8.688201308250427246e-01
3.353204205632209778e-02
6.218830123543739319e-02
1.236088797450065613e-01
-2.366726249456405640e-01
-3.937728404998779297e-01
-6.777215003967285156e-02
2.736066468060016632e-03
1.670058816671371460e-01
-4.584983289241790771e-01
-3.239024803042411804e-02
-1.276889890432357788e-01
-3.900820910930633545e-01
3.280409276485443115e-01
-6.014690734446048737e-03
-4.210877716541290283e-01
2.473182678222656250e-01
-4.702521255239844322e-04
-5.367560982704162598e-01
-4.383774399757385254e-01
-4.053567051887512207e-01
1.108505055308341980e-01
-1.057592853903770447e-01
-6.184729337692260742e-01
-2.945617400109767914e-02
-6.563899666070938110e-02
3.782986104488372803e-01
-2.351254969835281372e-02
-5.570158362388610840e-02
-7.080757021903991699e-01
-5.005782246589660645e-01
-1.266565680503845215e+00
-2.396305203437805176e-01
3.050711750984191895e-01
3.732407093048095703e-01
-3.251658380031585693e-01
-4.092981517314910889e-01
2.765205875039100647e-02
2.896264195442199707e-01
-5.494261980056762695e-01
-7.204914093017578125e-01
-5.208194851875305176e-01
2.185968011617660522e-01
-2.466605901718139648e-01
1.278373301029205322e-01
1.800447469577193260e-03
-7.651011943817138672e-01
1.044597551226615906e-01
4.737802445888519287e-01
-7.009366154670715332e-02
-7.221592068672180176e-01
-3.747202754020690918e-01
-5.690179467201232910e-01
-4.908050298690795898e-01
-4.776351451873779297e-01
-8.384630829095840454e-02
4.056933894753456116e-02
-6.706545948982238770e-01
6.160656921565532684e-04
3.555132746696472168e-01
-4.046194255352020264e-01
1.601046174764633179e-01
2.669458985328674316e-01
-1.697346195578575134e-02
-3.966893851757049561e-01
-4.386069476604461670e-01
-2.907782196998596191e-01
1.368468441069126129e-02
1.388579607009887695e-01
-5.522116422653198242e-01
3.264373838901519775e-01
-5.024681091308593750e-01
-2.985527515411376953e-01
-2.636390551924705505e-02
-9.488826990127563477e-01
-3.966740071773529053e-01
1.851597279310226440e-01
2.096231132745742798e-01
-4.544253051280975342e-01
-2.885836362838745117e-01
-2.380933314561843872e-01
-6.892234086990356445e-01
-1.045805335044860840e+00
-5.979260206222534180e-01
-2.781489193439483643e-01
1.513031125068664551e-01
-4.038543403148651123e-01
-5.673245191574096680e-01
-1.028303802013397217e-01
1.949807107448577881e-01
-3.009788393974304199e-01
-6.681470870971679688e-01
-7.337852716445922852e-01
-9.076283574104309082e-01
-4.444830715656280518e-01
-4.160084128379821777e-01
1.895459443330764771e-01
1.040033176541328430e-01
-2.776315808296203613e-02
1.295897066593170166e-01
-4.498500525951385498e-01
7.595483958721160889e-02
-7.229664921760559082e-02
-1.788919866085052490e-01
-4.620810449123382568e-01
3.185480535030364990e-01
-6.386889219284057617e-01
9.744184091687202454e-03
-7.686168700456619263e-02
-1.050075069069862366e-01
-5.143429636955261230e-01
-6.005080342292785645e-01
-3.897733092308044434e-01
8.906263858079910278e-02
-1.743230372667312622e-01
-3.964897394180297852e-01
-2.324890345335006714e-01
-3.877993524074554443e-01
1.240832433104515076e-01
1.783119738101959229e-01
-8.602932840585708618e-02
2.687924206256866455e-01
1.804256439208984375e-01
-1.693980842828750610e-01
-3.584950566291809082e-01
-1.624825596809387207e-01
-4.998172521591186523e-01
-1.199059337377548218e-01
1.090766191482543945e-01
4.794304072856903076e-02
1.803289540112018585e-02
2.611297070980072021e-01
-1.004792526364326477e-01
1.710994988679885864e-01
-2.968501448631286621e-01
-2.758156657218933105e-01
5.800260975956916809e-02
8.024942874908447266e-02
-5.663737058639526367e-01
4.127199575304985046e-02
-6.357117742300033569e-02
-6.244635005714371800e-05
-5.293814465403556824e-02
-3.965741768479347229e-02
4.177653044462203979e-02
-3.457259833812713623e-01
-5.375149846076965332e-01
-7.910367846488952637e-02
3.392819166183471680e-01
3.239540150389075279e-03
-5.544030666351318359e-02
1.038056761026382446e-01
3.043364174664020538e-02
-8.668742775917053223e-01
7.481995970010757446e-02
-6.661631166934967041e-03
8.443374931812286377e-02
-7.262139767408370972e-02
1.449021697044372559e-01
-4.385612905025482178e-02
-3.840263187885284424e-01
-8.303854614496231079e-03
1.511113792657852173e-01
-3.121413057669997215e-03
6.831392645835876465e-02
-7.088242564350366592e-03
9.843237698078155518e-02
1.494134366512298584e-01
1.756798177957534790e-01
1.564152911305427551e-02
1.212084665894508362e-01
-3.862310647964477539e-01
9.698369354009628296e-02
-6.643775850534439087e-02
-3.036396205425262451e-01
9.372647106647491455e-02
-1.181357026100158691e+00
2.688676714897155762e-01
1.474310606718063354e-01
-2.509565651416778564e-02
-2.321124821901321411e-01
-5.382830277085304260e-02
-1.018433421850204468e-01
-4.892431199550628662e-01
-7.714978605508804321e-02
-6.896390020847320557e-02
1.783386766910552979e-01
9.648403152823448181e-03
3.475813865661621094e-01
1.376124005764722824e-02
-3.306071460247039795e-01
6.021191552281379700e-02
4.844747856259346008e-02
8.157427608966827393e-02
1.144446432590484619e-01
2.346190959215164185e-01
1.871463805437088013e-01
-7.597053050994873047e-02
7.485987152904272079e-03
-2.096888571977615356e-01
-4.609577059745788574e-01
-8.996658921241760254e-01
-4.416027069091796875e-01
2.014431953430175781e-01
-4.666003882884979248e-01
1.102419346570968628e-01
-1.971926540136337280e-04
1.152850389480590820e-01
-7.081457972526550293e-02
-2.049766480922698975e-03
1.374112218618392944e-01
1.106134578585624695e-01
3.884123638272285461e-02
3.166474029421806335e-02
-2.106092274188995361e-01
2.246579378843307495e-01
-4.039930701255798340e-01
1.616333574056625366e-01
1.462220847606658936e-01
6.582899391651153564e-02
3.606532141566276550e-02
-1.045299887657165527e+00
-3.148812334984540939e-03
-5.964974686503410339e-02
-2.047491371631622314e-01
-2.461106926202774048e-01
-5.291330218315124512e-01
-2.463507950305938721e-01
9.404759854078292847e-02
9.622850269079208374e-02
5.044228583574295044e-02
-5.226462334394454956e-02
-6.919736862182617188e-01
-1.061389073729515076e-01
-2.399745285511016846e-01
3.747869655489921570e-02
3.841314464807510376e-02
-4.408230483531951904e-01
-3.275035321712493896e-01
1.579713970422744751e-01
-4.479700922966003418e-01
-3.602396696805953979e-02
-2.023743838071823120e-01
-8.622179031372070312e-01
-2.560043334960937500e-01
-4.359742701053619385e-01
5.842332914471626282e-02
-2.529833614826202393e-01
7.520104199647903442e-02
-6.628069877624511719e-01
1.763554662466049194e-01
4.390973225235939026e-02
1.040590647608041763e-02
9.223786741495132446e-02
-2.686181962490081787e-01
2.520440220832824707e-01
1.420992910861968994e-01
1.636938303709030151e-01
-1.273513734340667725e-01
-4.445234537124633789e-01
-3.003426492214202881e-01
-3.698094189167022705e-01
-2.579112052917480469e-01
1.670647785067558289e-02
-9.250862598419189453e-01
1.026390194892883301e-01
-1.212927252054214478e-01
1.527509242296218872e-01
-1.452837954275310040e-03
2.878747321665287018e-02
5.914392322301864624e-02
1.995905488729476929e-01
3.187371045351028442e-02
8.740862458944320679e-02
-1.445978134870529175e-01
-4.953234195709228516e-01
1.586058735847473145e-01
-7.409500479698181152e-01
-2.837101221084594727e-01
-8.276168107986450195e-01
1.085672453045845032e-01
-1.525805741548538208e-01
2.736374363303184509e-02
9.844779968261718750e-02
-4.747687652707099915e-02
-7.935647964477539062e-01
6.928285956382751465e-02
-2.606431841850280762e-01
-2.632046639919281006e-01
-5.352930352091789246e-02
-1.988642215728759766e-01
1.195347774773836136e-02
4.992303848266601562e-01
-4.803925752639770508e-01
6.816550344228744507e-02
-6.401631236076354980e-02
1.783162951469421387e-01
-6.181183084845542908e-02
-1.611313074827194214e-01
1.869598403573036194e-02
6.314679980278015137e-02
-3.252951800823211670e-02
8.220107853412628174e-02
-3.896856606006622314e-01
8.102225512266159058e-02
1.265718489885330200e-01
1.486257463693618774e-01
1.739811524748802185e-02
2.146210223436355591e-01
7.109144330024719238e-02
7.004966493695974350e-03
5.995896458625793457e-02
-1.839008927345275879e-01
1.151449084281921387e-01
-5.746700763702392578e-01
-7.563089579343795776e-02
-1.856309175491333008e-01
-3.742496073246002197e-01
-1.242497116327285767e-01
-4.168233871459960938e-01
1.831468343734741211e-01
-4.492933154106140137e-01
1.119944453239440918e-01
5.404499173164367676e-02
-3.800131380558013916e-01
-1.259088814258575439e-01
2.902197837829589844e-02
-4.152073860168457031e-01
6.076140329241752625e-02
-6.165917515754699707e-01
1.344199031591415405e-01
-4.439352750778198242e-01
-3.566771000623703003e-02
-5.089305713772773743e-02
1.721939891576766968e-01
3.923527523875236511e-02
1.556717604398727417e-01
1.097130775451660156e-01
-3.061688542366027832e-01
2.540006637573242188e-01
6.419096887111663818e-02
-5.045074820518493652e-01
-8.973022699356079102e-01
1.247964203357696533e-01
-7.825434207916259766e-01
-7.081466317176818848e-01
1.990400254726409912e-01
-2.922941148281097412e-01
6.223188713192939758e-02
-5.262532234191894531e-01
7.046805322170257568e-02
-7.142319679260253906e-01
-3.954170048236846924e-01
7.815400511026382446e-02
-6.964498162269592285e-01
-7.497972249984741211e-01
1.434910446405410767e-01
-2.681943178176879883e-01
-2.028925567865371704e-01
-1.404851526021957397e-01
-7.119245529174804688e-01
1.200741603970527649e-01
7.327434420585632324e-02
1.509649306535720825e-01
-4.469002187252044678e-01
3.288529813289642334e-02
1.773157417774200439e-01
-8.316403627395629883e-01
-1.312547177076339722e-01
3.070734441280364990e-01
-5.932168364524841309e-01
-1.838259547948837280e-01
-3.760247230529785156e-01
6.243187189102172852e-02
-2.973061501979827881e-01
-1.870357096195220947e-01
-5.444397032260894775e-02
-5.956068634986877441e-02
1.618530452251434326e-01
-5.948822200298309326e-02
-1.941266059875488281e-01
-7.880768179893493652e-02
-2.182346582412719727e-01
-2.544854581356048584e-01
-4.673013091087341309e-02
-6.630553007125854492e-01
-2.944966852664947510e-01
1.202512010931968689e-01
1.375448703765869141e-01
1.618173271417617798e-01
7.599423080682754517e-02
4.259368404746055603e-02
1.546768099069595337e-02
-3.178316950798034668e-01
8.390261232852935791e-02
-2.142137140035629272e-01
-4.275516271591186523e-01
-3.718385472893714905e-02
-4.562001228332519531e-01
2.371444180607795715e-02
1.892959475517272949e-01
-2.340390086174011230e-01
-4.276359677314758301e-01
6.793005764484405518e-02
-2.393990755081176758e-01
1.084242463111877441e-01
-8.381694555282592773e-03
-4.944702982902526855e-01
2.437648624181747437e-01
6.551436334848403931e-02
2.053508311510086060e-01
1.832942366600036621e-01
-3.559025526046752930e-01
-4.340723454952239990e-01
-1.091320276260375977e+00
2.071828395128250122e-01
-5.454807281494140625e-01
1.790700703859329224e-01
-2.965957224369049072e-01
-3.974246233701705933e-02
-6.281063705682754517e-02
-8.787404894828796387e-01
1.431691646575927734e-01
-5.167564153671264648e-01
-7.395171523094177246e-01
2.419962920248508453e-02
-6.409552693367004395e-01
-1.061988696455955505e-01
-7.074294686317443848e-01
1.582150161266326904e-01
4.820678755640983582e-02
8.996944129467010498e-02
1.867632418870925903e-01
1.318698227405548096e-01
-9.150604158639907837e-02
1.334450840950012207e-01
-2.510189078748226166e-02
-8.600269444286823273e-03
8.100052922964096069e-02
-2.695698142051696777e-01
-7.395722717046737671e-02
-4.803135693073272705e-01
-9.965275228023529053e-02
-5.933792591094970703e-01
3.464306145906448364e-02
1.105968188494443893e-02
-1.686213612556457520e-01
-2.762898504734039307e-01
1.802446506917476654e-02
5.400442332029342651e-02
1.220573037862777710e-01
6.597422808408737183e-02
-6.612241268157958984e-02
-3.554603457450866699e-01
1.790387332439422607e-01
-4.079047441482543945e-01
2.784867286682128906e-01
-4.303894340991973877e-01
-4.659294188022613525e-01
1.630759984254837036e-01
1.906825788319110870e-02
2.073281407356262207e-01
7.389249652624130249e-02
1.579027473926544189e-01
-5.085243284702301025e-02
1.553443726152181625e-02
-2.841693758964538574e-01
-2.418039739131927490e-01
-2.089642882347106934e-01
1.274790763854980469e-01
2.998234629631042480e-01
-5.352278798818588257e-02
9.220757335424423218e-02
1.151511222124099731e-01
-1.611807197332382202e-01
5.492800474166870117e-02
-1.384265124797821045e-01
8.927616477012634277e-02
-3.087833821773529053e-01
-2.525940537452697754e-01
-1.728760451078414917e-01
-1.600975692272186279e-01
1.334615498781204224e-01
-8.187620341777801514e-02
-2.280583232641220093e-01
-4.731501638889312744e-01
5.033465102314949036e-02
1.664080172777175903e-01
5.191078409552574158e-02
-9.731703996658325195e-01
-7.622226327657699585e-02
-4.080496728420257568e-01
1.347782909870147705e-01
-2.996620722115039825e-02
1.243742331862449646e-01
-1.183366328477859497e-01
2.046027928590774536e-01
4.242719337344169617e-02
1.082680150866508484e-01
-3.238726258277893066e-01
1.025137230753898621e-01
-1.106888726353645325e-01
-2.714218199253082275e-01
-2.144619375467300415e-01
-9.946590289473533630e-03
6.179817020893096924e-03
-4.061295390129089355e-01
1.119973212480545044e-01
1.303787976503372192e-01
-1.152057573199272156e-01
6.968867033720016479e-02
8.536477386951446533e-02
-2.955315709114074707e-01
4.149624612182378769e-03
-2.320711463689804077e-01
-5.009812712669372559e-01
5.530869588255882263e-02
-9.058130383491516113e-01
-1.135634165257215500e-02
8.151777088642120361e-02
-1.269543319940567017e-01
-4.785720258951187134e-02
-5.996877551078796387e-01
-3.059981167316436768e-01
-3.532275855541229248e-01
2.230973988771438599e-01
1.013427004218101501e-01
2.818216085433959961e-01
7.216395344585180283e-03
-1.015146076679229736e-01
-2.401939630508422852e-01
8.720969408750534058e-02
-1.212762951850891113e+00
-1.158785633742809296e-02
2.348794341087341309e-01
-7.002667188644409180e-01
-1.212160214781761169e-01
-1.539399381726980209e-03
-3.121758997440338135e-01
5.043668672442436218e-03
-8.571301102638244629e-01
-1.616512984037399292e-01
1.873478665947914124e-02
2.235888987779617310e-01
2.519147694110870361e-01
1.250028163194656372e-01
7.977365702390670776e-02
-1.320531964302062988e-01
-5.083280801773071289e-02
-6.208904087543487549e-02
-2.922569215297698975e-02
-3.590125143527984619e-01
-1.024169683456420898e+00
-1.702309966087341309e+00
-1.711077392101287842e-01
-1.651802062988281250e-01
-8.197494745254516602e-01
-3.945709764957427979e-01
-4.525984823703765869e-01
-1.499423291534185410e-02
1.377231776714324951e-01
1.007471904158592224e-01
1.544099152088165283e-01
1.255820989608764648e-01
3.695699945092201233e-02
4.614307358860969543e-02
-5.563501119613647461e-01
-4.041976854205131531e-02
-1.902884393930435181e-01
1.435887813568115234e-01
1.753343790769577026e-01
-3.473540246486663818e-01
-8.522917032241821289e-01
1.785532534122467041e-01
-3.647733628749847412e-01
-2.214979827404022217e-01
1.076648011803627014e-01
5.596984922885894775e-02
-7.241913676261901855e-01
8.490870706737041473e-03
-3.896646797657012939e-01
-2.127010077238082886e-01
-1.570666432380676270e+00
-1.115542426705360413e-01
-1.197927117347717285e+00
1.141594126820564270e-01
-3.125335574150085449e-01
-4.684209823608398438e-01
-1.857847720384597778e-02
-1.469805002212524414e+00
-2.867965102195739746e-01
-1.670394465327262878e-02
-1.550778627395629883e+00
1.628280133008956909e-01
-3.204883933067321777e-01
-1.790603846311569214e-01
-6.036433577537536621e-02
-3.128007650375366211e-01
-1.503938287496566772e-01
-3.746189773082733154e-01
1.071255281567573547e-01
-1.804626137018203735e-01
2.537620253860950470e-02
-3.099334239959716797e-01
-1.758312433958053589e-02
-2.835624851286411285e-02
2.595800161361694336e-01
-1.424381285905838013e-01
2.522307932376861572e-01
-4.129772186279296875e-01
4.170672595500946045e-02
1.052697226405143738e-01
6.177599728107452393e-02
-1.229742467403411865e-01
8.537898212671279907e-02
2.583941817283630371e-01
-5.408188700675964355e-01
4.821351915597915649e-02
-1.786326318979263306e-01
1.349849849939346313e-01
9.178167581558227539e-02
-8.058656007051467896e-02
-1.102031171321868896e-01
-1.318821012973785400e-01
-6.444716453552246094e-01
-4.676796197891235352e-01
-1.099454890936613083e-02
2.086152881383895874e-02
-2.532800436019897461e-01
1.525635570287704468e-01
-4.300054609775543213e-01
2.928144037723541260e-01
2.826069593429565430e-01
4.070002213120460510e-02
2.578443586826324463e-01
-6.890470385551452637e-01
-3.759456574916839600e-01
-5.532311201095581055e-01
-9.928399324417114258e-02
2.080161571502685547e-01
-4.551790654659271240e-01
-3.662657439708709717e-01
-1.970129460096359253e-01
2.852983400225639343e-02
-1.248322799801826477e-01
9.424880146980285645e-02
1.380907893180847168e-01
2.721578776836395264e-01
4.949148297309875488e-01
3.100565075874328613e-01
-1.089056022465229034e-02
-6.857326626777648926e-02
-3.360196352005004883e-01
-1.269193440675735474e-01
2.350775599479675293e-01
-9.958249330520629883e-02
-4.855197295546531677e-02
-1.195200562477111816e+00
-1.811685264110565186e-01
2.181338369846343994e-01
1.384126693010330200e-01
-5.987062305212020874e-02
5.608846619725227356e-02
-2.385358139872550964e-02
2.158623039722442627e-01
-3.237340450286865234e-01
-5.190122723579406738e-01
2.025427669286727905e-01
1.438591480255126953e-01
1.635702550411224365e-01
2.445081919431686401e-01
2.513256072998046875e-01
6.272723525762557983e-02
-7.873064875602722168e-01
4.423826187849044800e-02
-4.488511383533477783e-01
-4.893222749233245850e-01
-2.851760387420654297e-01
-5.478438138961791992e-01
-1.632823050022125244e-01
-6.633964776992797852e-01
9.833864867687225342e-02
4.081495851278305054e-02
3.773888945579528809e-01
-1.112187132239341736e-01
-1.131242156028747559e+00
7.972563616931438446e-03
-3.412336409091949463e-01
-3.569470942020416260e-01
1.679946854710578918e-02
-1.253675371408462524e-01
-1.759552717208862305e+00
-5.138187408447265625e-01
1.945766508579254150e-01
1.591972857713699341e-01
-5.305223166942596436e-02
-1.386126279830932617e-01
1.591574996709823608e-01
1.194324437528848648e-02
1.122726052999496460e-01
-1.510923206806182861e-01
1.946463137865066528e-01
-1.937926262617111206e-01
-7.011263966560363770e-01
-1.082491949200630188e-01
-1.300245970487594604e-01
-2.040019957348704338e-03
-8.940206766128540039e-01
-1.905624389648437500e+00
2.614945173263549805e-01
2.255323231220245361e-01
-3.036497831344604492e-01
-3.708203434944152832e-01
2.491712756454944611e-02
7.322640623897314072e-03
2.213801145553588867e-01
-5.725525021553039551e-01
1.498881820589303970e-02
-7.212526798248291016e-01
3.444600999355316162e-01
-6.847910284996032715e-01
-9.594452381134033203e-01
3.688527047634124756e-01
4.736626520752906799e-02
-1.297291368246078491e-01
-5.181557685136795044e-02
-1.689293682575225830e-01
3.378946334123611450e-02
-3.375457972288131714e-02
4.528227448463439941e-02
5.349045619368553162e-02
-9.252044558525085449e-02
1.700584962964057922e-02
-7.870233654975891113e-01
-8.652684092521667480e-01
-6.429732590913772583e-02
-1.240982338786125183e-01
-3.276228904724121094e-01
1.585294008255004883e-01
-5.413017272949218750e-01
-9.320873767137527466e-02
2.055690437555313110e-01
-5.029868483543395996e-01
1.633240282535552979e-01
-5.582516789436340332e-01
5.725958943367004395e-02
-9.069888293743133545e-02
-3.198564350605010986e-01
-1.073541879653930664e+00
-4.350421130657196045e-01
-3.938741683959960938e-01
1.157598048448562622e-01
-2.337373197078704834e-01
1.057246774435043335e-01
-7.532895207405090332e-01
2.154218554496765137e-01
-1.600481420755386353e-01
-7.440795898437500000e-01
-4.244543612003326416e-01
1.772459745407104492e-01
-2.706700265407562256e-01
1.319515239447355270e-02
-5.006392598152160645e-01
2.009192556142807007e-01
-1.940311980433762074e-03
-2.218290269374847412e-01
-3.781881034374237061e-01
-4.501176774501800537e-01
1.718522608280181885e-01
